{"learner":{"attributes":{"best_iteration":"55","best_score":"25.106291285883707","scikit_learn":"{\"_estimator_type\": \"regressor\"}"},"feature_names":["pm2_5","pm10","co","no2","o3","so2","temperature","humidity","wind_speed","rainfall","hour","day_of_week","month","is_weekend","pm2_5_lag1","pm2_5_lag24","pm2_5_lag48","pm10_lag1","pm10_lag24","pm10_lag48","no2_lag1","no2_lag24","no2_lag48","co_lag1","co_lag24","co_lag48","o3_lag1","o3_lag24","o3_lag48","so2_lag1","so2_lag24","so2_lag48","pm2_5_rolling6","pm2_5_rolling24","pm2_5_change_1h","pm2_5_change_24h","pm2_5_rolling6_std","pm2_5_rolling24_max","pm2_5_rolling24_min","humidity_pm25","wind_pm25_ratio","temp_wind_interaction","is_pollution_spike","is_diwali","is_diwali_window","is_stubble_burning","city_encoded","hour_bucket_daytime","hour_bucket_evening_rush","hour_bucket_morning_rush","hour_bucket_night"],"feature_types":["float","float","float","float","float","float","float","int","float","float","int","int","int","int","float","float","float","float","float","float","float","float","float","float","float","float","float","float","float","float","float","float","float","float","float","float","float","float","float","float","float","float","int","int","int","int","int","int","int","int","int"],"gradient_booster":{"model":{"cats":{"enc":[],"feature_segments":[],"sorted_idx":[]},"gbtree_model_param":{"num_parallel_tree":"1","num_trees":"106"},"iteration_indptr":[0,1,2,3,4,5,6,7,8,9,10,11,12,13,14,15,16,17,18,19,20,21,22,23,24,25,26,27,28,29,30,31,32,33,34,35,36,37,38,39,40,41,42,43,44,45,46,47,48,49,50,51,52,53,54,55,56,57,58,59,60,61,62,63,64,65,66,67,68,69,70,71,72,73,74,75,76,77,78,79,80,81,82,83,84,85,86,87,88,89,90,91,92,93,94,95,96,97,98,99,100,101,102,103,104,105,106],"tree_info":[0,0,0,0,0,0,0,0,0,0,0,0,0,0,0,0,0,0,0,0,0,0,0,0,0,0,0,0,0,0,0,0,0,0,0,0,0,0,0,0,0,0,0,0,0,0,0,0,0,0,0,0,0,0,0,0,0,0,0,0,0,0,0,0,0,0,0,0,0,0,0,0,0,0,0,0,0,0,0,0,0,0,0,0,0,0,0,0,0,0,0,0,0,0,0,0,0,0,0,0,0,0,0,0,0,0],"trees":[{"base_weights":[-5.179383E-2,-1.5434386E1,4.945691E1,-2.4364674E1,-2.047176E0,3.80449E1,9.652198E1,-3.09044E1,-2.0607256E1,-8.715908E0,6.92594E0,6.1943035E1,3.1980812E1,1.0434104E2,4.3097614E1,-3.6753185E1,-2.8912598E1,-2.266735E1,-1.725171E1,-1.1660008E1,-2.8378973E0,2.984944E0,1.7074915E1,2.7771456E1,6.8691536E1,2.3260584E1,4.329112E1,8.693236E1,1.1348262E2,2.735377E1,6.3664127E1,-3.821488E1,-3.385557E1,-3.0666388E1,-2.6761864E1,-2.3288216E1,-1.7749231E1,-1.8062424E1,-8.28264E0,-1.4478544E1,-8.706318E0,-6.4103737E0,6.5768185E0,5.789607E1,2.4401777E0,3.363876E1,1.3207374E1,9.825048E0,4.1509365E1,6.091274E1,9.271913E1,1.6700459E1,3.334833E1,3.925651E1,5.611713E1,1.0605239E2,7.277497E1,1.19875694E2,6.1288105E1,1.097276E1,3.7525738E1,9.752367E-1,6.838825E1,-1.0334983E0,-1.9188055E0,-1.5572995E0,-1.7864487E0,-1.9114465E-1,-1.540607E0,1.8380591E-1,-1.3467993E0,-8.801417E-2,-1.1690648E0,-1.0379732E0,-5.4577535E-1,6.9797266E-1,-9.083244E-1,-4.7356972E-1,1.4817367E0,-2.8666267E-1,-7.537261E-1,-3.4687334E-1,-7.1633154E-1,-5.537229E-1,-1.7841797E-1,8.593294E-3,6.1855954E-1,3.6827857E0,7.050796E-2,-1.8418883E-1,2.6113474E-1,1.5129685E0,3.3639543E0,4.2506552E-1,9.776207E-1,8.629387E-1,-2.4875497E-2,1.7343544E0,3.4529374E0,4.1190286E0,2.8018653E0,4.21602E0,8.009354E0,3.730383E-1,1.0335025E0,1.4896735E0,2.4843714E0,2.0812504E0,1.2886646E0,1.6461792E0,3.0699835E0,4.924425E0,8.554694E0,2.6225104E0,4.171276E0,4.8034606E0,6.208571E0,5.520588E0,2.5082207E0,-4.6554032E-1,1.1941812E0,3.4252365E0,1.6049464E0,4.6224537E0,2.788531E0],"categories":[],"categories_nodes":[],"categories_segments":[],"categories_sizes":[],"default_left":[0,0,0,0,0,0,0,0,0,0,0,0,0,0,0,0,0,0,0,0,0,0,0,0,0,0,0,0,0,0,0,0,0,0,0,0,0,0,0,0,0,0,0,0,0,0,0,0,0,0,0,0,0,0,0,0,0,0,0,0,0,0,0,0,0,0,0,0,0,0,0,0,0,0,0,0,0,0,0,0,0,0,0,0,0,0,0,0,0,0,0,0,0,0,0,0,0,0,0,0,0,0,0,0,0,0,0,0,0,0,0,0,0,0,0,0,0,0,0,0,0,0,0,0,0],"id":0,"left_children":[1,3,5,7,9,11,13,15,17,19,21,23,25,27,29,31,33,35,37,39,41,43,45,47,49,51,53,55,57,59,61,63,65,67,69,71,73,75,77,79,81,83,85,87,89,91,93,95,97,99,101,103,105,107,109,111,113,115,117,119,121,-1,123,-1,-1,-1,-1,-1,-1,-1,-1,-1,-1,-1,-1,-1,-1,-1,-1,-1,-1,-1,-1,-1,-1,-1,-1,-1,-1,-1,-1,-1,-1,-1,-1,-1,-1,-1,-1,-1,-1,-1,-1,-1,-1,-1,-1,-1,-1,-1,-1,-1,-1,-1,-1,-1,-1,-1,-1,-1,-1,-1,-1,-1,-1],"loss_changes":[2.6482152E7,3.1716545E6,4.4237E6,3.9041E5,6.353743E5,9.59711E5,6.67211E5,6.6563E4,6.94965E4,1.05374375E5,1.8101578E5,3.075665E5,5.212305E5,2.13252E5,6.5284344E4,4.9365E3,1.553075E4,1.870475E4,2.7845E4,3.3657125E4,6.8453414E4,9.743736E4,8.065741E4,5.4571938E4,2.03687E5,1.9744438E5,1.170245E5,1.24108E5,2.98308E5,1.941686E4,1.7232781E4,1.9505E3,1.4354375E3,9.19775E3,1.0460375E4,1.1092E4,1.4296578E4,1.2016625E4,1.4749572E4,1.07285E4,1.9624547E4,1.9512184E4,2.0780975E4,2.8382469E4,5.5075508E4,2.5134594E4,3.0530016E4,7.528624E3,2.1286203E4,8.424425E4,1.4062025E5,6.6416E4,6.694175E4,5.5005E4,6.5242375E4,8.400225E4,5.6885125E4,7.1418E4,5.019778E4,1.2530656E4,1.0073617E4,0E0,1.9131281E4,0E0,0E0,0E0,0E0,0E0,0E0,0E0,0E0,0E0,0E0,0E0,0E0,0E0,0E0,0E0,0E0,0E0,0E0,0E0,0E0,0E0,0E0,0E0,0E0,0E0,0E0,0E0,0E0,0E0,0E0,0E0,0E0,0E0,0E0,0E0,0E0,0E0,0E0,0E0,0E0,0E0,0E0,0E0,0E0,0E0,0E0,0E0,0E0,0E0,0E0,0E0,0E0,0E0,0E0,0E0,0E0,0E0,0E0,0E0,0E0,0E0,0E0],"parents":[2147483647,0,0,1,1,2,2,3,3,4,4,5,5,6,6,7,7,8,8,9,9,10,10,11,11,12,12,13,13,14,14,15,15,16,16,17,17,18,18,19,19,20,20,21,21,22,22,23,23,24,24,25,25,26,26,27,27,28,28,29,29,30,30,31,31,32,32,33,33,34,34,35,35,36,36,37,37,38,38,39,39,40,40,41,41,42,42,43,43,44,44,45,45,46,46,47,47,48,48,49,49,50,50,51,51,52,52,53,53,54,54,55,55,56,56,57,57,58,58,59,59,60,60,62,62],"right_children":[2,4,6,8,10,12,14,16,18,20,22,24,26,28,30,32,34,36,38,40,42,44,46,48,50,52,54,56,58,60,62,64,66,68,70,72,74,76,78,80,82,84,86,88,90,92,94,96,98,100,102,104,106,108,110,112,114,116,118,120,122,-1,124,-1,-1,-1,-1,-1,-1,-1,-1,-1,-1,-1,-1,-1,-1,-1,-1,-1,-1,-1,-1,-1,-1,-1,-1,-1,-1,-1,-1,-1,-1,-1,-1,-1,-1,-1,-1,-1,-1,-1,-1,-1,-1,-1,-1,-1,-1,-1,-1,-1,-1,-1,-1,-1,-1,-1,-1,-1,-1,-1,-1,-1,-1],"split_conditions":[5.93E1,2.76E1,9.2416E3,1.33E1,5.98E1,2.08E1,2.37E1,6.7083335E0,2.15E1,1.6E1,8.82E1,1.92E1,8.17E1,1.471E2,9.4975E1,3.559322E-1,7.315E2,3.25E1,3.8758335E1,3.64E1,4.33E1,1.49E1,2.35E1,9.94E1,1.397E2,1.036E2,1.113E2,1.52E1,2.078625E2,2.9E1,2.45E1,1.7E0,3E0,-3.52E1,2.2E0,1.9E1,1.07E1,1.75E1,9.24E1,2.5E0,3.32E1,3.28E1,2.29E1,8.8E1,1.65E1,5.95E1,5.01E1,7.5E1,6.3E3,7.08E1,9.2E0,4.35E1,4.95E1,1E0,1.49E1,2E1,5.26E1,1.802E2,1.172E3,3.97E1,1.73E1,9.752367E-1,1.411E2,-1.0334983E0,-1.9188055E0,-1.5572995E0,-1.7864487E0,-1.9114465E-1,-1.540607E0,1.8380591E-1,-1.3467993E0,-8.801417E-2,-1.1690648E0,-1.0379732E0,-5.4577535E-1,6.9797266E-1,-9.083244E-1,-4.7356972E-1,1.4817367E0,-2.8666267E-1,-7.537261E-1,-3.4687334E-1,-7.1633154E-1,-5.537229E-1,-1.7841797E-1,8.593294E-3,6.1855954E-1,3.6827857E0,7.050796E-2,-1.8418883E-1,2.6113474E-1,1.5129685E0,3.3639543E0,4.2506552E-1,9.776207E-1,8.629387E-1,-2.4875497E-2,1.7343544E0,3.4529374E0,4.1190286E0,2.8018653E0,4.21602E0,8.009354E0,3.730383E-1,1.0335025E0,1.4896735E0,2.4843714E0,2.0812504E0,1.2886646E0,1.6461792E0,3.0699835E0,4.924425E0,8.554694E0,2.6225104E0,4.171276E0,4.8034606E0,6.208571E0,5.520588E0,2.5082207E0,-4.6554032E-1,1.1941812E0,3.4252365E0,1.6049464E0,4.6224537E0,2.788531E0],"split_indices":[0,0,39,0,37,6,6,33,0,31,19,5,0,0,33,40,39,16,33,0,0,6,6,1,16,19,0,6,33,27,20,5,11,35,38,6,5,6,16,30,38,16,3,7,30,31,0,26,39,19,8,16,22,42,20,10,38,37,24,38,21,0,19,0,0,0,0,0,0,0,0,0,0,0,0,0,0,0,0,0,0,0,0,0,0,0,0,0,0,0,0,0,0,0,0,0,0,0,0,0,0,0,0,0,0,0,0,0,0,0,0,0,0,0,0,0,0,0,0,0,0,0,0,0,0],"split_type":[0,0,0,0,0,0,0,0,0,0,0,0,0,0,0,0,0,0,0,0,0,0,0,0,0,0,0,0,0,0,0,0,0,0,0,0,0,0,0,0,0,0,0,0,0,0,0,0,0,0,0,0,0,0,0,0,0,0,0,0,0,0,0,0,0,0,0,0,0,0,0,0,0,0,0,0,0,0,0,0,0,0,0,0,0,0,0,0,0,0,0,0,0,0,0,0,0,0,0,0,0,0,0,0,0,0,0,0,0,0,0,0,0,0,0,0,0,0,0,0,0,0,0,0,0],"sum_hessian":[3.4771E4,2.6529E4,8.242E3,1.5913E4,1.0616E4,6.635E3,1.607E3,5.804E3,1.0109E4,6.09E3,4.526E3,1.341E3,5.294E3,1.401E3,2.06E2,1.47E3,4.334E3,6.26E3,3.849E3,4.057E3,2.033E3,3.261E3,1.265E3,2.22E2,1.119E3,2.991E3,2.303E3,4.86E2,9.15E2,1.18E2,8.8E1,9.69E2,5.01E2,2.38E3,1.954E3,5.555E3,7.05E2,3.529E3,3.2E2,2.074E3,1.983E3,1.474E3,5.59E2,3.1E1,3.23E3,2.38E2,1.027E3,9.7E1,1.25E2,8.48E2,2.71E2,1.814E3,1.177E3,1.755E3,5.48E2,2.04E2,2.82E2,8.14E2,1.01E2,4.6E1,7.2E1,9E0,7.9E1,1E1,9.59E2,2.12E2,2.89E2,1.3E1,2.367E3,1.1E1,1.943E3,2.4E1,5.531E3,4.88E2,2.17E2,1.1E1,3.518E3,3.11E2,9E0,1.33E2,1.941E3,1.51E3,4.73E2,5.57E2,9.17E2,2.66E2,2.93E2,2.4E1,7E0,1.009E3,2.221E3,2.18E2,2E1,5.91E2,4.36E2,5.6E1,4.1E1,1.02E2,2.3E1,1.54E2,6.94E2,2.43E2,2.8E1,5.46E2,1.268E3,9.69E2,2.08E2,1.491E3,2.64E2,1.03E2,4.45E2,1.85E2,1.9E1,9.9E1,1.83E2,1.28E2,6.86E2,1.7E1,8.4E1,1.8E1,2.8E1,9E0,6.3E1,2.5E1,5.4E1],"tree_param":{"num_deleted":"0","num_feature":"51","num_nodes":"125","size_leaf_vector":"1"}},{"base_weights":[-3.4493458E-2,-1.455846E1,4.656397E1,-2.3643139E1,-2.3774858E0,3.274106E1,8.032507E1,-3.0019423E1,-2.0395908E1,-6.930824E0,9.093887E0,5.6536552E1,2.739473E1,9.406969E1,5.1022614E1,-3.0629757E1,-1.1053132E1,-2.1294798E1,-1.469271E1,-1.115571E1,-2.6980073E0,6.6168284E0,2.8850693E1,4.8706997E1,8.463526E1,2.049277E1,3.5672764E1,1.0364696E2,7.170682E1,6.527837E1,4.259246E1,-3.361477E1,-2.7804914E1,-1.9478628E1,5.692443E0,-1.7721474E1,-2.2359804E1,-2.2122425E1,-1.2564165E1,-1.3131348E1,-6.88208E0,-8.008825E0,1.8491274E0,3.1048E0,1.7927086E1,4.215996E1,1.73728E1,2.2242422E1,5.5815514E1,7.520414E1,1.3980043E2,1.5215563E1,3.1393139E1,3.0245348E1,4.297601E1,7.026054E1,1.0887588E2,5.639471E1,8.601321E1,4.5172615E1,7.861361E1,3.1828678E1,4.8946373E1,-1.7864789E0,-1.5661432E0,-7.030426E-2,-1.3964175E0,-1.7465007E-1,-1.405332E0,4.3559366E-1,-5.354094E-1,-6.55584E-1,-9.757423E-1,-1.1587373E0,-8.99658E-1,-1.3176829E0,-8.5250294E-1,-7.2641194E-1,-3.7090907E-1,-8.696974E-1,-5.935308E-1,-4.861431E-1,-9.82557E-2,-4.897504E-1,-5.9539974E-2,1.2854261E0,5.8312226E-2,-6.9380574E-2,4.135886E-1,3.585345E0,8.262653E-1,2.5302632E0,1.1853323E0,2.6091933E-1,1.2462913E0,1.4951432E0,1.8362238E-1,2.450439E0,3.418345E0,2.2060707E0,4.1303267E0,9.583945E0,9.309061E-1,4.2345244E-1,1.0268036E0,8.607089E-1,1.7665367E0,9.739961E-1,1.645467E0,1.7631187E0,2.4508274E0,2.0151212E0,5.367321E0,5.58979E0,3.246357E0,3.4273736E0,1.4210297E0,4.604675E0,1.574145E0,1.3911589E0,2.66341E0,3.1068246E0,4.840352E0,2.0117493E0,6.8925285E-1,1.5948164E0,2.6944692E0],"categories":[],"categories_nodes":[],"categories_segments":[],"categories_sizes":[],"default_left":[0,0,0,0,0,0,0,0,0,0,0,0,0,0,0,0,0,0,0,0,0,0,0,0,0,0,0,0,0,0,0,0,0,0,0,0,0,0,0,0,0,0,0,0,0,0,0,0,0,0,0,0,0,0,0,0,0,0,0,0,0,0,0,0,0,0,0,0,0,0,0,0,0,0,0,0,0,0,0,0,0,0,0,0,0,0,0,0,0,0,0,0,0,0,0,0,0,0,0,0,0,0,0,0,0,0,0,0,0,0,0,0,0,0,0,0,0,0,0,0,0,0,0,0,0,0,0],"id":1,"left_children":[1,3,5,7,9,11,13,15,17,19,21,23,25,27,29,31,33,35,37,39,41,43,45,47,49,51,53,55,57,59,61,63,65,67,69,71,73,75,77,79,81,83,85,87,89,91,93,95,97,99,101,103,105,107,109,111,113,115,117,119,121,123,125,-1,-1,-1,-1,-1,-1,-1,-1,-1,-1,-1,-1,-1,-1,-1,-1,-1,-1,-1,-1,-1,-1,-1,-1,-1,-1,-1,-1,-1,-1,-1,-1,-1,-1,-1,-1,-1,-1,-1,-1,-1,-1,-1,-1,-1,-1,-1,-1,-1,-1,-1,-1,-1,-1,-1,-1,-1,-1,-1,-1,-1,-1,-1,-1],"loss_changes":[2.3645848E7,2.94749E6,3.87172E6,3.15287E5,5.94475E5,7.480225E5,9.66233E5,5.9231E4,5.15275E4,1.4566412E5,1.5807706E5,2.3347825E5,2.7425825E5,3.43814E5,8.999725E4,4.10995E4,2.2967422E4,3.2838E4,2.1546031E4,3.4332312E4,9.832541E4,1.1414492E5,5.4262E4,1.5809925E5,1.11229375E5,1.506365E5,8.5388E4,1.92414E5,1.035845E5,7.2861625E4,3.1817438E4,1.06055E4,8.3255E3,1.4797633E4,2.8169194E3,1.6360875E4,2.351075E4,6.1181406E3,1.0757344E4,1.4770875E4,1.8013621E4,2.2859062E4,3.5717242E4,5.096217E4,5.015392E4,2.4670406E4,1.7771438E4,2.5638188E4,5.3634E4,4.283275E4,2.0389419E5,6.3431875E4,4.7183125E4,3.5437E4,4.16045E4,1.7121531E5,1.19656E5,8.0322875E4,8.131675E4,1.48105625E4,4.49465E4,2.7354531E4,2.3986125E4,0E0,0E0,0E0,0E0,0E0,0E0,0E0,0E0,0E0,0E0,0E0,0E0,0E0,0E0,0E0,0E0,0E0,0E0,0E0,0E0,0E0,0E0,0E0,0E0,0E0,0E0,0E0,0E0,0E0,0E0,0E0,0E0,0E0,0E0,0E0,0E0,0E0,0E0,0E0,0E0,0E0,0E0,0E0,0E0,0E0,0E0,0E0,0E0,0E0,0E0,0E0,0E0,0E0,0E0,0E0,0E0,0E0,0E0,0E0,0E0,0E0,0E0,0E0,0E0],"parents":[2147483647,0,0,1,1,2,2,3,3,4,4,5,5,6,6,7,7,8,8,9,9,10,10,11,11,12,12,13,13,14,14,15,15,16,16,17,17,18,18,19,19,20,20,21,21,22,22,23,23,24,24,25,25,26,26,27,27,28,28,29,29,30,30,31,31,32,32,33,33,34,34,35,35,36,36,37,37,38,38,39,39,40,40,41,41,42,42,43,43,44,44,45,45,46,46,47,47,48,48,49,49,50,50,51,51,52,52,53,53,54,54,55,55,56,56,57,57,58,58,59,59,60,60,61,61,62,62],"right_children":[2,4,6,8,10,12,14,16,18,20,22,24,26,28,30,32,34,36,38,40,42,44,46,48,50,52,54,56,58,60,62,64,66,68,70,72,74,76,78,80,82,84,86,88,90,92,94,96,98,100,102,104,106,108,110,112,114,116,118,120,122,124,126,-1,-1,-1,-1,-1,-1,-1,-1,-1,-1,-1,-1,-1,-1,-1,-1,-1,-1,-1,-1,-1,-1,-1,-1,-1,-1,-1,-1,-1,-1,-1,-1,-1,-1,-1,-1,-1,-1,-1,-1,-1,-1,-1,-1,-1,-1,-1,-1,-1,-1,-1,-1,-1,-1,-1,-1,-1,-1,-1,-1,-1,-1,-1,-1],"split_conditions":[5.93E1,2.64E1,1.09E2,1.23E1,4.9E1,2.08E1,2.21E1,1.2E1,3.41E1,3.67E1,9.41E1,1.341E2,1.017E2,6.5E1,2.49E1,5.2E0,1.33E1,5E0,3.36E2,1.63E1,1.4E1,9.13E1,2.45E1,8.2E0,7.24E1,7.94E1,7.08E2,4.3E1,5E0,3.58E1,1.378E2,3.559322E-1,1.4E0,4.6E0,9.6E0,2.61E1,1E1,8.4E0,1.39E1,2.95E2,4.189829E0,1.2E1,-2.89E1,4.45E1,1.49E1,6.57E1,4.41E1,1E0,1.094E3,1.6E1,9.24E1,5.37E1,4.63E1,1.453E2,3.53E1,4E0,8.07E1,2E0,6.37E1,2.73E1,2.5063572E1,5.89E1,1.6E1,-1.7864789E0,-1.5661432E0,-7.030426E-2,-1.3964175E0,-1.7465007E-1,-1.405332E0,4.3559366E-1,-5.354094E-1,-6.55584E-1,-9.757423E-1,-1.1587373E0,-8.99658E-1,-1.3176829E0,-8.5250294E-1,-7.2641194E-1,-3.7090907E-1,-8.696974E-1,-5.935308E-1,-4.861431E-1,-9.82557E-2,-4.897504E-1,-5.9539974E-2,1.2854261E0,5.8312226E-2,-6.9380574E-2,4.135886E-1,3.585345E0,8.262653E-1,2.5302632E0,1.1853323E0,2.6091933E-1,1.2462913E0,1.4951432E0,1.8362238E-1,2.450439E0,3.418345E0,2.2060707E0,4.1303267E0,9.583945E0,9.309061E-1,4.2345244E-1,1.0268036E0,8.607089E-1,1.7665367E0,9.739961E-1,1.645467E0,1.7631187E0,2.4508274E0,2.0151212E0,5.367321E0,5.58979E0,3.246357E0,3.4273736E0,1.4210297E0,4.604675E0,1.574145E0,1.3911589E0,2.66341E0,3.1068246E0,4.840352E0,2.0117493E0,6.8925285E-1,1.5948164E0,2.6944692E0],"split_indices":[0,0,0,0,16,6,6,12,16,0,16,16,18,4,6,38,18,12,25,31,30,18,6,40,38,0,25,38,12,3,18,40,31,38,3,6,12,31,29,2,36,12,35,0,6,17,14,42,2,28,38,16,16,18,21,12,30,12,31,29,36,3,21,0,0,0,0,0,0,0,0,0,0,0,0,0,0,0,0,0,0,0,0,0,0,0,0,0,0,0,0,0,0,0,0,0,0,0,0,0,0,0,0,0,0,0,0,0,0,0,0,0,0,0,0,0,0,0,0,0,0,0,0,0,0,0,0],"split_type":[0,0,0,0,0,0,0,0,0,0,0,0,0,0,0,0,0,0,0,0,0,0,0,0,0,0,0,0,0,0,0,0,0,0,0,0,0,0,0,0,0,0,0,0,0,0,0,0,0,0,0,0,0,0,0,0,0,0,0,0,0,0,0,0,0,0,0,0,0,0,0,0,0,0,0,0,0,0,0,0,0,0,0,0,0,0,0,0,0,0,0,0,0,0,0,0,0,0,0,0,0,0,0,0,0,0,0,0,0,0,0,0,0,0,0,0,0,0,0,0,0,0,0,0,0,0,0],"sum_hessian":[3.4936E4,2.6635E4,8.301E3,1.5256E4,1.1379E4,5.891E3,2.41E3,5.145E3,1.0111E4,8.146E3,3.233E3,1.079E3,4.812E3,1.639E3,7.71E2,4.984E3,1.61E2,8.732E3,1.379E3,4.076E3,4.07E3,2.874E3,3.59E2,8.46E2,2.33E2,2.626E3,2.186E3,1.145E3,4.94E2,2.84E2,4.87E2,2.418E3,2.566E3,1.07E2,5.4E1,2.009E3,6.723E3,3.05E2,1.074E3,2.786E3,1.29E3,1.877E3,2.193E3,2.194E3,6.8E2,1.65E2,1.94E2,1.8E2,6.66E2,2.01E2,3.2E1,1.771E3,8.55E2,1.257E3,9.29E2,1.57E2,9.88E2,2.41E2,2.53E2,1.15E2,1.69E2,1.83E2,3.04E2,1.25E3,1.168E3,1.2E1,2.554E3,3.8E1,6.9E1,4.6E1,8E0,5.65E2,1.444E3,5.662E3,1.061E3,1.64E2,1.41E2,7.76E2,2.98E2,6.33E2,2.153E3,8.17E2,4.73E2,1.487E3,3.9E2,6E1,2.133E3,1.174E3,1.02E3,1.6E1,6.64E2,1.12E2,5.3E1,7.5E1,1.19E2,1.27E2,5.3E1,4.35E2,2.31E2,4E1,1.61E2,2.2E1,1E1,7.82E2,9.89E2,1.87E2,6.68E2,2.51E2,1.006E3,4.11E2,5.18E2,8.8E1,6.9E1,9.25E2,6.3E1,1.67E2,7.4E1,2.27E2,2.6E1,3.8E1,7.7E1,9.1E1,7.8E1,1.24E2,5.9E1,7E1,2.34E2],"tree_param":{"num_deleted":"0","num_feature":"51","num_nodes":"127","size_leaf_vector":"1"}},{"base_weights":[7.053845E-2,-1.3467842E1,4.5853447E1,-2.2078892E1,-1.1311833E0,3.23902E1,7.783134E1,-2.7961119E1,-1.8699387E1,-7.825867E0,7.1773486E0,5.545284E1,2.6800291E1,8.794005E1,4.4575336E1,-3.2924175E1,-2.6015282E1,-2.0642178E1,-1.5862034E1,-1.0480099E1,-2.651652E0,5.453364E0,2.8611298E1,4.678583E1,8.353942E1,1.9969225E1,3.4655453E1,7.133973E1,9.834265E1,3.25159E1,5.157133E1,-3.3823353E1,-2.7967697E1,-2.7045326E1,-1.3288627E1,-1.68759E1,-2.1706064E1,-1.6653196E1,-6.417727E0,-1.1942077E1,-1.740517E0,-6.66511E0,4.57831E0,-7.676721E-1,9.184075E0,3.849231E1,1.3561532E1,5.0678085E1,3.4695005E0,4.7064186E1,9.755656E1,1.7164381E1,3.6127647E1,2.989349E1,4.3727173E1,6.1525978E1,1.0323325E2,1.0614159E2,6.432551E1,3.0521692E1,6.491177E1,4.0956936E1,6.491902E1,-1.717108E0,-1.2272493E0,-4.635721E-1,-1.4507658E0,-1.4493794E0,-1.2634023E0,-3.0429217E-1,-9.8151666E-1,-5.410337E-1,-9.740426E-1,-1.1095992E0,-6.8231094E-1,-8.560182E-1,-4.9102935E-1,-3.721167E-1,1.4793688E0,-4.0499797E-1,-6.665679E-1,-2.0234573E-1,4.4383883E-1,-5.504712E-1,-1.9063134E-1,5.1224824E-2,7.0692265E-1,-1.917183E-1,5.550262E-1,2.6238081E0,4.321849E-1,1.6479985E0,3.213377E0,3.111282E-1,1.5299983E0,1.799321E0,2.8393693E0,-2.5845098E-1,3.9034203E-1,1.5434766E0,3.846157E0,7.755993E0,4.0244765E0,1.4698867E-1,9.7950584E-1,4.370933E0,1.6964406E0,1.056703E0,1.6251923E0,2.7037773E0,1.7646099E0,4.486083E0,2.6421602E0,3.557036E0,5.5416293E0,5.5304894E0,2.8502781E0,3.7723126E0,1.7036213E0,2.099735E0,1.2024001E0,1.9637734E0,3.9864728E0,2.381384E0,1.3701205E0,2.9929142E0,4.7663503E0],"categories":[],"categories_nodes":[],"categories_segments":[],"categories_sizes":[],"default_left":[0,0,0,0,0,0,0,0,0,0,0,0,0,0,0,0,0,0,0,0,0,0,0,0,0,0,0,0,0,0,0,0,0,0,0,0,0,0,0,0,0,0,0,0,0,0,0,0,0,0,0,0,0,0,0,0,0,0,0,0,0,0,0,0,0,0,0,0,0,0,0,0,0,0,0,0,0,0,0,0,0,0,0,0,0,0,0,0,0,0,0,0,0,0,0,0,0,0,0,0,0,0,0,0,0,0,0,0,0,0,0,0,0,0,0,0,0,0,0,0,0,0,0,0,0,0,0],"id":2,"left_children":[1,3,5,7,9,11,13,15,17,19,21,23,25,27,29,31,33,35,37,39,41,43,45,47,49,51,53,55,57,59,61,63,65,67,69,71,73,75,77,79,81,83,85,87,89,91,93,95,97,99,101,103,105,107,109,111,113,115,117,119,121,123,125,-1,-1,-1,-1,-1,-1,-1,-1,-1,-1,-1,-1,-1,-1,-1,-1,-1,-1,-1,-1,-1,-1,-1,-1,-1,-1,-1,-1,-1,-1,-1,-1,-1,-1,-1,-1,-1,-1,-1,-1,-1,-1,-1,-1,-1,-1,-1,-1,-1,-1,-1,-1,-1,-1,-1,-1,-1,-1,-1,-1,-1,-1,-1,-1],"loss_changes":[2.159413E7,2.8563295E6,3.420591E6,3.14261E5,6.149127E5,7.200685E5,7.87773E5,5.4924E4,5.51275E4,8.4049125E4,1.8212712E5,2.6167025E5,2.411495E5,3.04683E5,4.480975E4,6.2875E3,5.409575E4,2.3547E4,3.0476E4,5.167528E4,6.029914E4,1.0600208E5,5.405347E4,1.4077212E5,1.26295875E5,1.0874144E5,8.919525E4,2.12432E5,2.86857E5,1.1262609E4,4.6503188E4,5.746875E3,4.725547E3,1.252975E4,1.4177723E4,2.0594562E4,1.79085E4,1.18846875E4,1.1951563E4,1.8392781E4,1.4263278E4,1.6513844E4,2.519494E4,6.2389113E4,6.633653E4,2.939575E4,1.8191135E4,6.6799125E4,2.6631274E3,3.292497E4,1.6828238E5,7.0954E4,3.7183906E4,3.07985E4,6.085175E4,1.267255E5,3.1868E4,1.9107E5,6.7744625E4,1.3473297E4,1.047168E3,1.6416969E4,1.768475E4,0E0,0E0,0E0,0E0,0E0,0E0,0E0,0E0,0E0,0E0,0E0,0E0,0E0,0E0,0E0,0E0,0E0,0E0,0E0,0E0,0E0,0E0,0E0,0E0,0E0,0E0,0E0,0E0,0E0,0E0,0E0,0E0,0E0,0E0,0E0,0E0,0E0,0E0,0E0,0E0,0E0,0E0,0E0,0E0,0E0,0E0,0E0,0E0,0E0,0E0,0E0,0E0,0E0,0E0,0E0,0E0,0E0,0E0,0E0,0E0,0E0,0E0,0E0,0E0],"parents":[2147483647,0,0,1,1,2,2,3,3,4,4,5,5,6,6,7,7,8,8,9,9,10,10,11,11,12,12,13,13,14,14,15,15,16,16,17,17,18,18,19,19,20,20,21,21,22,22,23,23,24,24,25,25,26,26,27,27,28,28,29,29,30,30,31,31,32,32,33,33,34,34,35,35,36,36,37,37,38,38,39,39,40,40,41,41,42,42,43,43,44,44,45,45,46,46,47,47,48,48,49,49,50,50,51,51,52,52,53,53,54,54,55,55,56,56,57,57,58,58,59,59,60,60,61,61,62,62],"right_children":[2,4,6,8,10,12,14,16,18,20,22,24,26,28,30,32,34,36,38,40,42,44,46,48,50,52,54,56,58,60,62,64,66,68,70,72,74,76,78,80,82,84,86,88,90,92,94,96,98,100,102,104,106,108,110,112,114,116,118,120,122,124,126,-1,-1,-1,-1,-1,-1,-1,-1,-1,-1,-1,-1,-1,-1,-1,-1,-1,-1,-1,-1,-1,-1,-1,-1,-1,-1,-1,-1,-1,-1,-1,-1,-1,-1,-1,-1,-1,-1,-1,-1,-1,-1,-1,-1,-1,-1,-1,-1,-1,-1,-1,-1,-1,-1,-1,-1,-1,-1,-1,-1,-1,-1,-1,-1],"split_conditions":[6.12E1,2.76E1,1.113E2,1.33E1,5.98E1,2.08E1,2.37E1,4.031008E-1,2.11E1,1.6E1,9.41E1,1.341E2,1.036E2,1.802E2,9.3425E1,1E1,1.1E1,5E0,3.8758335E1,1.2E1,4.13E1,3.96E1,2.7E1,1E0,2.1E1,1.0555417E2,8.18E2,1.2E1,8.6E1,1.1E1,3.53E1,2.96E1,1.99E1,9.8E0,1.61E1,2.64E1,1.1E1,1.1E1,9.24E1,2.4E1,1.8E1,3.34E1,5.59E1,9.38E1,1.44E1,5.05E1,4.38E1,7.47E2,5.91E2,1.017E2,1.24E1,1.3E1,8.1E1,1.309E2,6.6E1,2E0,6.2E1,2.078625E2,1.822125E2,3.44E1,9.41E1,3.51E1,3.2527367E1,-1.717108E0,-1.2272493E0,-4.635721E-1,-1.4507658E0,-1.4493794E0,-1.2634023E0,-3.0429217E-1,-9.8151666E-1,-5.410337E-1,-9.740426E-1,-1.1095992E0,-6.8231094E-1,-8.560182E-1,-4.9102935E-1,-3.721167E-1,1.4793688E0,-4.0499797E-1,-6.665679E-1,-2.0234573E-1,4.4383883E-1,-5.504712E-1,-1.9063134E-1,5.1224824E-2,7.0692265E-1,-1.917183E-1,5.550262E-1,2.6238081E0,4.321849E-1,1.6479985E0,3.213377E0,3.111282E-1,1.5299983E0,1.799321E0,2.8393693E0,-2.5845098E-1,3.9034203E-1,1.5434766E0,3.846157E0,7.755993E0,4.0244765E0,1.4698867E-1,9.7950584E-1,4.370933E0,1.6964406E0,1.056703E0,1.6251923E0,2.7037773E0,1.7646099E0,4.486083E0,2.6421602E0,3.557036E0,5.5416293E0,5.5304894E0,2.8502781E0,3.7723126E0,1.7036213E0,2.099735E0,1.2024001E0,1.9637734E0,3.9864728E0,2.381384E0,1.3701205E0,2.9929142E0,4.7663503E0],"split_indices":[0,0,0,0,37,6,6,40,0,31,16,16,19,37,33,12,12,12,33,12,0,16,6,42,28,33,25,12,27,12,3,6,6,0,37,6,12,12,16,6,35,16,16,37,6,31,38,23,2,17,6,20,28,1,27,12,7,33,33,29,16,35,36,0,0,0,0,0,0,0,0,0,0,0,0,0,0,0,0,0,0,0,0,0,0,0,0,0,0,0,0,0,0,0,0,0,0,0,0,0,0,0,0,0,0,0,0,0,0,0,0,0,0,0,0,0,0,0,0,0,0,0,0,0,0,0,0],"split_type":[0,0,0,0,0,0,0,0,0,0,0,0,0,0,0,0,0,0,0,0,0,0,0,0,0,0,0,0,0,0,0,0,0,0,0,0,0,0,0,0,0,0,0,0,0,0,0,0,0,0,0,0,0,0,0,0,0,0,0,0,0,0,0,0,0,0,0,0,0,0,0,0,0,0,0,0,0,0,0,0,0,0,0,0,0,0,0,0,0,0,0,0,0,0,0,0,0,0,0,0,0,0,0,0,0,0,0,0,0,0,0,0,0,0,0,0,0,0,0,0,0,0,0,0,0,0,0],"sum_hessian":[3.4837E4,2.6887E4,7.95E3,1.5834E4,1.1053E4,5.596E3,2.354E3,5.775E3,1.0059E4,6.121E3,4.932E3,1.09E3,4.506E3,1.804E3,5.5E2,1.622E3,4.153E3,5.967E3,4.092E3,4.045E3,2.076E3,4.566E3,3.66E2,8.35E2,2.55E2,2.412E3,2.094E3,6.98E2,1.106E3,2.04E2,3.46E2,1.368E3,2.54E2,3.841E3,3.12E2,1.318E3,4.649E3,3.775E3,3.17E2,3.465E3,5.8E2,1.335E3,7.41E2,1.712E3,2.854E3,2.2E2,1.46E2,7.66E2,6.9E1,7.2E1,1.83E2,2.057E3,3.55E2,1.376E3,7.18E2,5.36E2,1.62E2,8.98E2,2.08E2,1.94E2,1E1,1.95E2,1.51E2,1.293E3,7.5E1,1.4E1,2.4E2,1.828E3,2.013E3,1.47E2,1.65E2,3.98E2,9.2E2,4.383E3,2.66E2,3.532E3,2.43E2,3.09E2,8E0,9.22E2,2.543E3,4.77E2,1.03E2,5.28E2,8.07E2,5.41E2,2E2,1.361E3,3.51E2,3.4E1,2.82E3,1.83E2,3.7E1,1.03E2,4.3E1,2.27E2,5.39E2,2.3E1,4.6E1,4.8E1,2.4E1,4E1,1.43E2,3E2,1.757E3,1.3E1,3.42E2,3.18E2,1.058E3,3.2E2,3.98E2,1.24E2,4.12E2,3.3E1,1.29E2,8.22E2,7.6E1,1.51E2,5.7E1,6.8E1,1.26E2,5E0,5E0,1.29E2,6.6E1,1.32E2,1.9E1],"tree_param":{"num_deleted":"0","num_feature":"51","num_nodes":"127","size_leaf_vector":"1"}},{"base_weights":[1.0405597E-1,-1.3170277E1,4.2112953E1,-2.0624336E1,-1.2802308E0,3.1724445E1,8.039223E1,-2.6235588E1,-1.7229515E1,-6.299475E0,7.3279667E0,2.162208E1,4.1758972E1,8.723063E1,3.6695198E1,-3.168105E1,-2.4526072E1,-1.7979826E1,-9.9433E0,-8.965967E0,-7.360467E-1,5.4524336E0,3.0312153E1,5.351576E1,2.0171482E1,5.4615696E1,3.334089E1,7.104122E1,9.719983E1,2.4605202E1,5.208882E1,-3.2039635E1,-2.1557112E1,-2.5142477E1,-8.657851E0,-1.9581797E1,-1.5519335E1,-1.9436783E1,-8.16271E0,-1.0098418E1,-1.2161776E0,-3.9314065E0,6.3500223E0,5.657954E1,4.975386E0,3.881226E1,1.3869988E1,3.6037006E1,8.80784E1,2.17541E1,-3.5577133E0,4.4215412E1,6.568975E1,2.4996859E1,3.9551453E1,6.18139E1,9.92551E1,1.02938774E2,4.8951633E1,3.204478E0,2.135366E1,3.1833622E1,5.8951794E1,-1.0536221E0,-1.6131554E0,-2.2513285E-1,-1.3493623E0,-1.3097978E0,-1.0721673E0,-1.1614454E0,1.0705203E-1,-8.1343615E-1,-1.0258328E0,-7.8709817E-1,1.9265492E-1,3.6731732E-1,-1.0305961E0,-4.589212E-1,3.795986E-1,-5.448105E-1,-2.6020369E-2,-1.7535225E-1,5.113301E-1,-3.0248475E-1,1.6310471E-1,8.8609986E-2,5.8020514E-1,3.6179726E0,1.8138579E0,-3.8014933E-1,3.3871123E-1,2.2778475E0,8.3332586E-1,1.0599502E0,8.699955E-2,1.496325E0,6.1353436E0,3.132117E0,6.4640365E0,1.6828053E0,9.84848E-1,1.3323975E0,-2.405403E-1,5.561089E0,2.0517607E0,3.9294205E0,2.6613328E0,8.8801354E-1,1.5819647E0,1.6860033E0,2.4077594E0,2.0717742E0,3.8821518E0,4.259912E0,6.568233E0,4.7396865E0,5.7825537E0,4.573427E0,1.6703686E0,4.8375702E-1,1.4557402E0,1.1243037E0,3.195911E0,2.159634E0,3.538725E0],"categories":[],"categories_nodes":[],"categories_segments":[],"categories_sizes":[],"default_left":[0,0,0,0,0,0,0,0,0,0,0,0,0,0,0,0,0,0,0,0,0,0,0,0,0,0,0,0,0,0,0,0,0,0,0,0,0,0,0,0,0,0,0,0,0,0,0,0,0,0,0,0,0,0,0,0,0,0,0,0,0,0,0,0,0,0,0,0,0,0,0,0,0,0,0,0,0,0,0,0,0,0,0,0,0,0,0,0,0,0,0,0,0,0,0,0,0,0,0,0,0,0,0,0,0,0,0,0,0,0,0,0,0,0,0,0,0,0,0,0,0,0,0,0,0],"id":3,"left_children":[1,3,5,7,9,11,13,15,17,19,21,23,25,27,29,31,33,35,37,39,41,43,45,47,49,51,53,55,57,59,61,63,65,67,69,71,73,75,77,79,81,83,85,87,89,91,93,95,97,99,101,103,105,107,109,111,113,115,117,-1,119,121,123,-1,-1,-1,-1,-1,-1,-1,-1,-1,-1,-1,-1,-1,-1,-1,-1,-1,-1,-1,-1,-1,-1,-1,-1,-1,-1,-1,-1,-1,-1,-1,-1,-1,-1,-1,-1,-1,-1,-1,-1,-1,-1,-1,-1,-1,-1,-1,-1,-1,-1,-1,-1,-1,-1,-1,-1,-1,-1,-1,-1,-1,-1],"loss_changes":[1.9405872E7,2.343682E6,3.320335E6,3.091735E5,4.403651E5,6.655195E5,5.29591E5,5.6242E4,5.5201E4,9.550008E4,1.6166072E5,1.5057688E5,3.5501E5,2.41806E5,4.394278E4,4.6095E3,4.542175E4,3.589225E4,1.5866336E4,3.8182E4,4.7279945E4,8.440075E4,3.9013766E4,8.260981E4,1.17885125E5,1.4716625E5,1.0239425E5,1.477245E5,2.58287E5,1.6348578E4,1.2858531E4,2.771E3,4.786705E3,1.693925E4,2.7743555E4,1.688075E4,1.5699125E4,4.841043E3,1.2871477E4,2.9008156E4,1.4610789E4,2.1947088E4,1.5589344E4,7.6268438E3,7.790916E4,2.7022844E4,8.675404E3,4.71691E4,4.115872E4,7.134475E4,7.5847446E3,1.3927388E5,9.693325E4,4.0488688E4,5.567225E4,1.4129538E5,5.380375E4,7.6944E4,6.501636E4,0E0,1.1410699E4,7.2601855E3,1.1475656E4,0E0,0E0,0E0,0E0,0E0,0E0,0E0,0E0,0E0,0E0,0E0,0E0,0E0,0E0,0E0,0E0,0E0,0E0,0E0,0E0,0E0,0E0,0E0,0E0,0E0,0E0,0E0,0E0,0E0,0E0,0E0,0E0,0E0,0E0,0E0,0E0,0E0,0E0,0E0,0E0,0E0,0E0,0E0,0E0,0E0,0E0,0E0,0E0,0E0,0E0,0E0,0E0,0E0,0E0,0E0,0E0,0E0,0E0,0E0,0E0,0E0,0E0],"parents":[2147483647,0,0,1,1,2,2,3,3,4,4,5,5,6,6,7,7,8,8,9,9,10,10,11,11,12,12,13,13,14,14,15,15,16,16,17,17,18,18,19,19,20,20,21,21,22,22,23,23,24,24,25,25,26,26,27,27,28,28,29,29,30,30,31,31,32,32,33,33,34,34,35,35,36,36,37,37,38,38,39,39,40,40,41,41,42,42,43,43,44,44,45,45,46,46,47,47,48,48,49,49,50,50,51,51,52,52,53,53,54,54,55,55,56,56,57,57,58,58,60,60,61,61,62,62],"right_children":[2,4,6,8,10,12,14,16,18,20,22,24,26,28,30,32,34,36,38,40,42,44,46,48,50,52,54,56,58,60,62,64,66,68,70,72,74,76,78,80,82,84,86,88,90,92,94,96,98,100,102,104,106,108,110,112,114,116,118,-1,120,122,124,-1,-1,-1,-1,-1,-1,-1,-1,-1,-1,-1,-1,-1,-1,-1,-1,-1,-1,-1,-1,-1,-1,-1,-1,-1,-1,-1,-1,-1,-1,-1,-1,-1,-1,-1,-1,-1,-1,-1,-1,-1,-1,-1,-1,-1,-1,-1,-1,-1,-1,-1,-1,-1,-1,-1,-1,-1,-1,-1,-1,-1,-1],"split_conditions":[5.93E1,2.84E1,8.883E3,1.39E1,4.5541668E1,7.94E1,2.4E1,6.7083335E0,4.1E1,1.78E1,9.41E1,1.52E1,2.35E1,1.471E2,9.3425E1,1.1E1,1.2E1,2.15E1,3.36E2,1.2E1,4.33E1,1.44E1,2.71E1,7.28E1,1E0,1.1E1,1.185E2,1.2E1,2.078625E2,1.73E1,3.53E1,1.7E0,8.5E1,9.752E2,2E0,5E0,5.3808334E1,-2.89E1,5.5833332E1,5.06E1,1.86E1,4.035E1,4.95E1,5.173913E0,1.03E1,6.57E1,5.7E1,3.16E1,7.2E0,2.23E1,9.8E0,1.24E1,5.6E0,1E1,3.1E1,1.134E2,3.66E1,1.2E1,1.297E3,3.204478E0,4.05E1,1.63E1,1.136E2,-1.0536221E0,-1.6131554E0,-2.2513285E-1,-1.3493623E0,-1.3097978E0,-1.0721673E0,-1.1614454E0,1.0705203E-1,-8.1343615E-1,-1.0258328E0,-7.8709817E-1,1.9265492E-1,3.6731732E-1,-1.0305961E0,-4.589212E-1,3.795986E-1,-5.448105E-1,-2.6020369E-2,-1.7535225E-1,5.113301E-1,-3.0248475E-1,1.6310471E-1,8.8609986E-2,5.8020514E-1,3.6179726E0,1.8138579E0,-3.8014933E-1,3.3871123E-1,2.2778475E0,8.3332586E-1,1.0599502E0,8.699955E-2,1.496325E0,6.1353436E0,3.132117E0,6.4640365E0,1.6828053E0,9.84848E-1,1.3323975E0,-2.405403E-1,5.561089E0,2.0517607E0,3.9294205E0,2.6613328E0,8.8801354E-1,1.5819647E0,1.6860033E0,2.4077594E0,2.0717742E0,3.8821518E0,4.259912E0,6.568233E0,4.7396865E0,5.7825537E0,4.573427E0,1.6703686E0,4.8375702E-1,1.4557402E0,1.1243037E0,3.195911E0,2.159634E0,3.538725E0],"split_indices":[0,0,39,0,33,0,6,33,16,31,16,6,6,0,33,12,12,0,25,12,0,6,6,32,42,12,1,12,33,21,21,5,28,39,11,12,33,35,33,0,35,33,16,40,30,1,7,5,8,6,16,6,8,12,22,16,5,12,2,0,38,34,15,0,0,0,0,0,0,0,0,0,0,0,0,0,0,0,0,0,0,0,0,0,0,0,0,0,0,0,0,0,0,0,0,0,0,0,0,0,0,0,0,0,0,0,0,0,0,0,0,0,0,0,0,0,0,0,0,0,0,0,0,0,0],"split_type":[0,0,0,0,0,0,0,0,0,0,0,0,0,0,0,0,0,0,0,0,0,0,0,0,0,0,0,0,0,0,0,0,0,0,0,0,0,0,0,0,0,0,0,0,0,0,0,0,0,0,0,0,0,0,0,0,0,0,0,0,0,0,0,0,0,0,0,0,0,0,0,0,0,0,0,0,0,0,0,0,0,0,0,0,0,0,0,0,0,0,0,0,0,0,0,0,0,0,0,0,0,0,0,0,0,0,0,0,0,0,0,0,0,0,0,0,0,0,0,0,0,0,0,0,0],"sum_hessian":[3.4798E4,2.6443E4,8.355E3,1.6253E4,1.019E4,6.573E3,1.782E3,6.124E3,1.0129E4,6.437E3,3.753E3,3.277E3,3.296E3,1.54E3,2.42E2,1.459E3,4.665E3,9.182E3,9.47E2,4.351E3,2.086E3,3.471E3,2.82E2,1.41E2,3.136E3,1.302E3,1.994E3,5.9E2,9.5E2,1.37E2,1.05E2,1.407E3,5.2E1,4.49E3,1.75E2,5.557E3,3.625E3,1.48E2,7.99E2,3.796E3,5.55E2,1.438E3,6.48E2,3.1E1,3.44E3,1.85E2,9.7E1,9.5E1,4.6E1,2.94E3,1.96E2,6.74E2,6.28E2,8.53E2,1.141E3,4.47E2,1.43E2,8.48E2,1.02E2,9E0,1.28E2,2.8E1,7.7E1,3E1,1.377E3,1.3E1,3.9E1,3.49E3,1E3,7.4E1,1.01E2,1.227E3,4.33E3,3.584E3,4.1E1,6E0,1.42E2,7.51E2,4.8E1,3.504E3,2.92E2,4.63E2,9.2E1,1.111E3,3.27E2,3.47E2,3.01E2,1.6E1,1.5E1,4.3E2,3.01E3,1.41E2,4.4E1,6E1,3.7E1,9E1,5E0,3E1,1.6E1,4.31E2,2.509E3,7E0,1.89E2,2.9E1,6.45E2,3.06E2,3.22E2,4.1E2,4.43E2,6.83E2,4.58E2,1.97E2,2.5E2,1.02E2,4.1E1,5.22E2,3.26E2,2.6E1,7.6E1,5.2E1,7.6E1,2.3E1,5E0,3.5E1,4.2E1],"tree_param":{"num_deleted":"0","num_feature":"51","num_nodes":"125","size_leaf_vector":"1"}},{"base_weights":[2.3524925E-2,-1.2389127E1,3.9781113E1,-2.0154495E1,-1.9760662E0,2.6938116E1,6.80491E1,-2.50981E1,-1.7081089E1,-7.566805E0,6.231811E0,2.0792885E1,3.664268E1,7.6992584E1,3.63465E1,-2.5931725E1,-1.489682E1,-1.7891443E1,-1.2170276E1,-1.0236731E1,-2.7913141E0,2.5360408E0,1.5491839E1,8.395271E0,2.4853174E1,4.0267914E1,1.2199411E1,6.2464443E1,8.872846E1,2.3582544E1,4.4861492E1,-2.7321844E1,-1.9429453E1,-2.4311241E1,-1.1283602E1,-1.4420925E1,-1.8955656E1,-1.5797673E1,-7.8057156E0,-1.1547002E1,-4.637728E0,-7.5757194E0,6.806434E-1,-8.18715E0,5.104772E0,2.5468222E1,1.0649598E1,6.845095E0,3.349523E1,1.8656502E1,2.9435062E1,3.7221302E1,6.323697E1,1.6877089E1,-7.838739E0,5.5648228E1,7.9460846E1,9.240288E1,5.008598E1,7.017611E0,2.9485153E1,1.56232395E1,4.7622787E1,-1.4973547E0,-1.2748978E0,-1.0359768E0,-7.8792787E-1,-4.523432E-1,-1.3607781E0,-2.5283858E-1,-8.4106874E-1,-8.102655E-1,-4.3525314E-1,-9.7029746E-1,-5.30902E-1,-8.570777E-1,8.0793306E-2,7.83366E-2,-5.582006E-1,-4.975206E-1,-7.2068435E-1,-1.0757916E-2,-5.689726E-1,-4.9931285E-1,-3.043001E-2,-1.5209807E-1,3.0218157E-1,-5.3788775E-1,-7.037003E-2,2.9684694E0,2.1679524E-1,1.059432E0,2.5681589E0,3.4307426E-1,8.365283E-1,7.8061026E-1,1.4125252E-1,9.8553985E-1,2.181095E0,1.3813069E0,7.1210545E-1,1.0987972E0,1.5951029E0,-1.0656517E-1,1.926837E0,4.967157E0,2.4862099E0,-3.690248E-2,9.6924096E-1,-8.565032E-1,-5.6271493E-2,2.2953713E0,3.3643532E0,7.3517175E0,3.625457E0,4.1474085E0,5.3983917E0,1.7141428E0,4.4466896E0,-3.328517E-1,7.352546E-1,1.9249134E0,1.071257E0,2.2050722E0,4.225226E-1,2.5976684E0,1.2485391E0],"categories":[],"categories_nodes":[],"categories_segments":[],"categories_sizes":[],"default_left":[0,0,0,0,0,0,0,0,0,0,0,0,0,0,0,0,0,0,0,0,0,0,0,0,0,0,0,0,0,0,0,0,0,0,0,0,0,0,0,0,0,0,0,0,0,0,0,0,0,0,0,0,0,0,0,0,0,0,0,0,0,0,0,0,0,0,0,0,0,0,0,0,0,0,0,0,0,0,0,0,0,0,0,0,0,0,0,0,0,0,0,0,0,0,0,0,0,0,0,0,0,0,0,0,0,0,0,0,0,0,0,0,0,0,0,0,0,0,0,0,0,0,0,0,0,0,0],"id":4,"left_children":[1,3,5,7,9,11,13,15,17,19,21,23,25,27,29,31,33,35,37,39,41,43,45,47,49,51,53,55,57,59,61,63,65,67,69,71,73,75,77,79,81,83,85,87,89,91,93,95,97,99,101,103,105,107,109,111,113,115,117,119,121,123,125,-1,-1,-1,-1,-1,-1,-1,-1,-1,-1,-1,-1,-1,-1,-1,-1,-1,-1,-1,-1,-1,-1,-1,-1,-1,-1,-1,-1,-1,-1,-1,-1,-1,-1,-1,-1,-1,-1,-1,-1,-1,-1,-1,-1,-1,-1,-1,-1,-1,-1,-1,-1,-1,-1,-1,-1,-1,-1,-1,-1,-1,-1,-1,-1],"loss_changes":[1.7207256E7,2.148605E6,3.009993E6,2.30834E5,5.2096884E5,3.3952575E5,7.31833E5,4.9218E4,3.714575E4,8.607359E4,1.5738622E5,1.7577262E5,1.9543125E5,3.38868E5,6.1109875E4,4.8198E4,1.4794922E4,2.9484E4,2.0980734E4,3.1719562E4,4.025422E4,9.063729E4,6.3108938E4,3.338839E4,7.420825E4,1.323535E5,2.7033387E4,1.0053925E5,1.53689E5,2.2379422E4,2.6867438E4,2.0491E4,4.1866562E3,5.1623594E3,1.1018395E4,1.9186594E4,2.293225E4,1.7040781E4,1.912309E4,1.5917E4,2.4535908E4,1.7107516E4,2.8068207E4,1.1069105E4,1.1047357E5,4.634247E4,2.0271523E4,2.8679898E4,6.119699E3,4.4032688E4,2.7122E4,8.818775E4,1.0434856E5,1.0306859E4,3.4113755E3,7.06025E4,1.1006475E5,1.40708E5,5.772883E4,6.6155527E3,1.1524969E4,5.9596333E3,2.9308688E4,0E0,0E0,0E0,0E0,0E0,0E0,0E0,0E0,0E0,0E0,0E0,0E0,0E0,0E0,0E0,0E0,0E0,0E0,0E0,0E0,0E0,0E0,0E0,0E0,0E0,0E0,0E0,0E0,0E0,0E0,0E0,0E0,0E0,0E0,0E0,0E0,0E0,0E0,0E0,0E0,0E0,0E0,0E0,0E0,0E0,0E0,0E0,0E0,0E0,0E0,0E0,0E0,0E0,0E0,0E0,0E0,0E0,0E0,0E0,0E0,0E0,0E0,0E0,0E0],"parents":[2147483647,0,0,1,1,2,2,3,3,4,4,5,5,6,6,7,7,8,8,9,9,10,10,11,11,12,12,13,13,14,14,15,15,16,16,17,17,18,18,19,19,20,20,21,21,22,22,23,23,24,24,25,25,26,26,27,27,28,28,29,29,30,30,31,31,32,32,33,33,34,34,35,35,36,36,37,37,38,38,39,39,40,40,41,41,42,42,43,43,44,44,45,45,46,46,47,47,48,48,49,49,50,50,51,51,52,52,53,53,54,54,55,55,56,56,57,57,58,58,59,59,60,60,61,61,62,62],"right_children":[2,4,6,8,10,12,14,16,18,20,22,24,26,28,30,32,34,36,38,40,42,44,46,48,50,52,54,56,58,60,62,64,66,68,70,72,74,76,78,80,82,84,86,88,90,92,94,96,98,100,102,104,106,108,110,112,114,116,118,120,122,124,126,-1,-1,-1,-1,-1,-1,-1,-1,-1,-1,-1,-1,-1,-1,-1,-1,-1,-1,-1,-1,-1,-1,-1,-1,-1,-1,-1,-1,-1,-1,-1,-1,-1,-1,-1,-1,-1,-1,-1,-1,-1,-1,-1,-1,-1,-1,-1,-1,-1,-1,-1,-1,-1,-1,-1,-1,-1,-1,-1,-1,-1,-1,-1,-1],"split_conditions":[5.93E1,2.64E1,7.1896E3,1.33E1,6.03E1,7.29E2,2.36E1,1.1E1,3.41E1,3.77E1,8.82E1,5.72E1,4E0,1.04997E4,1.309E2,2E0,4.031008E-1,5E0,9.7E0,1.1E1,1.32E1,2E0,2.63E1,1.20433334E2,1.017E2,6.606E3,1.108E2,1.8E1,2.078625E2,5.31E2,1.48E1,7.233333E0,9.6E0,6.4E0,1.61E1,2E0,1.1E1,1.2E1,5.6E1,6E0,1.05E2,1.2E1,4.13E1,1.2E1,1.78E1,1.295E2,5.06E1,4E0,2.62E1,2.6E1,6.98E1,1E0,1.71E1,7.26E1,1.2628E2,1.164E2,1.44E1,1.2E1,3E0,5.98E1,2.61E1,9.3425E1,8.91E1,-1.4973547E0,-1.2748978E0,-1.0359768E0,-7.8792787E-1,-4.523432E-1,-1.3607781E0,-2.5283858E-1,-8.4106874E-1,-8.102655E-1,-4.3525314E-1,-9.7029746E-1,-5.30902E-1,-8.570777E-1,8.0793306E-2,7.83366E-2,-5.582006E-1,-4.975206E-1,-7.2068435E-1,-1.0757916E-2,-5.689726E-1,-4.9931285E-1,-3.043001E-2,-1.5209807E-1,3.0218157E-1,-5.3788775E-1,-7.037003E-2,2.9684694E0,2.1679524E-1,1.059432E0,2.5681589E0,3.4307426E-1,8.365283E-1,7.8061026E-1,1.4125252E-1,9.8553985E-1,2.181095E0,1.3813069E0,7.1210545E-1,1.0987972E0,1.5951029E0,-1.0656517E-1,1.926837E0,4.967157E0,2.4862099E0,-3.690248E-2,9.6924096E-1,-8.565032E-1,-5.6271493E-2,2.2953713E0,3.3643532E0,7.3517175E0,3.625457E0,4.1474085E0,5.3983917E0,1.7141428E0,4.4466896E0,-3.328517E-1,7.352546E-1,1.9249134E0,1.071257E0,2.2050722E0,4.225226E-1,2.5976684E0,1.2485391E0],"split_indices":[14,14,39,14,37,25,6,12,16,16,19,19,46,39,1,46,40,12,5,12,31,46,6,33,1,39,37,10,33,25,20,32,3,18,37,46,12,12,7,12,28,12,14,12,6,16,14,12,6,6,14,46,6,37,41,16,6,12,46,16,6,33,20,0,0,0,0,0,0,0,0,0,0,0,0,0,0,0,0,0,0,0,0,0,0,0,0,0,0,0,0,0,0,0,0,0,0,0,0,0,0,0,0,0,0,0,0,0,0,0,0,0,0,0,0,0,0,0,0,0,0,0,0,0,0,0,0],"split_type":[0,0,0,0,0,0,0,0,0,0,0,0,0,0,0,0,0,0,0,0,0,0,0,0,0,0,0,0,0,0,0,0,0,0,0,0,0,0,0,0,0,0,0,0,0,0,0,0,0,0,0,0,0,0,0,0,0,0,0,0,0,0,0,0,0,0,0,0,0,0,0,0,0,0,0,0,0,0,0,0,0,0,0,0,0,0,0,0,0,0,0,0,0,0,0,0,0,0,0,0,0,0,0,0,0,0,0,0,0,0,0,0,0,0,0,0,0,0,0,0,0,0,0,0,0,0,0],"sum_hessian":[3.4866E4,2.6571E4,8.295E3,1.522E4,1.1351E4,5.705E3,2.59E3,5.832E3,9.388E3,6.752E3,4.599E3,3.495E3,2.21E3,2.019E3,5.71E2,5.39E3,4.42E2,8.056E3,1.332E3,4.33E3,2.422E3,3.288E3,1.311E3,8.63E2,2.632E3,1.924E3,2.86E2,9.05E2,1.114E3,2.3E2,3.41E2,4.438E3,9.52E2,1.21E2,3.21E2,1.894E3,6.162E3,7.26E2,6.06E2,3.508E3,8.22E2,1.018E3,1.404E3,6.35E2,2.653E3,4.27E2,8.84E2,8.14E2,4.9E1,1.121E3,1.511E3,1.701E3,2.23E2,2.32E2,5.4E1,6.49E2,2.56E2,1.016E3,9.8E1,6.1E1,1.69E2,3E1,3.11E2,1.813E3,2.625E3,7.01E2,2.51E2,2E1,1.01E2,1.52E2,1.69E2,1.442E3,4.52E2,5.845E3,3.17E2,6.74E2,5.2E1,1.6E2,4.46E2,2.256E3,1.252E3,4.97E2,3.25E2,7.56E2,2.62E2,8.29E2,5.75E2,4.6E2,1.75E2,3.6E1,2.617E3,3.68E2,5.9E1,5.46E2,3.38E2,2.55E2,5.59E2,2.2E1,2.7E1,3.68E2,7.53E2,3.78E2,1.133E3,5.5E1,1.646E3,5.9E1,1.64E2,2.9E1,2.03E2,2.2E1,3.2E1,3.56E2,2.93E2,2.2E1,2.34E2,6.36E2,3.8E2,7.1E1,2.7E1,2.2E1,3.9E1,7.8E1,9.1E1,5E0,2.5E1,2.6E2,5.1E1],"tree_param":{"num_deleted":"0","num_feature":"51","num_nodes":"127","size_leaf_vector":"1"}},{"base_weights":[-2.86165E-2,-1.1885386E1,3.7697475E1,-1.9218561E1,-1.966535E0,2.5728872E1,6.623576E1,-2.507205E1,-1.6888386E1,-7.277591E0,5.793622E0,1.0439529E1,2.9527872E1,7.4176254E1,3.4991425E1,-2.5555878E1,-8.947649E0,-1.8944342E1,-1.5024023E1,-8.597293E0,1.6285096E0,2.3152332E0,1.508698E1,6.423869E0,2.0828516E1,4.1256775E1,2.508182E1,5.991577E1,8.422683E1,2.5753736E1,4.1789722E1,-2.7586555E1,-2.29561E1,-2.2782236E1,5.113912E-1,-7.527386E0,-1.9220217E1,-1.5560313E1,-8.174111E0,-1.4514094E1,-7.320658E0,-3.7933524E0,6.2145452E0,-8.182506E0,4.714637E0,2.4957632E1,1.0435831E1,1.5297189E1,2.4388547E0,6.3467426E1,1.8423063E1,3.6926823E1,6.2302937E1,1.9410904E1,3.04347E1,2.67221E1,6.3693535E1,9.154732E1,6.6612465E1,4.22026E0,2.3955343E1,4.509584E1,1.8232285E1,-6.92233E-1,-1.4046841E0,-1.2075199E0,-1.0006459E0,-1.3624289E0,4.9113104E-1,-1.0866965E0,1.8876205E-1,4.576355E-1,-9.652991E-1,-1.0424174E0,-8.463074E-1,-1.2897196E-1,-7.885476E-1,2.0158386E-1,-4.978752E-1,-7.536077E-1,-3.588707E-1,-4.747296E-1,-2.2763534E-1,-2.1684174E-1,6.296946E-1,-2.7081874E-1,4.9393168E-1,-2.4527264E-1,-6.496839E-1,2.559758E0,1.9296084E-1,1.0806252E0,2.2743468E0,7.531848E-1,2.886261E-1,-2.3463397E-1,9.25109E-1,-1.8819843E-1,6.849784E-1,1.9151343E0,3.862624E0,1.1435143E0,2.675712E-1,1.4149897E0,2.2980807E0,3.8880882E0,2.2069013E0,8.6528635E-1,1.8107742E0,1.2750624E0,1.7969916E0,2.0936828E0,1.9403158E-1,3.6978974E0,2.5567462E0,4.7015777E0,2.678718E0,2.5779188E0,4.175996E0,1.480966E0,6.789565E-1,1.9448866E0,3.1881883E0,2.7560076E-1,1.7291569E0],"categories":[],"categories_nodes":[],"categories_segments":[],"categories_sizes":[],"default_left":[0,0,0,0,0,0,0,0,0,0,0,0,0,0,0,0,0,0,0,0,0,0,0,0,0,0,0,0,0,0,0,0,0,0,0,0,0,0,0,0,0,0,0,0,0,0,0,0,0,0,0,0,0,0,0,0,0,0,0,0,0,0,0,0,0,0,0,0,0,0,0,0,0,0,0,0,0,0,0,0,0,0,0,0,0,0,0,0,0,0,0,0,0,0,0,0,0,0,0,0,0,0,0,0,0,0,0,0,0,0,0,0,0,0,0,0,0,0,0,0,0,0,0,0,0],"id":5,"left_children":[1,3,5,7,9,11,13,15,17,19,21,23,25,27,29,31,33,35,37,39,41,43,45,47,49,51,53,55,57,59,61,63,65,67,69,71,73,75,77,79,81,83,85,87,89,91,93,95,97,99,101,103,105,107,109,111,113,115,117,-1,119,121,123,-1,-1,-1,-1,-1,-1,-1,-1,-1,-1,-1,-1,-1,-1,-1,-1,-1,-1,-1,-1,-1,-1,-1,-1,-1,-1,-1,-1,-1,-1,-1,-1,-1,-1,-1,-1,-1,-1,-1,-1,-1,-1,-1,-1,-1,-1,-1,-1,-1,-1,-1,-1,-1,-1,-1,-1,-1,-1,-1,-1,-1,-1],"loss_changes":[1.5596791E7,1.9296662E6,2.846252E6,2.076225E5,4.6486072E5,3.409945E5,6.08462E5,3.36375E4,4.15455E4,7.871478E4,1.4811472E5,4.871875E4,2.4437025E5,2.76303E5,3.0386812E4,2.161375E4,1.6761975E4,1.61895E4,2.0914875E4,4.394628E4,2.153167E4,8.406679E4,5.7035094E4,2.9877512E4,3.2267188E4,1.1543775E5,1.03074E5,1.004975E5,1.4206E5,2.0655906E4,2.1530375E4,1.60645E4,6.0335E3,7.840123E3,5.6726655E3,2.453875E4,1.8557625E4,1.4481125E4,9.139049E3,4.1253125E3,2.8834016E4,3.590372E3,2.0040746E4,9.727238E3,1.0779158E5,2.64175E4,1.8257031E4,1.6872473E4,4.091277E4,2.9382812E3,1.789868E4,8.24105E4,5.8064812E4,5.8133875E4,4.6748E4,2.9254617E4,9.044875E4,7.1278E4,8.2487375E4,0E0,1.1939617E4,2.6561969E4,7.5049053E3,0E0,0E0,0E0,0E0,0E0,0E0,0E0,0E0,0E0,0E0,0E0,0E0,0E0,0E0,0E0,0E0,0E0,0E0,0E0,0E0,0E0,0E0,0E0,0E0,0E0,0E0,0E0,0E0,0E0,0E0,0E0,0E0,0E0,0E0,0E0,0E0,0E0,0E0,0E0,0E0,0E0,0E0,0E0,0E0,0E0,0E0,0E0,0E0,0E0,0E0,0E0,0E0,0E0,0E0,0E0,0E0,0E0,0E0,0E0,0E0,0E0,0E0],"parents":[2147483647,0,0,1,1,2,2,3,3,4,4,5,5,6,6,7,7,8,8,9,9,10,10,11,11,12,12,13,13,14,14,15,15,16,16,17,17,18,18,19,19,20,20,21,21,22,22,23,23,24,24,25,25,26,26,27,27,28,28,29,29,30,30,31,31,32,32,33,33,34,34,35,35,36,36,37,37,38,38,39,39,40,40,41,41,42,42,43,43,44,44,45,45,46,46,47,47,48,48,49,49,50,50,51,51,52,52,53,53,54,54,55,55,56,56,57,57,58,58,60,60,61,61,62,62],"right_children":[2,4,6,8,10,12,14,16,18,20,22,24,26,28,30,32,34,36,38,40,42,44,46,48,50,52,54,56,58,60,62,64,66,68,70,72,74,76,78,80,82,84,86,88,90,92,94,96,98,100,102,104,106,108,110,112,114,116,118,-1,120,122,124,-1,-1,-1,-1,-1,-1,-1,-1,-1,-1,-1,-1,-1,-1,-1,-1,-1,-1,-1,-1,-1,-1,-1,-1,-1,-1,-1,-1,-1,-1,-1,-1,-1,-1,-1,-1,-1,-1,-1,-1,-1,-1,-1,-1,-1,-1,-1,-1,-1,-1,-1,-1,-1,-1,-1,-1,-1,-1,-1,-1,-1,-1],"split_conditions":[5.93E1,2.64E1,7.4205E3,1.1E1,6.03E1,4.95E1,2.36E1,1.2E1,1.82E1,5.05E1,8.99E1,8.01E1,2.29E1,1.04997E4,1.309E2,1E0,2E0,2E0,3.84E1,2.95E2,3.8852458E0,2E0,2.63E1,4E0,1.65E1,6.606E3,1.113E2,6.82E2,5.7E1,2.08E1,1.17E2,5E0,2E0,1.19E1,6.4E1,2.26E1,2E0,1.95E1,1.056E3,2.75E1,3.22E1,1.263E3,1.39E1,1.15E2,1.85E1,1.295E2,1E0,2E0,1.1E1,2.2E1,2.6E1,6E0,1.113E2,9.6E0,2.48E1,6.4E1,1.276E2,1.111E2,1E0,4.22026E0,5.08E1,1.262E2,1.48E1,-6.92233E-1,-1.4046841E0,-1.2075199E0,-1.0006459E0,-1.3624289E0,4.9113104E-1,-1.0866965E0,1.8876205E-1,4.576355E-1,-9.652991E-1,-1.0424174E0,-8.463074E-1,-1.2897196E-1,-7.885476E-1,2.0158386E-1,-4.978752E-1,-7.536077E-1,-3.588707E-1,-4.747296E-1,-2.2763534E-1,-2.1684174E-1,6.296946E-1,-2.7081874E-1,4.9393168E-1,-2.4527264E-1,-6.496839E-1,2.559758E0,1.9296084E-1,1.0806252E0,2.2743468E0,7.531848E-1,2.886261E-1,-2.3463397E-1,9.25109E-1,-1.8819843E-1,6.849784E-1,1.9151343E0,3.862624E0,1.1435143E0,2.675712E-1,1.4149897E0,2.2980807E0,3.8880882E0,2.2069013E0,8.6528635E-1,1.8107742E0,1.2750624E0,1.7969916E0,2.0936828E0,1.9403158E-1,3.6978974E0,2.5567462E0,4.7015777E0,2.678718E0,2.5779188E0,4.175996E0,1.480966E0,6.789565E-1,1.9448866E0,3.1881883E0,2.7560076E-1,1.7291569E0],"split_indices":[14,14,39,14,37,16,6,12,14,16,19,18,6,39,17,46,11,12,15,2,40,46,6,12,6,39,17,2,26,15,27,12,46,15,28,37,46,6,39,31,16,25,31,26,6,16,47,46,12,21,31,12,17,34,22,26,17,38,42,0,20,15,21,0,0,0,0,0,0,0,0,0,0,0,0,0,0,0,0,0,0,0,0,0,0,0,0,0,0,0,0,0,0,0,0,0,0,0,0,0,0,0,0,0,0,0,0,0,0,0,0,0,0,0,0,0,0,0,0,0,0,0,0,0,0],"split_type":[0,0,0,0,0,0,0,0,0,0,0,0,0,0,0,0,0,0,0,0,0,0,0,0,0,0,0,0,0,0,0,0,0,0,0,0,0,0,0,0,0,0,0,0,0,0,0,0,0,0,0,0,0,0,0,0,0,0,0,0,0,0,0,0,0,0,0,0,0,0,0,0,0,0,0,0,0,0,0,0,0,0,0,0,0,0,0,0,0,0,0,0,0,0,0,0,0,0,0,0,0,0,0,0,0,0,0,0,0,0,0,0,0,0,0,0,0,0,0,0,0,0,0,0,0],"sum_hessian":[3.4866E4,2.6529E4,8.337E3,1.5252E4,1.1277E4,5.875E3,2.462E3,4.34E3,1.0912E4,6.695E3,4.582E3,1.17E3,4.705E3,1.962E3,5E2,4.213E3,1.27E2,5.185E3,5.727E3,5.831E3,8.64E2,3.335E3,1.247E3,8.45E2,3.25E2,1.291E3,3.414E3,8.14E2,1.148E3,2.14E2,2.86E2,2.36E3,1.853E3,5.1E1,7.6E1,1.23E2,5.062E3,5.31E3,4.17E2,1.033E3,4.798E3,3.96E2,4.68E2,6.2E2,2.715E3,3.98E2,8.49E2,2.61E2,5.84E2,1.6E1,3.09E2,1.073E3,2.18E2,1.66E3,1.754E3,8.4E1,7.3E2,8.08E2,3.4E2,5E0,2.09E2,2.5E2,3.6E1,8.5E1,2.275E3,1.313E3,5.4E2,4.5E1,6E0,9E0,6.7E1,5.1E1,7.2E1,2.956E3,2.106E3,8.5E1,5.225E3,5.3E1,3.64E2,9.59E2,7.4E1,2.686E3,2.112E3,3.84E2,1.2E1,1.12E2,3.56E2,3.7E2,2.5E2,4.8E1,2.667E3,3.44E2,5.4E1,4.25E2,4.24E2,3.6E1,2.25E2,3.77E2,2.07E2,7E0,9E0,2.3E2,7.9E1,5.51E2,5.22E2,1.16E2,1.02E2,1.477E3,1.83E2,9.28E2,8.26E2,5E1,3.4E1,3.99E2,3.31E2,7.57E2,5.1E1,1.82E2,1.58E2,1.34E2,7.5E1,1.9E2,6E1,2.1E1,1.5E1],"tree_param":{"num_deleted":"0","num_feature":"51","num_nodes":"125","size_leaf_vector":"1"}},{"base_weights":[1.0093273E-1,-1.1191134E1,3.605251E1,-1.7961958E1,-1.1888568E0,2.4596987E1,6.1023758E1,-2.2736792E1,-1.5186542E1,-6.4005246E0,5.854573E0,4.0399986E1,2.1426525E1,7.0865074E1,3.6879368E1,-2.7134636E1,-2.1018242E1,-1.663767E1,-1.2483659E1,-8.206391E0,-1.2479095E0,2.3532836E0,1.3342889E1,2.0415506E1,4.736409E1,1.4994033E1,2.8623632E1,5.808197E1,7.985637E1,2.9594267E1,5.5467976E1,-2.8063068E1,-2.258457E1,-2.1984245E1,-1.7654024E1,3.540596E0,-1.6751E1,-1.4898819E1,-9.306978E0,-1.3818586E1,-6.991801E0,-7.4417315E0,1.324324E0,-7.3601737E0,4.510899E0,3.447883E1,1.1118908E1,1.219708E0,2.740834E1,3.1316288E1,5.2503273E1,5.6659985E0,1.9002226E1,2.3804062E1,3.4487896E1,6.057346E1,8.625036E0,8.691503E1,6.195211E1,3.8331074E1,2.2194738E1,4.706198E1,9.809165E1,-1.420445E0,-1.1371926E0,-1.3485246E0,-1.0497082E0,-5.860654E-1,-1.1210531E0,-9.214861E-1,-6.400731E-1,4.8773614E-1,-1.0102477E0,-8.4025955E-1,1.1922326E0,-7.832617E-1,-2.2044244E-1,-4.7557792E-1,1.2900547E0,-3.7653998E-1,-7.240967E-1,-3.567917E-1,1.5879307E0,1.0878333E0,-4.129808E-1,-4.4746384E-2,3.888566E-1,-1.3389836E-1,-6.1359215E-1,-4.9810052E-1,2.6116845E-1,8.3820814E-1,2.5119202E0,3.3519188E-1,8.742768E-1,3.135172E-1,-3.7580875E-1,5.696041E-1,1.6008723E0,1.3206285E0,2.8427222E0,3.952643E0,2.3739257E0,8.7091064E-1,3.3308014E-2,7.1616954E-1,1.335739E0,1.0271112E0,1.583033E0,1.7916216E0,4.3041155E-1,2.2524567E0,3.620887E0,1.1756757E0,-1.05358444E-1,1.902007E0,4.4726596E0,4.0108204E0,2.582425E0,2.1751292E0,1.0839752E0,8.668937E-1,1.8076884E0,9.311186E-1,2.8236814E0,3.4851978E0,6.118956E0],"categories":[],"categories_nodes":[],"categories_segments":[],"categories_sizes":[],"default_left":[0,0,0,0,0,0,0,0,0,0,0,0,0,0,0,0,0,0,0,0,0,0,0,0,0,0,0,0,0,0,0,0,0,0,0,0,0,0,0,0,0,0,0,0,0,0,0,0,0,0,0,0,0,0,0,0,0,0,0,0,0,0,0,0,0,0,0,0,0,0,0,0,0,0,0,0,0,0,0,0,0,0,0,0,0,0,0,0,0,0,0,0,0,0,0,0,0,0,0,0,0,0,0,0,0,0,0,0,0,0,0,0,0,0,0,0,0,0,0,0,0,0,0,0,0,0,0],"id":6,"left_children":[1,3,5,7,9,11,13,15,17,19,21,23,25,27,29,31,33,35,37,39,41,43,45,47,49,51,53,55,57,59,61,63,65,67,69,71,73,75,77,79,81,83,85,87,89,91,93,95,97,99,101,103,105,107,109,111,113,115,117,119,121,123,125,-1,-1,-1,-1,-1,-1,-1,-1,-1,-1,-1,-1,-1,-1,-1,-1,-1,-1,-1,-1,-1,-1,-1,-1,-1,-1,-1,-1,-1,-1,-1,-1,-1,-1,-1,-1,-1,-1,-1,-1,-1,-1,-1,-1,-1,-1,-1,-1,-1,-1,-1,-1,-1,-1,-1,-1,-1,-1,-1,-1,-1,-1,-1,-1],"loss_changes":[1.4083826E7,1.7878832E6,2.370498E6,2.082835E5,3.912715E5,2.84019E5,6.16841E5,4.3152E4,3.885375E4,5.699178E4,1.18818234E5,1.3110912E5,2.18918E5,2.0811E5,1.0087131E5,6.21825E3,1.314425E4,1.4871E4,2.6583562E4,3.0823125E4,2.5357598E4,6.479313E4,6.749317E4,3.3122125E4,5.6334125E4,9.351331E4,6.2347375E4,9.411175E4,1.31611E5,3.444722E4,7.1342E4,1.824375E3,1.3868906E3,1.422175E4,3.27975E3,5.6567344E3,1.4570375E4,1.5825375E4,1.10693125E4,3.2527656E3,2.1050547E4,1.133209E4,1.6117415E4,1.2891707E4,2.6129855E4,3.7404844E4,3.66495E4,3.0032876E3,1.2996781E4,2.0163422E4,6.7085E4,4.42928E4,6.28035E4,3.087075E4,3.4696375E4,1.3115E5,6.121423E3,9.27375E4,5.419525E4,2.0499188E4,1.9576719E4,4.6860125E4,1.4911531E4,0E0,0E0,0E0,0E0,0E0,0E0,0E0,0E0,0E0,0E0,0E0,0E0,0E0,0E0,0E0,0E0,0E0,0E0,0E0,0E0,0E0,0E0,0E0,0E0,0E0,0E0,0E0,0E0,0E0,0E0,0E0,0E0,0E0,0E0,0E0,0E0,0E0,0E0,0E0,0E0,0E0,0E0,0E0,0E0,0E0,0E0,0E0,0E0,0E0,0E0,0E0,0E0,0E0,0E0,0E0,0E0,0E0,0E0,0E0,0E0,0E0,0E0,0E0,0E0],"parents":[2147483647,0,0,1,1,2,2,3,3,4,4,5,5,6,6,7,7,8,8,9,9,10,10,11,11,12,12,13,13,14,14,15,15,16,16,17,17,18,18,19,19,20,20,21,21,22,22,23,23,24,24,25,25,26,26,27,27,28,28,29,29,30,30,31,31,32,32,33,33,34,34,35,35,36,36,37,37,38,38,39,39,40,40,41,41,42,42,43,43,44,44,45,45,46,46,47,47,48,48,49,49,50,50,51,51,52,52,53,53,54,54,55,55,56,56,57,57,58,58,59,59,60,60,61,61,62,62],"right_children":[2,4,6,8,10,12,14,16,18,20,22,24,26,28,30,32,34,36,38,40,42,44,46,48,50,52,54,56,58,60,62,64,66,68,70,72,74,76,78,80,82,84,86,88,90,92,94,96,98,100,102,104,106,108,110,112,114,116,118,120,122,124,126,-1,-1,-1,-1,-1,-1,-1,-1,-1,-1,-1,-1,-1,-1,-1,-1,-1,-1,-1,-1,-1,-1,-1,-1,-1,-1,-1,-1,-1,-1,-1,-1,-1,-1,-1,-1,-1,-1,-1,-1,-1,-1,-1,-1,-1,-1,-1,-1,-1,-1,-1,-1,-1,-1,-1,-1,-1,-1,-1,-1,-1,-1,-1,-1],"split_conditions":[5.93E1,2.76E1,7.1896E3,1.33E1,6.03E1,2.09E1,2.22E1,4.031008E-1,2.43E1,4.25E1,5.98E1,2.05E1,1.017E2,1.04997E4,3.88E1,1E0,2E0,1.88E1,3.66E2,2.99E2,9.4E0,2E0,1.88E1,1E0,7.08E1,4.63E1,2.85E1,1.5E2,5.7E1,8.2E1,3.5651897E1,1E0,5.1E1,2E0,1.17E1,2.38625E1,5.32625E1,3.9991665E1,1.69E2,2.52E1,5.6316666E1,1.44E1,5.98E1,1.05E2,1.93E1,6.11E2,1.036E2,3.32E1,1.45E1,1.297E3,6.89E1,5E1,7.85E1,3.4E1,4E0,5.26E1,1.3E1,3.97E1,7.9E1,4.2E2,1.788E2,3.18E1,5.89E1,-1.420445E0,-1.1371926E0,-1.3485246E0,-1.0497082E0,-5.860654E-1,-1.1210531E0,-9.214861E-1,-6.400731E-1,4.8773614E-1,-1.0102477E0,-8.4025955E-1,1.1922326E0,-7.832617E-1,-2.2044244E-1,-4.7557792E-1,1.2900547E0,-3.7653998E-1,-7.240967E-1,-3.567917E-1,1.5879307E0,1.0878333E0,-4.129808E-1,-4.4746384E-2,3.888566E-1,-1.3389836E-1,-6.1359215E-1,-4.9810052E-1,2.6116845E-1,8.3820814E-1,2.5119202E0,3.3519188E-1,8.742768E-1,3.135172E-1,-3.7580875E-1,5.696041E-1,1.6008723E0,1.3206285E0,2.8427222E0,3.952643E0,2.3739257E0,8.7091064E-1,3.3308014E-2,7.1616954E-1,1.335739E0,1.0271112E0,1.583033E0,1.7916216E0,4.3041155E-1,2.2524567E0,3.620887E0,1.1756757E0,-1.05358444E-1,1.902007E0,4.4726596E0,4.0108204E0,2.582425E0,2.1751292E0,1.0839752E0,8.668937E-1,1.8076884E0,9.311186E-1,2.8236814E0,3.4851978E0,6.118956E0],"split_indices":[14,14,39,14,37,6,6,40,16,16,16,5,18,39,30,46,46,6,2,23,5,46,6,46,14,16,21,27,4,7,36,45,4,30,20,33,33,33,18,6,32,18,16,4,38,23,19,38,20,2,19,7,14,6,46,38,10,38,7,18,18,20,21,0,0,0,0,0,0,0,0,0,0,0,0,0,0,0,0,0,0,0,0,0,0,0,0,0,0,0,0,0,0,0,0,0,0,0,0,0,0,0,0,0,0,0,0,0,0,0,0,0,0,0,0,0,0,0,0,0,0,0,0,0,0,0,0],"split_type":[0,0,0,0,0,0,0,0,0,0,0,0,0,0,0,0,0,0,0,0,0,0,0,0,0,0,0,0,0,0,0,0,0,0,0,0,0,0,0,0,0,0,0,0,0,0,0,0,0,0,0,0,0,0,0,0,0,0,0,0,0,0,0,0,0,0,0,0,0,0,0,0,0,0,0,0,0,0,0,0,0,0,0,0,0,0,0,0,0,0,0,0,0,0,0,0,0,0,0,0,0,0,0,0,0,0,0,0,0,0,0,0,0,0,0,0,0,0,0,0,0,0,0,0,0,0,0],"sum_hessian":[3.469E4,2.6399E4,8.291E3,1.5742E4,1.0657E4,5.685E3,2.606E3,5.784E3,9.958E3,6.125E3,4.532E3,9.48E2,4.737E3,1.85E3,7.56E2,1.621E3,4.163E3,6.476E3,3.482E3,4.535E3,1.59E3,3.089E3,1.443E3,2.46E2,7.02E2,2.503E3,2.234E3,7.67E2,1.083E3,5.45E2,2.11E2,1.342E3,2.79E2,3.23E3,9.33E2,3.6E1,6.44E3,1.976E3,1.506E3,8.05E2,3.73E3,4.66E2,1.124E3,5.61E2,2.528E3,1.36E2,1.307E3,6.6E1,1.8E2,1.72E2,5.3E2,7.53E2,1.75E3,1.229E3,1.005E3,7.3E2,3.7E1,7.74E2,3.09E2,2.48E2,2.97E2,1.78E2,3.3E1,1.256E3,8.6E1,7E1,2.09E2,1.33E2,3.097E3,8.02E2,1.31E2,2.9E1,7E0,6.432E3,8E0,1.841E3,1.35E2,1.498E3,8E0,7.8E1,7.27E2,3.717E3,1.3E1,1.2E1,4.54E2,8.37E2,2.87E2,2.88E2,2.73E2,1.18E2,2.41E3,6.5E1,7.1E1,7.73E2,5.34E2,4.2E1,2.4E1,4.1E1,1.39E2,1.46E2,2.6E1,8.2E1,4.48E2,2.24E2,5.29E2,1.091E3,6.59E2,8.71E2,3.58E2,9.55E2,5E1,3.18E2,4.12E2,1.5E1,2.2E1,3.9E1,7.35E2,1.09E2,2E2,1.88E2,6E1,2.22E2,7.5E1,4.5E1,1.33E2,1.7E1,1.6E1],"tree_param":{"num_deleted":"0","num_feature":"51","num_nodes":"127","size_leaf_vector":"1"}},{"base_weights":[-1.4427421E-3,-1.0785929E1,3.458024E1,-1.7481186E1,-1.8062571E0,2.636514E1,6.805872E1,-2.2798895E1,-1.5340243E1,-5.826514E0,5.965667E0,4.0104923E1,2.1106302E1,7.3774185E1,2.8136282E1,-2.3297703E1,-7.57201E0,-1.6756796E1,-1.29922E1,-8.09794E0,-9.095076E-1,-7.609447E0,8.15985E0,-2.19982E0,4.2716694E1,1.5514006E1,2.949395E1,7.9522705E1,5.6125374E1,1.7651579E1,4.6214207E1,-2.5135479E1,-2.0894321E1,-1.5227378E1,8.927708E0,-1.7114408E1,-9.817755E0,-1.3443797E1,-6.4774084E0,-9.711229E0,-4.4503074E0,4.0522793E1,-1.3694777E0,1.9223063E0,-1.0057967E1,3.4868385E1,7.029828E0,2.1687435E-1,-1.2952555E0,3.81802E1,6.2266663E1,1.13177395E1,2.4008932E1,2.2930546E1,3.566956E1,8.604782E1,6.2479626E1,7.431948E0,5.825803E1,2.8390868E0,1.5337589E1,1.5651361E1,5.1222645E1,-6.4835614E-1,-1.2789192E0,-1.1030718E0,-8.958807E-1,-1.12436E0,3.1450036E-1,1.4147577E-1,8.561841E-1,-9.310915E-1,-7.6150393E-1,9.266481E-2,-5.8441585E-1,-7.729868E-1,-5.8663553E-1,-1.5038851E0,-2.4265878E-1,-5.2149284E-1,-1.2894695E-1,-1.7096828E-1,-6.4353865E-1,2.5795476E0,4.5852825E-1,-1.746195E-1,2.3553784E-1,4.842156E-1,-1.20830886E-1,-7.017018E-1,-1.7090929E-1,1.9584401E0,2.1799147E-2,2.8209612E-1,9.619859E-1,2.3777226E-1,-4.2998353E-1,1.472931E0,2.4224641E0,2.799278E0,5.8074183E0,7.8436725E-2,7.124949E-1,1.0645765E0,2.0545106E0,6.8345517E-1,1.3681893E0,1.3467605E0,1.988135E0,3.2893956E0,4.701275E0,3.3830311E0,1.2420579E0,1.0114784E0,-2.3847428E-1,3.1109216E0,1.3977562E0,9.256515E-2,1.1403558E0,2.0920002E-1,1.162231E0,3.5353E0,2.0379808E0],"categories":[],"categories_nodes":[],"categories_segments":[],"categories_sizes":[],"default_left":[0,0,0,0,0,0,0,0,0,0,0,0,0,0,0,0,0,0,0,0,0,0,0,0,0,0,0,0,0,0,0,0,0,0,0,0,0,0,0,0,0,0,0,0,0,0,0,0,0,0,0,0,0,0,0,0,0,0,0,0,0,0,0,0,0,0,0,0,0,0,0,0,0,0,0,0,0,0,0,0,0,0,0,0,0,0,0,0,0,0,0,0,0,0,0,0,0,0,0,0,0,0,0,0,0,0,0,0,0,0,0,0,0,0,0,0,0,0,0,0,0,0,0],"id":7,"left_children":[1,3,5,7,9,11,13,15,17,19,21,23,25,27,29,31,33,35,37,39,41,43,45,47,49,51,53,55,57,59,61,63,65,67,69,71,73,75,77,79,81,83,85,87,89,91,93,95,-1,97,99,101,103,105,107,109,111,113,115,-1,117,119,121,-1,-1,-1,-1,-1,-1,-1,-1,-1,-1,-1,-1,-1,-1,-1,-1,-1,-1,-1,-1,-1,-1,-1,-1,-1,-1,-1,-1,-1,-1,-1,-1,-1,-1,-1,-1,-1,-1,-1,-1,-1,-1,-1,-1,-1,-1,-1,-1,-1,-1,-1,-1,-1,-1,-1,-1,-1,-1,-1,-1],"loss_changes":[1.2999395E7,1.5973888E6,2.277096E6,1.729395E5,3.5466694E5,4.800125E5,3.703065E5,3.299225E4,3.58875E4,8.354509E4,1.1533505E5,2.035065E5,2.2539575E5,1.403125E5,3.822983E4,1.81495E4,1.7819541E4,1.6624375E4,1.1943E4,3.0068719E4,4.5126777E4,1.2598887E4,1.003188E5,6.1927705E3,1.5140825E5,1.0278369E5,7.720825E4,1.14061E5,3.63285E4,1.1081285E4,1.06786875E4,1.25545E4,5.99025E3,1.5137838E4,2.2006765E3,1.7992E4,7.3133516E3,1.3005875E4,1.008877E4,1.8153062E4,1.3593855E4,8.54918E3,3.0220715E4,3.7617444E3,1.127773E4,1.9972875E4,5.4085312E4,4.0023318E3,0E0,1.24856125E5,1.03489125E5,5.534803E4,4.3453062E4,3.80565E4,3.4322375E4,1.18914E5,5.7015625E4,2.5948735E3,3.8944625E4,0E0,1.2650531E4,9.476399E2,1.0164766E4,0E0,0E0,0E0,0E0,0E0,0E0,0E0,0E0,0E0,0E0,0E0,0E0,0E0,0E0,0E0,0E0,0E0,0E0,0E0,0E0,0E0,0E0,0E0,0E0,0E0,0E0,0E0,0E0,0E0,0E0,0E0,0E0,0E0,0E0,0E0,0E0,0E0,0E0,0E0,0E0,0E0,0E0,0E0,0E0,0E0,0E0,0E0,0E0,0E0,0E0,0E0,0E0,0E0,0E0,0E0,0E0,0E0,0E0,0E0,0E0],"parents":[2147483647,0,0,1,1,2,2,3,3,4,4,5,5,6,6,7,7,8,8,9,9,10,10,11,11,12,12,13,13,14,14,15,15,16,16,17,17,18,18,19,19,20,20,21,21,22,22,23,23,24,24,25,25,26,26,27,27,28,28,29,29,30,30,31,31,32,32,33,33,34,34,35,35,36,36,37,37,38,38,39,39,40,40,41,41,42,42,43,43,44,44,45,45,46,46,47,47,49,49,50,50,51,51,52,52,53,53,54,54,55,55,56,56,57,57,58,58,60,60,61,61,62,62],"right_children":[2,4,6,8,10,12,14,16,18,20,22,24,26,28,30,32,34,36,38,40,42,44,46,48,50,52,54,56,58,60,62,64,66,68,70,72,74,76,78,80,82,84,86,88,90,92,94,96,-1,98,100,102,104,106,108,110,112,114,116,-1,118,120,122,-1,-1,-1,-1,-1,-1,-1,-1,-1,-1,-1,-1,-1,-1,-1,-1,-1,-1,-1,-1,-1,-1,-1,-1,-1,-1,-1,-1,-1,-1,-1,-1,-1,-1,-1,-1,-1,-1,-1,-1,-1,-1,-1,-1,-1,-1,-1,-1,-1,-1,-1,-1,-1,-1,-1,-1,-1,-1,-1,-1],"split_conditions":[5.93E1,2.64E1,9.2416E3,1.1E1,4.5541668E1,2.24E1,2.37E1,1.2E1,2.03E1,1.78E1,2E0,2E0,8.29E1,6.4E1,9.4975E1,1E0,1.46E1,1.1E1,1.1E1,3.99E1,1.83E1,8.6E1,1.88E1,2.52E1,1.397E2,1.162E2,6.39E2,9.1E1,1.67E1,1.73E1,2.72E1,5E0,2E0,3E0,3.68E1,2E0,1.0666667E1,2E0,2.5E0,1.2E1,3.5E1,7.7E1,4.035E1,1.4256E2,1.2E1,4.73E1,8.03E1,3.32E1,-1.2952555E0,6E0,9.1E0,4.1E1,5.07E1,5E0,5E0,1.1058E4,1.111E2,2.05E1,1.31E2,2.8390868E0,4.05E1,1.04997E4,1.411E2,-6.4835614E-1,-1.2789192E0,-1.1030718E0,-8.958807E-1,-1.12436E0,3.1450036E-1,1.4147577E-1,8.561841E-1,-9.310915E-1,-7.6150393E-1,9.266481E-2,-5.8441585E-1,-7.729868E-1,-5.8663553E-1,-1.5038851E0,-2.4265878E-1,-5.2149284E-1,-1.2894695E-1,-1.7096828E-1,-6.4353865E-1,2.5795476E0,4.5852825E-1,-1.746195E-1,2.3553784E-1,4.842156E-1,-1.20830886E-1,-7.017018E-1,-1.7090929E-1,1.9584401E0,2.1799147E-2,2.8209612E-1,9.619859E-1,2.3777226E-1,-4.2998353E-1,1.472931E0,2.4224641E0,2.799278E0,5.8074183E0,7.8436725E-2,7.124949E-1,1.0645765E0,2.0545106E0,6.8345517E-1,1.3681893E0,1.3467605E0,1.988135E0,3.2893956E0,4.701275E0,3.3830311E0,1.2420579E0,1.0114784E0,-2.3847428E-1,3.1109216E0,1.3977562E0,9.256515E-2,1.1403558E0,2.0920002E-1,1.162231E0,3.5353E0,2.0379808E0],"split_indices":[0,0,39,0,33,6,6,12,0,31,46,46,0,4,33,46,18,12,12,0,6,4,6,5,16,18,25,7,21,21,20,12,46,11,16,46,33,46,30,12,38,7,33,41,12,21,15,38,0,12,8,16,22,12,12,39,38,6,4,0,38,39,19,0,0,0,0,0,0,0,0,0,0,0,0,0,0,0,0,0,0,0,0,0,0,0,0,0,0,0,0,0,0,0,0,0,0,0,0,0,0,0,0,0,0,0,0,0,0,0,0,0,0,0,0,0,0,0,0,0,0,0,0],"split_type":[0,0,0,0,0,0,0,0,0,0,0,0,0,0,0,0,0,0,0,0,0,0,0,0,0,0,0,0,0,0,0,0,0,0,0,0,0,0,0,0,0,0,0,0,0,0,0,0,0,0,0,0,0,0,0,0,0,0,0,0,0,0,0,0,0,0,0,0,0,0,0,0,0,0,0,0,0,0,0,0,0,0,0,0,0,0,0,0,0,0,0,0,0,0,0,0,0,0,0,0,0,0,0,0,0,0,0,0,0,0,0,0,0,0,0,0,0,0,0,0,0,0,0],"sum_hessian":[3.4854E4,2.6569E4,8.285E3,1.522E4,1.1349E4,6.654E3,1.631E3,4.366E3,1.0854E4,7.48E3,3.869E3,1.84E3,4.814E3,1.426E3,2.05E2,4.227E3,1.39E2,6.766E3,4.088E3,5.116E3,2.364E3,5.38E2,3.331E3,1.07E2,1.733E3,2.89E3,1.924E3,1.073E3,3.53E2,1.31E2,7.4E1,2.39E3,1.837E3,9.5E1,4.4E1,6.433E3,3.33E2,3.822E3,2.66E2,3.546E3,1.57E3,2.5E1,2.339E3,1.1E2,4.28E2,1.34E2,3.197E3,9.8E1,9E0,1.409E3,3.24E2,1.936E3,9.54E2,9.35E2,9.89E2,7.73E2,3E2,1.5E1,3.38E2,6E0,1.25E2,1.1E1,6.3E1,8.5E1,2.305E3,1.315E3,5.22E2,7.1E1,2.4E1,2.6E1,1.8E1,3.569E3,2.864E3,4.6E1,2.87E2,1.751E3,2.071E3,1.6E1,2.5E2,3.221E3,3.25E2,1.4E3,1.7E2,1.8E1,7E0,1.734E3,6.05E2,3.9E1,7.1E1,2.67E2,1.61E2,1.19E2,1.5E1,2.872E3,3.25E2,6.5E1,3.3E1,7.64E2,6.45E2,2.92E2,3.2E1,4.48E2,1.488E3,8.25E2,1.29E2,3.04E2,6.31E2,3.18E2,6.71E2,2.21E2,5.52E2,2.63E2,3.7E1,7E0,8E0,2.98E2,4E1,4.5E1,8E1,5E0,6E0,2E1,4.3E1],"tree_param":{"num_deleted":"0","num_feature":"51","num_nodes":"123","size_leaf_vector":"1"}},{"base_weights":[1.3693488E-1,-1.0140125E1,3.2885708E1,-1.5955433E1,-8.403369E-1,5.5058903E1,2.1886835E1,-2.0382105E1,-1.3327349E1,-3.6402256E0,9.763389E0,4.5636143E1,7.496017E1,1.3380095E1,2.9014925E1,-2.4683226E1,-1.9000647E1,-1.3841787E1,-5.714531E0,-7.7882705E0,-7.000136E-1,5.8347454E0,1.9444553E1,3.619593E1,5.895908E1,7.972268E1,3.5448982E1,-6.0128803E0,1.4652154E1,2.6598978E1,5.041098E1,-2.5988182E1,-2.3183155E1,-1.983169E1,-1.6196575E1,-1.5197177E1,-1.2000357E1,3.0273023E0,-7.9692526E0,-5.282695E0,-1.0546907E1,2.7259383E0,-5.3749995E0,3.9214252E1,5.1583047E0,1.3340584E1,2.7563402E1,1.6706163E1,4.199782E1,6.543437E1,2.933325E1,4.0132286E1,8.1950905E1,4.7054563E0,2.685165E1,1.4532106E0,-7.59915E0,2.2763008E1,1.0098787E1,3.1151203E1,2.012875E1,3.6184223E1,7.30834E1,-4.9403006E-1,-1.3081697E0,-1.0608013E0,-1.2303151E0,-9.999485E-1,-4.1598875E-2,-6.27945E-1,-8.5386384E-1,-8.5340425E-2,-7.665045E-1,1.089781E0,-6.0486335E-1,-3.30104E-1,6.5242577E-1,-4.272769E-1,1.4882556E0,2.8174463E-1,-2.920543E-1,-7.391009E-1,-4.5596382E-1,-1.4946555E-1,2.7800676E-1,1.4107722E-1,-4.220744E-1,7.768986E-1,2.355877E0,-3.2993457E-1,3.269584E-1,5.89007E-1,1.8724749E0,9.3880385E-1,1.6928467E0,-1.7022514E-1,1.1678675E0,4.394934E0,1.9442469E0,1.4699193E0,3.4499786E0,2.0367305E0,7.489757E-1,3.2545832E-1,2.7803051E0,4.253701E0,2.4780276E0,5.629075E-1,1.7502136E0,-8.361601E-1,-8.645313E-2,1.4887413E0,5.189841E-1,3.4267426E-2,6.077543E-1,1.3481995E0,1.9714044E0,8.133913E-1,1.3446404E0,2.2558148E0,1.0625204E0,3.3374584E0,7.552182E0],"categories":[],"categories_nodes":[],"categories_segments":[],"categories_sizes":[],"default_left":[0,0,0,0,0,0,0,0,0,0,0,0,0,0,0,0,0,0,0,0,0,0,0,0,0,0,0,0,0,0,0,0,0,0,0,0,0,0,0,0,0,0,0,0,0,0,0,0,0,0,0,0,0,0,0,0,0,0,0,0,0,0,0,0,0,0,0,0,0,0,0,0,0,0,0,0,0,0,0,0,0,0,0,0,0,0,0,0,0,0,0,0,0,0,0,0,0,0,0,0,0,0,0,0,0,0,0,0,0,0,0,0,0,0,0,0,0,0,0,0,0,0,0],"id":8,"left_children":[1,3,5,7,9,11,13,15,17,19,21,23,25,27,29,31,33,35,37,39,41,43,45,47,49,51,53,55,57,59,61,63,65,67,69,71,73,75,77,79,81,83,85,87,89,91,93,95,97,99,101,103,105,-1,107,-1,109,111,113,115,117,119,121,-1,-1,-1,-1,-1,-1,-1,-1,-1,-1,-1,-1,-1,-1,-1,-1,-1,-1,-1,-1,-1,-1,-1,-1,-1,-1,-1,-1,-1,-1,-1,-1,-1,-1,-1,-1,-1,-1,-1,-1,-1,-1,-1,-1,-1,-1,-1,-1,-1,-1,-1,-1,-1,-1,-1,-1,-1,-1,-1,-1],"loss_changes":[1.1727469E7,1.4343268E6,2.028609E6,1.8956675E5,3.0301434E5,5.139605E5,3.3705575E5,3.563925E4,4.0031875E4,9.84661E4,8.097469E4,2.3368725E5,1.63707E5,6.272272E4,1.5513E5,2.282875E3,1.0407625E4,2.3760375E4,1.2835889E4,2.3092484E4,7.570758E4,3.4073023E4,3.0109953E4,1.2368375E5,1.46945E5,6.63135E4,4.6392125E4,8.956617E3,8.7778375E4,7.95465E4,9.6057375E4,1.9428125E3,1.4235938E3,1.1256625E4,3.1750938E3,9.875125E3,1.36000625E4,1.3016892E4,1.1496918E4,1.0744082E4,9.49675E3,4.420515E4,5.0267906E4,4.881496E3,2.4216766E4,1.2838918E4,1.39090625E4,3.4054508E4,1.17604875E5,7.968225E4,2.2464766E4,2.2530281E4,7.1248E4,0E0,1.0538922E4,0E0,8.058492E3,7.401706E4,2.9568922E4,5.424975E4,2.8994688E4,2.4385344E4,4.7694688E4,0E0,0E0,0E0,0E0,0E0,0E0,0E0,0E0,0E0,0E0,0E0,0E0,0E0,0E0,0E0,0E0,0E0,0E0,0E0,0E0,0E0,0E0,0E0,0E0,0E0,0E0,0E0,0E0,0E0,0E0,0E0,0E0,0E0,0E0,0E0,0E0,0E0,0E0,0E0,0E0,0E0,0E0,0E0,0E0,0E0,0E0,0E0,0E0,0E0,0E0,0E0,0E0,0E0,0E0,0E0,0E0,0E0,0E0,0E0,0E0],"parents":[2147483647,0,0,1,1,2,2,3,3,4,4,5,5,6,6,7,7,8,8,9,9,10,10,11,11,12,12,13,13,14,14,15,15,16,16,17,17,18,18,19,19,20,20,21,21,22,22,23,23,24,24,25,25,26,26,27,27,28,28,29,29,30,30,31,31,32,32,33,33,34,34,35,35,36,36,37,37,38,38,39,39,40,40,41,41,42,42,43,43,44,44,45,45,46,46,47,47,48,48,49,49,50,50,51,51,52,52,54,54,56,56,57,57,58,58,59,59,60,60,61,61,62,62],"right_children":[2,4,6,8,10,12,14,16,18,20,22,24,26,28,30,32,34,36,38,40,42,44,46,48,50,52,54,56,58,60,62,64,66,68,70,72,74,76,78,80,82,84,86,88,90,92,94,96,98,100,102,104,106,-1,108,-1,110,112,114,116,118,120,122,-1,-1,-1,-1,-1,-1,-1,-1,-1,-1,-1,-1,-1,-1,-1,-1,-1,-1,-1,-1,-1,-1,-1,-1,-1,-1,-1,-1,-1,-1,-1,-1,-1,-1,-1,-1,-1,-1,-1,-1,-1,-1,-1,-1,-1,-1,-1,-1,-1,-1,-1,-1,-1,-1,-1,-1,-1,-1,-1,-1],"split_conditions":[5.93E1,2.84E1,2.12E1,1.37E1,5.42E1,1.471E2,1.017E2,6.7083335E0,3.92E1,2E0,1.062E2,5.73E1,2.078625E2,2E0,1.802E2,2.8108108E-1,2E0,2.11E1,5.1E1,2.54E1,7.1E1,1.44E1,7.37E2,8.75862E0,1E0,1.04E1,1.074E3,2.21E2,2.6E1,1.02E2,1.8E1,1.4E0,3E0,4.03E1,5E0,1.94E1,1.75E1,1.4E1,1.12E2,9.1E0,2.99E2,3.475E0,3E0,1.52E1,2.06E1,1.053E3,5.42E2,2E0,1.15E1,6.4E2,4.93E1,1.336E2,8.8E1,4.7054563E0,5.202E1,1.4532106E0,4.5776267E0,4E0,2.12E1,5.66E1,3.4E1,1.6697E2,1.662E3,-4.9403006E-1,-1.3081697E0,-1.0608013E0,-1.2303151E0,-9.999485E-1,-4.1598875E-2,-6.27945E-1,-8.5386384E-1,-8.5340425E-2,-7.665045E-1,1.089781E0,-6.0486335E-1,-3.30104E-1,6.5242577E-1,-4.272769E-1,1.4882556E0,2.8174463E-1,-2.920543E-1,-7.391009E-1,-4.5596382E-1,-1.4946555E-1,2.7800676E-1,1.4107722E-1,-4.220744E-1,7.768986E-1,2.355877E0,-3.2993457E-1,3.269584E-1,5.89007E-1,1.8724749E0,9.3880385E-1,1.6928467E0,-1.7022514E-1,1.1678675E0,4.394934E0,1.9442469E0,1.4699193E0,3.4499786E0,2.0367305E0,7.489757E-1,3.2545832E-1,2.7803051E0,4.253701E0,2.4780276E0,5.629075E-1,1.7502136E0,-8.361601E-1,-8.645313E-2,1.4887413E0,5.189841E-1,3.4267426E-2,6.077543E-1,1.3481995E0,1.9714044E0,8.133913E-1,1.3446404E0,2.2558148E0,1.0625204E0,3.3374584E0,7.552182E0],"split_indices":[14,14,6,14,15,14,1,33,15,46,19,38,33,46,37,40,46,14,7,6,7,6,25,40,47,6,24,25,6,27,10,5,11,15,30,6,6,5,37,38,23,40,46,5,38,2,23,46,6,23,30,19,27,0,41,0,36,46,5,38,6,41,2,0,0,0,0,0,0,0,0,0,0,0,0,0,0,0,0,0,0,0,0,0,0,0,0,0,0,0,0,0,0,0,0,0,0,0,0,0,0,0,0,0,0,0,0,0,0,0,0,0,0,0,0,0,0,0,0,0,0,0,0],"split_type":[0,0,0,0,0,0,0,0,0,0,0,0,0,0,0,0,0,0,0,0,0,0,0,0,0,0,0,0,0,0,0,0,0,0,0,0,0,0,0,0,0,0,0,0,0,0,0,0,0,0,0,0,0,0,0,0,0,0,0,0,0,0,0,0,0,0,0,0,0,0,0,0,0,0,0,0,0,0,0,0,0,0,0,0,0,0,0,0,0,0,0,0,0,0,0,0,0,0,0,0,0,0,0,0,0,0,0,0,0,0,0,0,0,0,0,0,0,0,0,0,0,0,0],"sum_hessian":[3.4843E4,2.6521E4,8.322E3,1.6317E4,1.0204E4,2.758E3,5.564E3,6.076E3,1.0241E4,8.073E3,2.131E3,1.874E3,8.84E2,2.538E3,3.026E3,1.473E3,4.603E3,9.592E3,6.49E2,3.348E3,4.725E3,1.517E3,6.14E2,1.099E3,7.75E2,7.88E2,9.6E1,1.56E2,2.382E3,2.721E3,3.05E2,7.79E2,6.94E2,3.546E3,1.057E3,5.521E3,4.071E3,1.33E2,5.16E2,1.756E3,1.592E3,2.727E3,1.998E3,2.9E1,1.488E3,3.52E2,2.62E2,2.53E2,8.46E2,6.35E2,1.4E2,4.3E1,7.45E2,1.1E1,8.5E1,6E0,1.5E2,8.55E2,1.527E3,1.595E3,1.126E3,1.89E2,1.16E2,9E0,7.7E2,2.98E2,3.96E2,3.515E3,3.1E1,2.09E2,8.48E2,5.4E1,5.467E3,1.1E1,4.06E3,6.8E1,6.5E1,5.09E2,7E0,8.5E1,1.671E3,3.99E2,1.193E3,9.04E2,1.823E3,5.44E2,1.454E3,8E0,2.1E1,1.56E2,1.332E3,3.32E2,2E1,1.11E2,1.51E2,6.3E1,1.9E2,5.2E1,7.94E2,5.8E1,5.77E2,7.7E1,6.3E1,1.4E1,2.9E1,6.78E2,6.7E1,3E1,5.5E1,5.8E1,9.2E1,5.45E2,3.1E2,2.74E2,1.253E3,1.062E3,5.33E2,7.19E2,4.07E2,1.17E2,7.2E1,1.09E2,7E0],"tree_param":{"num_deleted":"0","num_feature":"51","num_nodes":"123","size_leaf_vector":"1"}},{"base_weights":[-1.04012884E-1,-8.738903E0,3.487163E1,-1.4365324E1,2.0582888E0,5.2898224E1,2.2624378E1,-1.8335796E1,-1.100268E1,-1.2828965E0,1.1130871E1,4.480966E1,7.3002655E1,1.9550829E1,3.671346E1,-2.1872606E1,-1.6494776E1,-1.2341983E1,-6.5995975E0,-3.6013355E0,5.275713E0,3.2651715E0,1.4302819E1,3.9186897E1,6.1222706E1,7.775325E1,3.7029778E1,1.5851766E1,2.5801756E1,3.297447E1,6.4873795E1,-2.3812426E1,-2.0132404E1,-1.7404734E1,-1.4240878E1,-1.3395882E1,-9.986363E0,-7.968537E0,1.7384995E0,-4.799093E0,3.2728953E0,4.375461E0,2.181678E1,1.1305899E1,-3.7606746E-1,1.0978871E1,2.0088364E1,3.385514E1,5.417421E1,1.1033515E2,5.7451183E1,1.1797697E1,7.8879944E1,8.305963E1,2.4429424E1,1.2041289E1,2.1007933E1,2.2226152E1,3.5444042E1,1.7814814E1,3.541045E1,8.530215E1,2.2484493E1,-1.2236828E0,-9.814617E-1,-2.6198816E-1,-1.0193781E0,-2.1806197E-1,-8.819768E-1,-7.1928006E-1,2.255398E-1,-1.7227346E-1,-6.7569405E-1,-5.3932816E-1,-2.2291861E-1,-5.826573E-1,-2.9194275E-1,-1.3786618E-1,5.9351367E-1,-3.2707685E-1,-7.488903E-2,-4.9218465E-2,6.2010664E-1,-3.4906802E-1,2.6161292E-1,3.357952E0,5.466978E-1,-2.60102E-1,8.125205E-1,1.2594986E-1,-3.0990222E-1,4.2451403E-1,7.684209E-1,7.954971E-1,1.7144625E0,9.9037534E-1,1.9483664E0,2.049872E0,3.9855938E0,7.6759453E0,1.729694E0,2.6757E0,4.258892E0,-4.3192592E-1,1.2825073E0,4.0488205E0,1.9789139E0,4.5898147E0,2.686032E0,1.4352278E0,7.517173E-2,6.887028E-2,7.262814E-1,9.0479565E-1,2.0364137E0,-3.5967287E-1,1.1445435E0,-6.9247544E-1,1.8419418E0,1.333485E0,9.6250914E-2,1.8978968E0,8.2289517E-1,3.0667803E0,5.676295E0,5.3137606E-1,2.3826244E0],"categories":[],"categories_nodes":[],"categories_segments":[],"categories_sizes":[],"default_left":[0,0,0,0,0,0,0,0,0,0,0,0,0,0,0,0,0,0,0,0,0,0,0,0,0,0,0,0,0,0,0,0,0,0,0,0,0,0,0,0,0,0,0,0,0,0,0,0,0,0,0,0,0,0,0,0,0,0,0,0,0,0,0,0,0,0,0,0,0,0,0,0,0,0,0,0,0,0,0,0,0,0,0,0,0,0,0,0,0,0,0,0,0,0,0,0,0,0,0,0,0,0,0,0,0,0,0,0,0,0,0,0,0,0,0,0,0,0,0,0,0,0,0,0,0,0,0],"id":9,"left_children":[1,3,5,7,9,11,13,15,17,19,21,23,25,27,29,31,33,35,37,39,41,43,45,47,49,51,53,55,57,59,61,63,65,67,69,71,73,75,77,79,81,83,85,87,89,91,93,95,97,99,101,103,105,107,109,111,113,115,117,119,121,123,125,-1,-1,-1,-1,-1,-1,-1,-1,-1,-1,-1,-1,-1,-1,-1,-1,-1,-1,-1,-1,-1,-1,-1,-1,-1,-1,-1,-1,-1,-1,-1,-1,-1,-1,-1,-1,-1,-1,-1,-1,-1,-1,-1,-1,-1,-1,-1,-1,-1,-1,-1,-1,-1,-1,-1,-1,-1,-1,-1,-1,-1,-1,-1,-1],"loss_changes":[1.0510886E7,1.6956708E6,1.5201725E6,2.447945E5,2.898992E5,4.499395E5,1.7704325E5,5.441925E4,5.8523375E4,1.063071E5,6.4173562E4,1.812515E5,1.334935E5,7.756025E4,7.514456E4,9.232375E3,1.110825E4,1.8781125E4,2.6495148E4,4.2542555E4,2.7095723E4,2.1699408E4,3.5048844E4,1.1683025E5,8.738675E4,5.13845E4,5.3070164E4,4.141925E4,4.2377438E4,2.3372812E4,7.168725E4,3.267625E3,5.6805E3,1.1989875E4,4.4015312E3,6.1305625E3,1.0386969E4,1.5571102E4,1.497335E4,2.5294805E4,2.9822105E4,1.6899469E4,4.565016E4,1.8939602E4,8.628517E3,1.2617578E4,3.909175E4,7.808E4,1.27295625E5,1.0916691E5,4.6967875E4,3.901771E3,5.38125E4,1.9514062E2,7.4057266E3,3.2354062E4,5.0946375E4,1.8077656E4,2.3680344E4,1.2893271E4,2.6364562E4,3.1593094E4,8.1476426E3,0E0,0E0,0E0,0E0,0E0,0E0,0E0,0E0,0E0,0E0,0E0,0E0,0E0,0E0,0E0,0E0,0E0,0E0,0E0,0E0,0E0,0E0,0E0,0E0,0E0,0E0,0E0,0E0,0E0,0E0,0E0,0E0,0E0,0E0,0E0,0E0,0E0,0E0,0E0,0E0,0E0,0E0,0E0,0E0,0E0,0E0,0E0,0E0,0E0,0E0,0E0,0E0,0E0,0E0,0E0,0E0,0E0,0E0,0E0,0E0,0E0,0E0,0E0,0E0],"parents":[2147483647,0,0,1,1,2,2,3,3,4,4,5,5,6,6,7,7,8,8,9,9,10,10,11,11,12,12,13,13,14,14,15,15,16,16,17,17,18,18,19,19,20,20,21,21,22,22,23,23,24,24,25,25,26,26,27,27,28,28,29,29,30,30,31,31,32,32,33,33,34,34,35,35,36,36,37,37,38,38,39,39,40,40,41,41,42,42,43,43,44,44,45,45,46,46,47,47,48,48,49,49,50,50,51,51,52,52,53,53,54,54,55,55,56,56,57,57,58,58,59,59,60,60,61,61,62,62],"right_children":[2,4,6,8,10,12,14,16,18,20,22,24,26,28,30,32,34,36,38,40,42,44,46,48,50,52,54,56,58,60,62,64,66,68,70,72,74,76,78,80,82,84,86,88,90,92,94,96,98,100,102,104,106,108,110,112,114,116,118,120,122,124,126,-1,-1,-1,-1,-1,-1,-1,-1,-1,-1,-1,-1,-1,-1,-1,-1,-1,-1,-1,-1,-1,-1,-1,-1,-1,-1,-1,-1,-1,-1,-1,-1,-1,-1,-1,-1,-1,-1,-1,-1,-1,-1,-1,-1,-1,-1,-1,-1,-1,-1,-1,-1,-1,-1,-1,-1,-1,-1,-1,-1,-1,-1,-1,-1],"split_conditions":[6.64E1,3.28E1,2.21E1,1.68E1,5.72E1,1.551E2,1.113E2,8.6E0,3.41E1,7.33E1,4.55E1,1.397E2,2.078625E2,1.416E2,4.93E1,6.7083335E0,2.01E1,2.54E1,7.26E1,5.26E1,7.94E1,2.44E1,7.89E2,1.1057083E2,1.04E1,1.62E1,1.119E3,6.62E2,3.87E1,4.81E2,1.42E2,1E0,8.3E0,2E0,7.47E1,1.95E1,6.1E1,3.89E2,9.27E1,1.6E1,5.12E1,4.3204166E1,2.99E1,5.01E1,3.08E1,1.017E2,1E0,7.47E2,7.8E1,1.192E2,5.2E1,1.7896666E2,1.096E2,6.5E1,9.8E1,2.13E1,1.085E2,1.2E1,8.15E1,1.37E2,8.91E1,1.5385E2,3.5651897E1,-1.2236828E0,-9.814617E-1,-2.6198816E-1,-1.0193781E0,-2.1806197E-1,-8.819768E-1,-7.1928006E-1,2.255398E-1,-1.7227346E-1,-6.7569405E-1,-5.3932816E-1,-2.2291861E-1,-5.826573E-1,-2.9194275E-1,-1.3786618E-1,5.9351367E-1,-3.2707685E-1,-7.488903E-2,-4.9218465E-2,6.2010664E-1,-3.4906802E-1,2.6161292E-1,3.357952E0,5.466978E-1,-2.60102E-1,8.125205E-1,1.2594986E-1,-3.0990222E-1,4.2451403E-1,7.684209E-1,7.954971E-1,1.7144625E0,9.9037534E-1,1.9483664E0,2.049872E0,3.9855938E0,7.6759453E0,1.729694E0,2.6757E0,4.258892E0,-4.3192592E-1,1.2825073E0,4.0488205E0,1.9789139E0,4.5898147E0,2.686032E0,1.4352278E0,7.517173E-2,6.887028E-2,7.262814E-1,9.0479565E-1,2.0364137E0,-3.5967287E-1,1.1445435E0,-6.9247544E-1,1.8419418E0,1.333485E0,9.6250914E-2,1.8978968E0,8.2289517E-1,3.0667803E0,5.676295E0,5.3137606E-1,2.3826244E0],"split_indices":[0,0,6,0,16,0,0,0,16,37,0,16,33,18,30,33,16,0,37,0,15,6,25,33,6,21,2,25,22,24,27,45,37,30,18,6,37,25,19,31,19,33,19,18,6,18,45,23,7,0,3,32,22,4,7,29,16,7,19,27,3,33,36,0,0,0,0,0,0,0,0,0,0,0,0,0,0,0,0,0,0,0,0,0,0,0,0,0,0,0,0,0,0,0,0,0,0,0,0,0,0,0,0,0,0,0,0,0,0,0,0,0,0,0,0,0,0,0,0,0,0,0,0,0,0,0,0],"split_type":[0,0,0,0,0,0,0,0,0,0,0,0,0,0,0,0,0,0,0,0,0,0,0,0,0,0,0,0,0,0,0,0,0,0,0,0,0,0,0,0,0,0,0,0,0,0,0,0,0,0,0,0,0,0,0,0,0,0,0,0,0,0,0,0,0,0,0,0,0,0,0,0,0,0,0,0,0,0,0,0,0,0,0,0,0,0,0,0,0,0,0,0,0,0,0,0,0,0,0,0,0,0,0,0,0,0,0,0,0,0,0,0,0,0,0,0,0,0,0,0,0,0,0,0,0,0,0],"sum_hessian":[3.4801E4,2.7911E4,6.89E3,1.8349E4,9.562E3,2.786E3,4.104E3,8.412E3,9.937E3,6.989E3,2.573E3,1.989E3,7.97E2,3.371E3,7.33E2,2.876E3,5.536E3,7.618E3,2.319E3,5.164E3,1.825E3,7.4E2,1.833E3,1.484E3,5.05E2,7.03E2,9.4E1,2.12E3,1.251E3,6.49E2,8.4E1,1.354E3,1.522E3,3.939E3,1.597E3,5.26E3,2.358E3,1.992E3,3.27E2,4.398E3,7.66E2,1.732E3,9.3E1,2.3E2,5.1E2,1.166E3,6.67E2,1.097E3,3.87E2,3.4E1,4.71E2,1.2E1,6.91E2,1.9E1,7.5E1,1.221E3,8.99E2,9.15E2,3.36E2,9.1E1,5.58E2,5.6E1,2.8E1,1.165E3,1.89E2,2.6E1,1.496E3,7E1,3.869E3,1.585E3,1.2E1,6.2E1,5.198E3,2.059E3,2.99E2,7.28E2,1.264E3,2.27E2,1E2,2.878E3,1.52E3,5.23E2,2.43E2,1.21E2,1.611E3,1.7E1,7.6E1,5.3E1,1.77E2,3.41E2,1.69E2,7.46E2,4.2E2,5.17E2,1.5E2,2.94E2,8.03E2,2.57E2,1.3E2,2.1E1,1.3E1,4.15E2,5.6E1,5E0,7E0,6.55E2,3.6E1,1.3E1,6E0,6.3E1,1.2E1,2.31E2,9.9E2,7.85E2,1.14E2,2E1,8.95E2,9E0,3.27E2,5.8E1,3.3E1,4.91E2,6.7E1,3.2E1,2.4E1,2E1,8E0],"tree_param":{"num_deleted":"0","num_feature":"51","num_nodes":"127","size_leaf_vector":"1"}},{"base_weights":[-9.101891E-2,-9.520868E0,2.8738426E1,-1.4627478E1,-1.4205731E0,1.9658003E1,4.9659565E1,-1.8497908E1,-1.2170142E1,-4.61058E0,5.6326404E0,1.2987543E1,2.5699366E1,5.658639E1,2.560409E1,-1.8900448E1,-4.9885693E0,-1.2882324E1,-8.151838E0,-5.9190054E0,4.115404E0,2.5782924E0,1.2240669E1,7.0519967E0,1.8156982E1,4.693735E1,2.3610407E1,4.8990936E1,6.913394E1,1.58294735E1,3.3669086E1,-2.2035973E1,-1.7528728E1,-1.7510544E1,4.1546435E0,-1.0055389E1,-1.3803296E1,-1.2749802E1,-5.335347E0,-7.452931E0,-2.1355047E0,1.6720324E0,2.0521523E1,4.178499E1,2.0440345E0,3.7464584E1,1.1065703E1,9.03903E0,-3.7331698E0,2.168085E1,1.229523E1,9.3447945E1,3.8104424E1,1.7305325E1,2.7800035E1,4.3158474E1,6.567107E1,5.7573456E1,8.033187E1,1.2394573E1,3.9602264E1,4.1780483E1,2.464843E1,-1.164568E0,-1.0051106E0,2.0705764E-1,-8.8293976E-1,-1.1687706E0,5.275518E-1,3.4607926E-1,-1.1550078E0,-5.761298E-1,-2.9032168E-1,-7.140335E-1,-3.0788696E-1,-6.9573784E-1,1.6798621E-2,-2.887762E-1,7.4026906E-1,-4.2646095E-1,3.2524266E-3,1.9126959E-1,-1.8912624E-1,5.536725E-1,-1.7360536E-3,-3.2623913E-2,1.6560143E0,1.6029254E-1,2.6957223E0,-3.5917338E-2,3.1694958E-1,2.5893962E0,1.0393624E0,7.2954553E-1,1.9114363E-1,3.093458E-1,7.851937E-1,1.0463922E0,-2.746794E-1,9.0191793E-1,1.5650537E0,1.653978E0,5.27327E-1,3.5930345E0,7.5838466E0,4.5147943E0,1.6830505E0,7.7654E-1,2.6770377E0,2.1300416E0,1.2028999E0,1.465267E0,2.5812755E0,3.5177407E0,8.712587E-1,3.9760265E0,1.8826548E0,4.900269E0,3.2694867E0,-9.501435E-1,7.168127E-1,3.5542226E0,7.792312E-1,1.1368204E0,2.3628283E0,2.7716005E0,1.0450355E0],"categories":[],"categories_nodes":[],"categories_segments":[],"categories_sizes":[],"default_left":[0,0,0,0,0,0,0,0,0,0,0,0,0,0,0,0,0,0,0,0,0,0,0,0,0,0,0,0,0,0,0,0,0,0,0,0,0,0,0,0,0,0,0,0,0,0,0,0,0,0,0,0,0,0,0,0,0,0,0,0,0,0,0,0,0,0,0,0,0,0,0,0,0,0,0,0,0,0,0,0,0,0,0,0,0,0,0,0,0,0,0,0,0,0,0,0,0,0,0,0,0,0,0,0,0,0,0,0,0,0,0,0,0,0,0,0,0,0,0,0,0,0,0,0,0,0,0],"id":10,"left_children":[1,3,5,7,9,11,13,15,17,19,21,23,25,27,29,31,33,35,37,39,41,43,45,47,49,51,53,55,57,59,61,63,65,67,69,71,73,75,77,79,81,83,85,87,89,91,93,95,97,99,101,103,105,107,109,111,113,115,117,119,121,123,125,-1,-1,-1,-1,-1,-1,-1,-1,-1,-1,-1,-1,-1,-1,-1,-1,-1,-1,-1,-1,-1,-1,-1,-1,-1,-1,-1,-1,-1,-1,-1,-1,-1,-1,-1,-1,-1,-1,-1,-1,-1,-1,-1,-1,-1,-1,-1,-1,-1,-1,-1,-1,-1,-1,-1,-1,-1,-1,-1,-1,-1,-1,-1,-1],"loss_changes":[9.459278E6,1.084529E6,1.62823E6,1.527205E5,2.2815144E5,2.4073275E5,4.309515E5,3.38555E4,2.8051875E4,7.973995E4,6.3707047E4,8.7166375E4,1.3811025E5,1.88556E5,4.5347438E4,2.56865E4,2.0910123E4,2.161625E4,1.914996E4,3.5223594E4,3.6484266E4,4.517996E4,2.9163406E4,2.8450562E4,3.1130625E4,1.1147006E5,7.5042E4,1.1955175E5,9.337125E4,2.114829E4,2.2238281E4,4.0010625E3,1.1973E4,1.2919098E4,8.153609E3,1.2756625E4,2.290575E4,8.587234E3,8.259475E3,3.4955875E4,1.7224922E4,1.2740831E4,3.150002E4,1.3397535E4,2.5311123E4,9.43398E3,2.4327734E4,2.1192805E4,9.101601E3,3.2654781E4,2.0477008E4,4.4408562E4,5.192275E4,7.27285E4,9.4016E4,1.08157875E5,7.1988875E4,1.6139062E5,9.447E4,1.4476992E4,2.3844395E4,1.62371875E4,1.6492781E4,0E0,0E0,0E0,0E0,0E0,0E0,0E0,0E0,0E0,0E0,0E0,0E0,0E0,0E0,0E0,0E0,0E0,0E0,0E0,0E0,0E0,0E0,0E0,0E0,0E0,0E0,0E0,0E0,0E0,0E0,0E0,0E0,0E0,0E0,0E0,0E0,0E0,0E0,0E0,0E0,0E0,0E0,0E0,0E0,0E0,0E0,0E0,0E0,0E0,0E0,0E0,0E0,0E0,0E0,0E0,0E0,0E0,0E0,0E0,0E0,0E0,0E0,0E0,0E0],"parents":[2147483647,0,0,1,1,2,2,3,3,4,4,5,5,6,6,7,7,8,8,9,9,10,10,11,11,12,12,13,13,14,14,15,15,16,16,17,17,18,18,19,19,20,20,21,21,22,22,23,23,24,24,25,25,26,26,27,27,28,28,29,29,30,30,31,31,32,32,33,33,34,34,35,35,36,36,37,37,38,38,39,39,40,40,41,41,42,42,43,43,44,44,45,45,46,46,47,47,48,48,49,49,50,50,51,51,52,52,53,53,54,54,55,55,56,56,57,57,58,58,59,59,60,60,61,61,62,62],"right_children":[2,4,6,8,10,12,14,16,18,20,22,24,26,28,30,32,34,36,38,40,42,44,46,48,50,52,54,56,58,60,62,64,66,68,70,72,74,76,78,80,82,84,86,88,90,92,94,96,98,100,102,104,106,108,110,112,114,116,118,120,122,124,126,-1,-1,-1,-1,-1,-1,-1,-1,-1,-1,-1,-1,-1,-1,-1,-1,-1,-1,-1,-1,-1,-1,-1,-1,-1,-1,-1,-1,-1,-1,-1,-1,-1,-1,-1,-1,-1,-1,-1,-1,-1,-1,-1,-1,-1,-1,-1,-1,-1,-1,-1,-1,-1,-1,-1,-1,-1,-1,-1,-1,-1,-1,-1,-1],"split_conditions":[5.8E1,2.79E1,7.1896E3,1.39E1,4.75E1,7.45E1,2.36E1,1.2E1,3.5E1,7.73E1,9.62E1,7.45E1,1.8E1,1.639E2,1.416E2,6.7E0,2E0,5E0,1.05E1,1.71E1,1.1E1,1.44E1,2E0,1E0,1.23E2,7.17E1,5E0,1.2E1,3E0,1.1E1,4E0,5.1E1,1.4E0,1.76E1,1.15E1,2E0,1.1E1,1.2E1,9.55E1,1.2E1,4.2E1,2.46E1,9.38E1,1.91E1,4.6E1,-1.3E0,2.31E2,1.1E1,1.19E1,1E1,3.25E1,5.53E1,8.01E1,2.217E2,2.36E1,5.26E1,2.38E2,2.38E2,2E0,3.28E1,6.9E1,5.35E2,6.15E1,-1.164568E0,-1.0051106E0,2.0705764E-1,-8.8293976E-1,-1.1687706E0,5.275518E-1,3.4607926E-1,-1.1550078E0,-5.761298E-1,-2.9032168E-1,-7.140335E-1,-3.0788696E-1,-6.9573784E-1,1.6798621E-2,-2.887762E-1,7.4026906E-1,-4.2646095E-1,3.2524266E-3,1.9126959E-1,-1.8912624E-1,5.536725E-1,-1.7360536E-3,-3.2623913E-2,1.6560143E0,1.6029254E-1,2.6957223E0,-3.5917338E-2,3.1694958E-1,2.5893962E0,1.0393624E0,7.2954553E-1,1.9114363E-1,3.093458E-1,7.851937E-1,1.0463922E0,-2.746794E-1,9.0191793E-1,1.5650537E0,1.653978E0,5.27327E-1,3.5930345E0,7.5838466E0,4.5147943E0,1.6830505E0,7.7654E-1,2.6770377E0,2.1300416E0,1.2028999E0,1.465267E0,2.5812755E0,3.5177407E0,8.712587E-1,3.9760265E0,1.8826548E0,4.900269E0,3.2694867E0,-9.501435E-1,7.168127E-1,3.5542226E0,7.792312E-1,1.1368204E0,2.3628283E0,2.7716005E0,1.0450355E0],"split_indices":[0,0,39,0,16,0,6,12,16,37,19,19,6,0,1,14,11,12,22,31,12,6,12,42,27,19,12,12,46,12,11,26,31,15,30,46,12,12,16,12,7,6,37,31,0,34,41,12,16,12,38,20,1,37,6,38,37,37,12,16,27,23,19,0,0,0,0,0,0,0,0,0,0,0,0,0,0,0,0,0,0,0,0,0,0,0,0,0,0,0,0,0,0,0,0,0,0,0,0,0,0,0,0,0,0,0,0,0,0,0,0,0,0,0,0,0,0,0,0,0,0,0,0,0,0,0,0],"split_type":[0,0,0,0,0,0,0,0,0,0,0,0,0,0,0,0,0,0,0,0,0,0,0,0,0,0,0,0,0,0,0,0,0,0,0,0,0,0,0,0,0,0,0,0,0,0,0,0,0,0,0,0,0,0,0,0,0,0,0,0,0,0,0,0,0,0,0,0,0,0,0,0,0,0,0,0,0,0,0,0,0,0,0,0,0,0,0,0,0,0,0,0,0,0,0,0,0,0,0,0,0,0,0,0,0,0,0,0,0,0,0,0,0,0,0,0,0,0,0,0,0,0,0,0,0,0,0],"sum_hessian":[3.4793E4,2.6218E4,8.575E3,1.608E4,1.0138E4,5.981E3,2.594E3,6.242E3,9.838E3,6.981E3,3.157E3,2.844E3,3.137E3,2.013E3,5.81E2,6.061E3,1.81E2,8.355E3,1.483E3,6.071E3,9.1E2,2.16E3,9.97E2,1.325E3,1.519E3,2.79E2,2.858E3,1.257E3,7.56E2,2.64E2,3.17E2,1.84E3,4.221E3,7.6E1,1.05E2,2.056E3,6.299E3,5.62E2,9.21E2,4.319E3,1.752E3,7.93E2,1.17E2,2.8E1,2.132E3,4.3E1,9.54E2,1.119E3,2.06E2,9.47E2,5.72E2,4.3E1,2.36E2,1.143E3,1.715E3,9.34E2,3.23E2,3.75E2,3.81E2,2.32E2,3.2E1,1.65E2,1.52E2,1.109E3,7.31E2,2.5E1,4.196E3,6.3E1,1.3E1,9.6E1,9E0,1.527E3,5.29E2,5.928E3,3.71E2,5.16E2,4.6E1,9.02E2,1.9E1,3.778E3,5.41E2,3.79E2,1.373E3,1.21E2,6.72E2,4.4E1,7.3E1,7E0,2.1E1,1.298E3,8.34E2,2.2E1,2.1E1,6.41E2,3.13E2,7.85E2,3.34E2,1.3E1,1.93E2,6.89E2,2.58E2,4.3E1,5.29E2,3.3E1,1E1,1.7E1,2.19E2,1.091E3,5.2E1,3.44E2,1.371E3,3.56E2,5.78E2,2.94E2,2.9E1,1.77E2,1.98E2,1.72E2,2.09E2,1.3E1,2.19E2,1.3E1,1.9E1,3.8E1,1.27E2,1.5E1,1.37E2],"tree_param":{"num_deleted":"0","num_feature":"51","num_nodes":"127","size_leaf_vector":"1"}},{"base_weights":[5.055708E-2,-9.251533E0,2.6144247E1,-1.43134775E1,-2.1874068E0,1.7610613E1,4.726299E1,-1.856603E1,-1.2567948E1,-5.687384E0,3.8453135E0,5.208511E0,2.047926E1,3.663578E1,6.0262817E1,-1.9250937E1,-9.991723E0,-1.3746107E1,-1.0826524E1,-7.4090114E0,-1.8580966E0,-6.371722E0,5.614379E0,-4.3113112E0,7.2055283E0,1.9246168E1,4.3304707E1,2.8267954E1,5.3953465E1,6.758233E1,3.421568E1,-1.9959806E1,-1.4441896E1,-1.6631828E1,-5.749274E0,-4.2760205E0,-1.4172062E1,-1.2310674E1,-7.69348E0,-8.033981E0,-5.2008075E-1,-1.0636256E1,-4.51589E-1,-2.2407427E0,-1.1175071E1,3.569193E1,4.6450996E0,1.2446841E0,-6.1880794E0,4.6792603E0,1.9809017E1,1.4145056E1,2.3666927E1,8.510399E1,3.828948E1,1.9601526E1,5.2791153E1,1.2129598E2,4.907517E1,4.8739994E1,7.3602455E1,4.8050606E1,1.04719305E1,-7.4890554E-1,-1.0296593E0,-4.4210085E-1,-8.072392E-1,1.362717E-1,-9.54892E-1,1.4469204E-4,-5.869337E-1,-6.1204696E-1,2.195175E-1,-7.7676374E-1,-6.2777466E-1,-7.1492E-1,-5.228973E-1,8.545594E-2,-4.177451E-1,-4.592413E-1,-2.355136E-1,1.06165044E-1,-4.648102E-1,-7.21745E-1,-2.5831047E-1,-4.2581867E-2,1.1623162E0,-2.9998744E-2,-7.2097117E-1,-9.1657686E-1,-4.637346E-1,5.754864E-1,2.4162507E0,1.6252755E-1,6.963339E-1,-8.1670105E-1,-2.042692E-1,7.0390916E-1,-2.9291987E-2,1.5653474E0,2.9069844E-1,5.018489E-1,9.4218725E-1,1.6310338E0,1.0522718E0,6.728267E0,1.3015412E0,1.3618413E0,2.533304E0,7.114544E-1,1.4271344E0,2.8869302E0,2.58146E-1,7.18419E0,2.530268E0,2.13306E-2,2.5759108E0,3.351242E0,1.4678568E0,3.7874947E0,1.4179089E0,1.1925601E0,3.408769E0,1.2973197E0,1.745482E-1],"categories":[],"categories_nodes":[],"categories_segments":[],"categories_sizes":[],"default_left":[0,0,0,0,0,0,0,0,0,0,0,0,0,0,0,0,0,0,0,0,0,0,0,0,0,0,0,0,0,0,0,0,0,0,0,0,0,0,0,0,0,0,0,0,0,0,0,0,0,0,0,0,0,0,0,0,0,0,0,0,0,0,0,0,0,0,0,0,0,0,0,0,0,0,0,0,0,0,0,0,0,0,0,0,0,0,0,0,0,0,0,0,0,0,0,0,0,0,0,0,0,0,0,0,0,0,0,0,0,0,0,0,0,0,0,0,0,0,0,0,0,0,0,0,0],"id":11,"left_children":[1,3,5,7,9,11,13,15,17,19,21,23,25,27,29,31,33,35,37,39,41,43,45,47,49,51,53,55,57,59,61,63,65,67,69,71,73,75,77,79,81,83,85,87,89,91,93,-1,95,97,99,101,103,105,107,109,111,113,115,117,119,121,123,-1,-1,-1,-1,-1,-1,-1,-1,-1,-1,-1,-1,-1,-1,-1,-1,-1,-1,-1,-1,-1,-1,-1,-1,-1,-1,-1,-1,-1,-1,-1,-1,-1,-1,-1,-1,-1,-1,-1,-1,-1,-1,-1,-1,-1,-1,-1,-1,-1,-1,-1,-1,-1,-1,-1,-1,-1,-1,-1,-1,-1,-1],"loss_changes":[8.403896E6,9.126615E5,1.638986E6,1.101385E5,2.2501675E5,2.3050488E5,3.594735E5,2.5206625E4,2.1486125E4,4.4446766E4,7.07617E4,2.3205785E4,1.4732625E5,2.0758212E5,2.21895E5,1.336125E4,8.975221E3,2.5296125E4,1.9713906E4,2.0024406E4,2.5836525E4,1.1443945E4,9.709042E4,1.1773975E4,3.2001809E4,1.12329E5,5.3132656E4,2.0618044E5,1.4812162E5,1.0043075E5,8.4905E4,1.0694125E4,4.796875E3,6.018949E3,6.8215366E3,1.8829068E4,1.3060375E4,1.0489781E4,8.546875E3,1.6270656E4,9.020811E3,5.93049E3,1.713176E4,6.2258535E3,3.4611797E3,3.121536E4,4.180142E4,0E0,4.200033E3,4.1626195E4,2.6851555E4,4.46315E4,6.21015E4,7.830866E4,3.1724188E4,3.427575E4,5.9554062E4,4.1789688E4,5.21535E4,7.777519E4,6.51835E4,7.824319E4,1.0388015E4,0E0,0E0,0E0,0E0,0E0,0E0,0E0,0E0,0E0,0E0,0E0,0E0,0E0,0E0,0E0,0E0,0E0,0E0,0E0,0E0,0E0,0E0,0E0,0E0,0E0,0E0,0E0,0E0,0E0,0E0,0E0,0E0,0E0,0E0,0E0,0E0,0E0,0E0,0E0,0E0,0E0,0E0,0E0,0E0,0E0,0E0,0E0,0E0,0E0,0E0,0E0,0E0,0E0,0E0,0E0,0E0,0E0,0E0,0E0,0E0,0E0,0E0],"parents":[2147483647,0,0,1,1,2,2,3,3,4,4,5,5,6,6,7,7,8,8,9,9,10,10,11,11,12,12,13,13,14,14,15,15,16,16,17,17,18,18,19,19,20,20,21,21,22,22,23,23,24,24,25,25,26,26,27,27,28,28,29,29,30,30,31,31,32,32,33,33,34,34,35,35,36,36,37,37,38,38,39,39,40,40,41,41,42,42,43,43,44,44,45,45,46,46,48,48,49,49,50,50,51,51,52,52,53,53,54,54,55,55,56,56,57,57,58,58,59,59,60,60,61,61,62,62],"right_children":[2,4,6,8,10,12,14,16,18,20,22,24,26,28,30,32,34,36,38,40,42,44,46,48,50,52,54,56,58,60,62,64,66,68,70,72,74,76,78,80,82,84,86,88,90,92,94,-1,96,98,100,102,104,106,108,110,112,114,116,118,120,122,124,-1,-1,-1,-1,-1,-1,-1,-1,-1,-1,-1,-1,-1,-1,-1,-1,-1,-1,-1,-1,-1,-1,-1,-1,-1,-1,-1,-1,-1,-1,-1,-1,-1,-1,-1,-1,-1,-1,-1,-1,-1,-1,-1,-1,-1,-1,-1,-1,-1,-1,-1,-1,-1,-1,-1,-1,-1,-1,-1,-1,-1,-1],"split_conditions":[5.53E1,2.59E1,7.1896E3,1.1E1,6.03E1,4.54E1,1.802E2,1.1E1,2.15E1,3.96E1,2E0,2E0,1.397E2,1.192E2,2.719E2,2E0,4.031008E-1,3E0,4E2,1.2E1,3.06E2,1.05E2,1.83E1,2.37E2,1.1E1,7.45E1,1.31E1,1.1E1,1.04E1,3.32E1,6.4E1,5E0,8E0,6.8E1,1.3E1,9.18E2,2E0,2E0,2.06E1,1.3E0,5.54E1,5.82E1,2.46E2,1E0,3E0,5.7E1,5.3E0,1.2446841E0,1.9E1,4E0,4E0,9.62E1,6.2E1,3E0,9E0,5E0,1.304E2,1.1622E4,1.3E1,1.75E1,7E0,3E0,-1.72E1,-7.4890554E-1,-1.0296593E0,-4.4210085E-1,-8.072392E-1,1.362717E-1,-9.54892E-1,1.4469204E-4,-5.869337E-1,-6.1204696E-1,2.195175E-1,-7.7676374E-1,-6.2777466E-1,-7.1492E-1,-5.228973E-1,8.545594E-2,-4.177451E-1,-4.592413E-1,-2.355136E-1,1.06165044E-1,-4.648102E-1,-7.21745E-1,-2.5831047E-1,-4.2581867E-2,1.1623162E0,-2.9998744E-2,-7.2097117E-1,-9.1657686E-1,-4.637346E-1,5.754864E-1,2.4162507E0,1.6252755E-1,6.963339E-1,-8.1670105E-1,-2.042692E-1,7.0390916E-1,-2.9291987E-2,1.5653474E0,2.9069844E-1,5.018489E-1,9.4218725E-1,1.6310338E0,1.0522718E0,6.728267E0,1.3015412E0,1.3618413E0,2.533304E0,7.114544E-1,1.4271344E0,2.8869302E0,2.58146E-1,7.18419E0,2.530268E0,2.13306E-2,2.5759108E0,3.351242E0,1.4678568E0,3.7874947E0,1.4179089E0,1.1925601E0,3.408769E0,1.2973197E0,1.745482E-1],"split_indices":[14,14,39,14,37,16,37,12,16,16,46,46,16,16,37,46,40,12,2,12,2,4,6,25,12,14,6,12,6,3,28,12,12,27,37,39,46,46,6,34,37,19,4,45,12,27,34,0,4,12,46,19,4,11,12,8,19,39,3,6,8,11,34,0,0,0,0,0,0,0,0,0,0,0,0,0,0,0,0,0,0,0,0,0,0,0,0,0,0,0,0,0,0,0,0,0,0,0,0,0,0,0,0,0,0,0,0,0,0,0,0,0,0,0,0,0,0,0,0,0,0,0,0,0,0],"split_type":[0,0,0,0,0,0,0,0,0,0,0,0,0,0,0,0,0,0,0,0,0,0,0,0,0,0,0,0,0,0,0,0,0,0,0,0,0,0,0,0,0,0,0,0,0,0,0,0,0,0,0,0,0,0,0,0,0,0,0,0,0,0,0,0,0,0,0,0,0,0,0,0,0,0,0,0,0,0,0,0,0,0,0,0,0,0,0,0,0,0,0,0,0,0,0,0,0,0,0,0,0,0,0,0,0,0,0,0,0,0,0,0,0,0,0,0,0,0,0,0,0,0,0,0,0],"sum_hessian":[3.4621E4,2.5523E4,9.098E3,1.4868E4,1.0655E4,6.481E3,2.617E3,4.324E3,1.0544E4,6.743E3,3.912E3,1.218E3,5.263E3,1.442E3,1.175E3,4.003E3,3.21E2,6.285E3,4.259E3,4.651E3,2.092E3,5.77E2,3.335E3,2.11E2,1.007E3,4.995E3,2.68E2,9.74E2,4.68E2,9.16E2,2.59E2,3.486E3,5.17E2,1.24E2,1.97E2,2.71E2,6.014E3,2.888E3,1.371E3,4.264E3,3.87E2,2.88E2,1.804E3,3.11E2,2.66E2,1.03E2,3.232E3,1.2E1,1.99E2,8.4E2,1.67E2,2.321E3,2.674E3,2.7E1,2.41E2,7.21E2,2.53E2,3E1,4.38E2,2.24E2,6.92E2,1.63E2,9.6E1,3.96E2,3.09E3,1.22E2,3.95E2,1.4E1,1.1E2,1.01E2,9.6E1,1.41E2,1.3E2,3.258E3,2.756E3,1.39E3,1.498E3,9E1,1.281E3,3.166E3,1.098E3,2.98E2,8.9E1,1.69E2,1.19E2,1.775E3,2.9E1,2.75E2,3.6E1,5.4E1,2.12E2,3.6E1,6.7E1,2.811E3,4.21E2,3.3E1,1.66E2,3.01E2,5.39E2,9.1E1,7.6E1,1.24E3,1.081E3,6.03E2,2.071E3,1.4E1,1.3E1,1.29E2,1.12E2,4.52E2,2.69E2,2.29E2,2.4E1,2.2E1,8E0,2.1E1,4.17E2,1.14E2,1.1E2,6.6E2,3.2E1,7.5E1,8.8E1,2.9E1,6.7E1],"tree_param":{"num_deleted":"0","num_feature":"51","num_nodes":"125","size_leaf_vector":"1"}},{"base_weights":[4.9287844E-2,-7.8744335E0,2.8668663E1,-1.242101E1,1.3773685E0,4.4468784E1,1.8404917E1,-1.5661078E1,-9.515182E0,-1.7860376E0,7.8723564E0,3.3670387E1,5.7398758E1,1.4796422E1,2.8733738E1,-1.8736053E1,-1.4158189E1,-1.0324555E1,-3.5436811E0,-3.679548E0,4.4379134E0,6.256475E0,1.8473736E1,2.9623169E1,4.9805294E1,6.1018513E1,3.684814E1,1.14066105E1,2.1471163E1,3.7747128E1,2.3844904E1,-1.9408607E1,-1.0729457E1,-1.4530431E1,-7.317281E0,-1.0599411E1,-8.147522E-2,-5.072394E0,6.7912183E0,-8.156367E0,-2.2161021E0,2.6465645E1,3.3028789E0,1.8388505E0,1.0034806E1,3.8701492E1,1.4812372E1,3.1507156E1,-2.9468737E0,6.505391E1,3.7244987E1,4.7083374E1,6.881424E1,1.4495794E1,5.1631855E1,4.5938854E0,1.3840183E1,1.5185583E1,2.6511385E1,2.4388842E1,4.682502E1,3.556762E1,2.0813503E1,-1.0206556E0,-8.469553E-1,-2.450252E-1,-9.0274316E-1,-7.906634E-1,-6.1052084E-1,-1.3090825E-1,-6.757216E-1,-4.2628503E-1,-5.821411E-1,1.1162903E0,-5.6408186E-2,-4.7547808E-1,-1.3224743E-1,-2.9925948E-1,9.2488796E-1,-6.773871E-2,-4.5488054E-1,-1.6957246E-1,2.0091438E-1,3.2154965E0,6.428374E-1,-4.8865148E-1,2.4346177E-1,-1.612061E-1,1.6295506E-1,1.5219357E0,4.6058488E-1,8.174675E-1,2.367976E0,4.8241147E-1,1.5581602E0,1.7910179E0,9.357705E-1,-1.0106936E0,-3.8818415E-2,6.3468065E0,2.8468614E0,1.3705609E0,2.984142E0,4.388925E0,2.0634105E0,5.110084E0,3.2872262E0,2.905705E0,5.4773486E-1,3.7142563E0,9.636435E-1,6.9873214E-1,5.259759E-2,-3.8927278E-1,7.426734E-1,4.8864084E-1,1.1093956E0,1.3606331E0,5.196303E-2,2.0698717E-1,1.3925757E0,1.5085748E0,2.8375275E0,1.0646001E0,2.3704708E0,1.1287035E0,1.5912384E-1],"categories":[],"categories_nodes":[],"categories_segments":[],"categories_sizes":[],"default_left":[0,0,0,0,0,0,0,0,0,0,0,0,0,0,0,0,0,0,0,0,0,0,0,0,0,0,0,0,0,0,0,0,0,0,0,0,0,0,0,0,0,0,0,0,0,0,0,0,0,0,0,0,0,0,0,0,0,0,0,0,0,0,0,0,0,0,0,0,0,0,0,0,0,0,0,0,0,0,0,0,0,0,0,0,0,0,0,0,0,0,0,0,0,0,0,0,0,0,0,0,0,0,0,0,0,0,0,0,0,0,0,0,0,0,0,0,0,0,0,0,0,0,0,0,0,0,0],"id":12,"left_children":[1,3,5,7,9,11,13,15,17,19,21,23,25,27,29,31,33,35,37,39,41,43,45,47,49,51,53,55,57,59,61,63,65,67,69,71,73,75,77,79,81,83,85,87,89,91,93,95,97,99,101,103,105,107,109,111,113,115,117,119,121,123,125,-1,-1,-1,-1,-1,-1,-1,-1,-1,-1,-1,-1,-1,-1,-1,-1,-1,-1,-1,-1,-1,-1,-1,-1,-1,-1,-1,-1,-1,-1,-1,-1,-1,-1,-1,-1,-1,-1,-1,-1,-1,-1,-1,-1,-1,-1,-1,-1,-1,-1,-1,-1,-1,-1,-1,-1,-1,-1,-1,-1,-1,-1,-1,-1],"loss_changes":[7.9002805E6,1.1476921E6,1.224202E6,1.720905E5,1.8474572E5,4.133065E5,1.7031575E5,3.97E4,4.6589E4,7.128093E4,5.033392E4,1.04508875E5,9.83245E4,7.6616E4,5.1316875E4,1.50633125E4,1.4696375E4,2.391575E4,1.82508E4,3.036161E4,3.5190742E4,4.266107E4,2.8236547E4,7.9862875E4,5.9631875E4,1.214725E5,6.699394E4,3.7322656E4,3.58085E4,4.9183E4,2.6658156E4,6.141E3,9.390801E3,1.621175E4,8.7592E3,1.7801312E4,5.255304E3,1.0799686E4,2.2396273E4,7.298711E3,2.563081E4,3.4709492E4,2.755429E4,8.495521E3,2.286261E4,1.0643703E4,2.764832E4,6.71375E4,2.6827307E3,6.5603E4,3.808078E4,9.458675E4,6.850875E4,1.2183281E4,8.873184E4,1.9754781E4,3.6513E4,1.9151062E4,1.1279E4,1.180443E4,3.8950312E4,2.5531234E4,1.9018094E4,0E0,0E0,0E0,0E0,0E0,0E0,0E0,0E0,0E0,0E0,0E0,0E0,0E0,0E0,0E0,0E0,0E0,0E0,0E0,0E0,0E0,0E0,0E0,0E0,0E0,0E0,0E0,0E0,0E0,0E0,0E0,0E0,0E0,0E0,0E0,0E0,0E0,0E0,0E0,0E0,0E0,0E0,0E0,0E0,0E0,0E0,0E0,0E0,0E0,0E0,0E0,0E0,0E0,0E0,0E0,0E0,0E0,0E0,0E0,0E0,0E0,0E0,0E0,0E0],"parents":[2147483647,0,0,1,1,2,2,3,3,4,4,5,5,6,6,7,7,8,8,9,9,10,10,11,11,12,12,13,13,14,14,15,15,16,16,17,17,18,18,19,19,20,20,21,21,22,22,23,23,24,24,25,25,26,26,27,27,28,28,29,29,30,30,31,31,32,32,33,33,34,34,35,35,36,36,37,37,38,38,39,39,40,40,41,41,42,42,43,43,44,44,45,45,46,46,47,47,48,48,49,49,50,50,51,51,52,52,53,53,54,54,55,55,56,56,57,57,58,58,59,59,60,60,61,61,62,62],"right_children":[2,4,6,8,10,12,14,16,18,20,22,24,26,28,30,32,34,36,38,40,42,44,46,48,50,52,54,56,58,60,62,64,66,68,70,72,74,76,78,80,82,84,86,88,90,92,94,96,98,100,102,104,106,108,110,112,114,116,118,120,122,124,126,-1,-1,-1,-1,-1,-1,-1,-1,-1,-1,-1,-1,-1,-1,-1,-1,-1,-1,-1,-1,-1,-1,-1,-1,-1,-1,-1,-1,-1,-1,-1,-1,-1,-1,-1,-1,-1,-1,-1,-1,-1,-1,-1,-1,-1,-1,-1,-1,-1,-1,-1,-1,-1,-1,-1,-1,-1,-1,-1,-1,-1,-1,-1,-1],"split_conditions":[6.33E1,3.28E1,2.22E1,1.72E1,5.16E1,9.2416E3,9.85E1,8.6E0,5.8E1,7.33E1,9.55E1,1.397E2,2.719E2,1.416E2,2.53E1,1.1E1,1.1E1,1.2E1,9.27E1,3.52E2,-3.19E1,5.67E1,2E0,1E0,1E3,1.802E2,3E0,4.84E1,2.07E1,3.58E1,2E0,1E0,2.31E1,2E0,9.3E1,5E0,1.88E1,1.09E1,2.17E1,4.4E1,5.22E1,1.13E1,2E0,4E2,1.49E1,1.2E1,9E0,1.448E2,2.1E1,1.15E1,3.72E1,1.15E1,8.8E1,6E0,5.4E1,4.7E1,1.49E1,3.4E1,5.67E1,6.141471E0,3E0,1.905E2,4E0,-1.0206556E0,-8.469553E-1,-2.450252E-1,-9.0274316E-1,-7.906634E-1,-6.1052084E-1,-1.3090825E-1,-6.757216E-1,-4.2628503E-1,-5.821411E-1,1.1162903E0,-5.6408186E-2,-4.7547808E-1,-1.3224743E-1,-2.9925948E-1,9.2488796E-1,-6.773871E-2,-4.5488054E-1,-1.6957246E-1,2.0091438E-1,3.2154965E0,6.428374E-1,-4.8865148E-1,2.4346177E-1,-1.612061E-1,1.6295506E-1,1.5219357E0,4.6058488E-1,8.174675E-1,2.367976E0,4.8241147E-1,1.5581602E0,1.7910179E0,9.357705E-1,-1.0106936E0,-3.8818415E-2,6.3468065E0,2.8468614E0,1.3705609E0,2.984142E0,4.388925E0,2.0634105E0,5.110084E0,3.2872262E0,2.905705E0,5.4773486E-1,3.7142563E0,9.636435E-1,6.9873214E-1,5.259759E-2,-3.8927278E-1,7.426734E-1,4.8864084E-1,1.1093956E0,1.3606331E0,5.196303E-2,2.0698717E-1,1.3925757E0,1.5085748E0,2.8375275E0,1.0646001E0,2.3704708E0,1.1287035E0,1.5912384E-1],"split_indices":[0,0,6,0,16,39,0,0,37,37,16,16,37,18,6,12,12,12,19,2,35,1,12,42,24,37,11,16,22,3,11,46,19,46,26,12,6,30,31,7,0,31,46,2,6,10,12,19,26,6,5,6,16,27,28,7,29,6,30,36,46,18,46,0,0,0,0,0,0,0,0,0,0,0,0,0,0,0,0,0,0,0,0,0,0,0,0,0,0,0,0,0,0,0,0,0,0,0,0,0,0,0,0,0,0,0,0,0,0,0,0,0,0,0,0,0,0,0,0,0,0,0,0,0,0,0,0],"split_type":[0,0,0,0,0,0,0,0,0,0,0,0,0,0,0,0,0,0,0,0,0,0,0,0,0,0,0,0,0,0,0,0,0,0,0,0,0,0,0,0,0,0,0,0,0,0,0,0,0,0,0,0,0,0,0,0,0,0,0,0,0,0,0,0,0,0,0,0,0,0,0,0,0,0,0,0,0,0,0,0,0,0,0,0,0,0,0,0,0,0,0,0,0,0,0,0,0,0,0,0,0,0,0,0,0,0,0,0,0,0,0,0,0,0,0,0,0,0,0,0,0,0,0,0,0,0,0],"sum_hessian":[3.4836E4,2.7283E4,7.553E3,1.8293E4,8.99E3,2.973E3,4.58E3,8.647E3,9.646E3,6.046E3,2.944E3,1.622E3,1.351E3,3.396E3,1.184E3,2.835E3,5.812E3,8.494E3,1.152E3,4.636E3,1.41E3,2.556E3,3.88E2,1.299E3,3.23E2,1.147E3,2.04E2,2.254E3,1.142E3,4.14E2,7.7E2,2.614E3,2.21E2,5.511E3,3.01E2,8.272E3,2.22E2,1.004E3,1.48E2,1.141E3,3.495E3,6.8E1,1.342E3,1.179E3,1.377E3,5.8E1,3.3E2,1.228E3,7.1E1,1.44E2,1.79E2,4.14E2,7.33E2,8.2E1,1.22E2,5.94E2,1.66E3,5.1E2,6.32E2,1.69E2,2.45E2,1.56E2,6.14E2,1.853E3,7.61E2,1.24E2,9.7E1,3.545E3,1.966E3,1.72E2,1.29E2,2.772E3,5.5E3,9E0,2.13E2,3.54E2,6.5E2,7.1E1,7.7E1,1.39E2,1.002E3,2.941E3,5.54E2,1.7E1,5.1E1,1.43E2,1.199E3,2.58E2,9.21E2,5.2E1,1.325E3,1.7E1,4.1E1,2.52E2,7.8E1,9.17E2,3.11E2,7E0,6.4E1,1.5E1,1.29E2,1.26E2,5.3E1,5E1,3.64E2,5.9E1,6.74E2,5E0,7.7E1,7.1E1,5.1E1,1.62E2,4.32E2,7.4E1,1.586E3,2.89E2,2.21E2,6.15E2,1.7E1,2.5E1,1.44E2,9.3E1,1.52E2,7.2E1,8.4E1,5.58E2,5.6E1],"tree_param":{"num_deleted":"0","num_feature":"51","num_nodes":"127","size_leaf_vector":"1"}},{"base_weights":[3.2128315E-2,-8.256424E0,2.3345387E1,-1.2254888E1,-1.1220618E0,1.4365894E1,4.1858677E1,-1.5862753E1,-1.0226443E1,-3.6673088E0,7.675191E0,5.5770016E0,1.7205755E1,3.5428505E1,6.3553295E1,-1.8082281E1,-1.4027458E1,-1.0645152E1,-3.3365493E0,-5.873766E0,1.0929953E0,6.632516E0,3.6835415E1,-5.9436135E0,7.21479E0,1.925111E1,8.550668E0,5.1639175E1,2.7645027E1,6.001662E1,1.23201706E2,-1.8673393E1,-9.17834E0,1.7231851E0,-1.4255266E1,-1.2285953E1,-8.873622E0,-3.8186796E0,1.9129469E0,-5.9873486E0,4.0626213E1,-4.4116563E-1,1.0739837E1,-3.511786E0,8.758303E0,1.7945711E1,6.2053154E1,1.998483E1,-8.157389E0,3.1969463E1,6.208686E0,1.2307932E1,2.2100658E1,1.0724157E1,-8.661938E0,6.0429886E1,2.4989422E1,2.0087408E1,4.413122E1,6.999279E1,2.1674196E1,1.5244192E0,1.4381853E2,-5.2919704E-1,-9.655754E-1,1.558196E-1,-8.199499E-1,7.897322E-1,-6.210037E-1,-7.277712E-1,-1.354196E-1,-5.1361144E-1,-7.26121E-1,3.0714497E-2,-4.7625813E-1,2.6308298E-1,-2.4121295E-1,-3.416546E-1,-1.1157828E-2,3.2305508E0,2.9364532E-1,-2.23114E-1,7.5426154E-2,3.0474404E-1,9.3918717E-1,-4.8691217E-2,-3.9403018E-1,1.0031904E0,2.858236E-1,-4.3781918E-2,1.2326251E0,3.7435806E0,-8.496444E-2,1.3026084E0,3.2708985E-1,-4.6534505E-1,8.357336E-1,1.15666E0,3.8286362E0,1.9922225E-1,8.059339E-1,5.6400466E-1,2.3001285E0,9.8861486E-1,1.5346875E0,4.5941648E-1,1.4438787E0,-5.756938E-1,6.605879E-1,3.9373143E0,2.2814786E0,2.077265E0,3.6246356E-1,9.2535084E-1,2.1876159E0,1.7181635E0,3.0990493E0,2.847142E0,4.5985994E0,2.9865472E0,6.1987966E-1,8.272728E0,3.7475324E0],"categories":[],"categories_nodes":[],"categories_segments":[],"categories_sizes":[],"default_left":[0,0,0,0,0,0,0,0,0,0,0,0,0,0,0,0,0,0,0,0,0,0,0,0,0,0,0,0,0,0,0,0,0,0,0,0,0,0,0,0,0,0,0,0,0,0,0,0,0,0,0,0,0,0,0,0,0,0,0,0,0,0,0,0,0,0,0,0,0,0,0,0,0,0,0,0,0,0,0,0,0,0,0,0,0,0,0,0,0,0,0,0,0,0,0,0,0,0,0,0,0,0,0,0,0,0,0,0,0,0,0,0,0,0,0,0,0,0,0,0,0,0,0],"id":13,"left_children":[1,3,5,7,9,11,13,15,17,19,21,23,25,27,29,31,33,35,37,39,41,43,45,47,49,51,53,55,57,59,61,63,65,67,69,71,73,75,-1,77,79,81,83,85,87,89,91,93,95,97,99,101,103,105,107,109,111,113,115,117,119,-1,121,-1,-1,-1,-1,-1,-1,-1,-1,-1,-1,-1,-1,-1,-1,-1,-1,-1,-1,-1,-1,-1,-1,-1,-1,-1,-1,-1,-1,-1,-1,-1,-1,-1,-1,-1,-1,-1,-1,-1,-1,-1,-1,-1,-1,-1,-1,-1,-1,-1,-1,-1,-1,-1,-1,-1,-1,-1,-1,-1,-1],"loss_changes":[6.702871E6,7.2997925E5,1.51185E6,1.198515E5,2.0584788E5,1.5285425E5,4.12203E5,2.3779875E4,3.0255375E4,7.48957E4,6.248046E4,2.8307637E4,8.181675E4,2.8801875E5,1.35635E5,1.3865625E4,1.1628625E4,2.866175E4,1.2238934E4,2.5975203E4,3.3437504E4,4.3009047E4,3.2707664E4,1.0896776E4,3.2477883E4,7.38225E4,3.327683E4,1.7255275E5,1.9248725E5,2.440545E5,6.6339E4,1.27006875E4,1.4965482E4,9.549936E3,1.100975E4,2.29815E4,2.9449562E4,5.476591E3,0E0,2.3695969E4,9.623158E3,1.5294578E4,1.1468227E4,3.8287354E3,5.655908E4,5.323283E3,2.464346E4,1.0530234E3,5.1017617E3,1.8329066E4,2.7753043E4,3.729992E4,5.249375E4,2.17045E4,6.3903594E3,1.4767425E5,5.4327727E4,3.905847E4,8.278131E4,1.40758E5,4.656649E4,0E0,3.2299812E4,0E0,0E0,0E0,0E0,0E0,0E0,0E0,0E0,0E0,0E0,0E0,0E0,0E0,0E0,0E0,0E0,0E0,0E0,0E0,0E0,0E0,0E0,0E0,0E0,0E0,0E0,0E0,0E0,0E0,0E0,0E0,0E0,0E0,0E0,0E0,0E0,0E0,0E0,0E0,0E0,0E0,0E0,0E0,0E0,0E0,0E0,0E0,0E0,0E0,0E0,0E0,0E0,0E0,0E0,0E0,0E0,0E0,0E0,0E0,0E0],"parents":[2147483647,0,0,1,1,2,2,3,3,4,4,5,5,6,6,7,7,8,8,9,9,10,10,11,11,12,12,13,13,14,14,15,15,16,16,17,17,18,18,19,19,20,20,21,21,22,22,23,23,24,24,25,25,26,26,27,27,28,28,29,29,30,30,31,31,32,32,33,33,34,34,35,35,36,36,37,37,39,39,40,40,41,41,42,42,43,43,44,44,45,45,46,46,47,47,48,48,49,49,50,50,51,51,52,52,53,53,54,54,55,55,56,56,57,57,58,58,59,59,60,60,62,62],"right_children":[2,4,6,8,10,12,14,16,18,20,22,24,26,28,30,32,34,36,38,40,42,44,46,48,50,52,54,56,58,60,62,64,66,68,70,72,74,76,-1,78,80,82,84,86,88,90,92,94,96,98,100,102,104,106,108,110,112,114,116,118,120,-1,122,-1,-1,-1,-1,-1,-1,-1,-1,-1,-1,-1,-1,-1,-1,-1,-1,-1,-1,-1,-1,-1,-1,-1,-1,-1,-1,-1,-1,-1,-1,-1,-1,-1,-1,-1,-1,-1,-1,-1,-1,-1,-1,-1,-1,-1,-1,-1,-1,-1,-1,-1,-1,-1,-1,-1,-1,-1,-1,-1,-1],"split_conditions":[5.565E1,2.9183332E1,6.606E3,1.09375E0,5.22E1,4.95E1,1.2E1,1E0,1.1E1,1.89E1,1.257E2,2E0,4E0,2E0,8.92E1,1.1E1,2E0,2E0,9.17E1,9.1E1,4.2E0,2E0,2.31E1,2.46E2,1.91E1,1.44E1,1.108E2,8.1E1,1.1E1,2.38E2,3E0,5E0,1.3E1,1.72E1,1.2E1,6E0,4E0,2.64E2,1.9129469E0,1.2E1,6.4E1,5.13E1,6.89E2,1.06E2,2.33E1,1.5708E3,5.89E1,1.15E2,7.45E1,9.37E2,1.1E1,1.397E2,1.1E1,7.1E1,3.62E1,1.143E3,8.29E1,8.95E1,5.71E1,1.201E3,7.24E1,1.5244192E0,8.4E1,-5.2919704E-1,-9.655754E-1,1.558196E-1,-8.199499E-1,7.897322E-1,-6.210037E-1,-7.277712E-1,-1.354196E-1,-5.1361144E-1,-7.26121E-1,3.0714497E-2,-4.7625813E-1,2.6308298E-1,-2.4121295E-1,-3.416546E-1,-1.1157828E-2,3.2305508E0,2.9364532E-1,-2.23114E-1,7.5426154E-2,3.0474404E-1,9.3918717E-1,-4.8691217E-2,-3.9403018E-1,1.0031904E0,2.858236E-1,-4.3781918E-2,1.2326251E0,3.7435806E0,-8.496444E-2,1.3026084E0,3.2708985E-1,-4.6534505E-1,8.357336E-1,1.15666E0,3.8286362E0,1.9922225E-1,8.059339E-1,5.6400466E-1,2.3001285E0,9.8861486E-1,1.5346875E0,4.5941648E-1,1.4438787E0,-5.756938E-1,6.605879E-1,3.9373143E0,2.2814786E0,2.077265E0,3.6246356E-1,9.2535084E-1,2.1876159E0,1.7181635E0,3.0990493E0,2.847142E0,4.5985994E0,2.9865472E0,6.1987966E-1,8.272728E0,3.7475324E0],"split_indices":[32,32,39,40,15,16,12,46,12,31,16,46,46,12,35,12,12,46,37,16,34,46,20,25,6,20,37,4,12,37,11,12,37,15,12,12,12,24,0,12,4,37,2,27,6,39,21,4,15,24,12,16,12,38,6,24,38,22,3,23,38,0,7,0,0,0,0,0,0,0,0,0,0,0,0,0,0,0,0,0,0,0,0,0,0,0,0,0,0,0,0,0,0,0,0,0,0,0,0,0,0,0,0,0,0,0,0,0,0,0,0,0,0,0,0,0,0,0,0,0,0,0,0],"split_type":[0,0,0,0,0,0,0,0,0,0,0,0,0,0,0,0,0,0,0,0,0,0,0,0,0,0,0,0,0,0,0,0,0,0,0,0,0,0,0,0,0,0,0,0,0,0,0,0,0,0,0,0,0,0,0,0,0,0,0,0,0,0,0,0,0,0,0,0,0,0,0,0,0,0,0,0,0,0,0,0,0,0,0,0,0,0,0,0,0,0,0,0,0,0,0,0,0,0,0,0,0,0,0,0,0,0,0,0,0,0,0,0,0,0,0,0,0,0,0,0,0,0,0],"sum_hessian":[3.4686E4,2.5589E4,9.097E3,1.6398E4,9.191E3,6.127E3,2.97E3,5.899E3,1.0499E4,7.129E3,2.062E3,1.497E3,4.63E3,2.293E3,6.77E2,2.666E3,3.233E3,9.897E3,6.02E2,4.871E3,2.258E3,1.992E3,7E1,1.86E2,1.311E3,3.744E3,8.86E2,7.42E2,1.551E3,6.41E2,3.6E1,2.499E3,1.67E2,4.6E1,3.187E3,5.135E3,4.762E3,5.96E2,6E0,4.86E3,1.1E1,1.949E3,3.09E2,3.45E2,1.647E3,4.1E1,2.9E1,1.4E1,1.72E2,5E1,1.261E3,1.091E3,2.653E3,7.87E2,9.9E1,5.57E2,1.85E2,1.065E3,4.86E2,5.08E2,1.33E2,7E0,2.9E1,1.84E2,2.315E3,6.2E1,1.05E2,2.3E1,2.3E1,3.106E3,8.1E1,2.705E3,2.43E3,3.06E2,4.456E3,5.9E1,5.37E2,4.238E3,6.22E2,6E0,5E0,6.36E2,1.313E3,1.97E2,1.12E2,2.19E2,1.26E2,3.48E2,1.299E3,1.1E1,3E1,2.4E1,5E0,9E0,5E0,1.65E2,7E0,4.3E1,7E0,1.031E3,2.3E2,1.06E3,3.1E1,2.09E3,5.63E2,7.27E2,6E1,8.8E1,1.1E1,2.47E2,3.1E2,9.5E1,9E1,1E3,6.5E1,3.16E2,1.7E2,3.21E2,1.87E2,2.5E1,1.08E2,2.1E1,8E0],"tree_param":{"num_deleted":"0","num_feature":"51","num_nodes":"123","size_leaf_vector":"1"}},{"base_weights":[-1.7819436E-2,-7.1659636E0,2.5926807E1,-1.1216187E1,1.0986743E0,4.233184E1,1.7707697E1,-1.391505E1,-8.36744E0,-4.7652173E0,3.7047768E0,3.1426138E1,5.3537853E1,1.4297969E1,2.8359406E1,-1.6885363E1,-1.2635506E1,-8.8047085E0,4.296239E-1,-6.473083E0,5.1150846E-1,2.2818668E1,2.828342E0,1.10562725E1,3.4801716E1,5.733499E1,3.2403107E1,1.0269319E1,1.8918755E1,3.5551594E1,2.1798162E1,-1.753443E1,-9.3509865E0,-1.2951647E1,-6.439371E0,-9.4357195E0,-5.4798555E0,-2.6159105E0,9.707161E0,-3.4490001E0,-9.089439E0,-1.2322038E0,1.0485312E1,2.7053366E1,2.9079497E0,7.897429E-2,7.216514E0,1.5176976E1,-2.3063357E0,3.662687E1,2.1325297E0,5.141961E1,7.545795E1,7.83573E0,4.4433643E1,8.568242E0,2.2443035E1,1.5319951E1,2.8276695E1,2.2368948E1,4.33921E1,1.2701304E1,2.716562E1,-9.2066556E-1,-7.5020736E-1,-1.3530721E-1,-8.0748266E-1,-7.1038765E-1,-5.4502213E-1,-6.9579296E-2,-5.3894204E-1,-3.9885172E-1,-5.285102E-1,-6.680412E-1,-2.0427811E-1,-3.1712338E-1,2.5375313E-1,1.5364399E0,-1.3370982E-1,-3.7337534E-2,-4.0305337E-1,-3.6240655E-1,-6.94158E-1,-1.0963324E0,-2.4479503E-2,9.5773834E-1,8.051326E-2,1.2211285E0,2.7975357E0,-1.753933E-1,1.8113743E0,-1.0180197E-1,1.9070542E-1,2.8635246E-1,7.525541E-1,5.8876026E-1,1.4819771E0,3.8971025E-1,-5.1472574E-1,1.6210722E0,2.4765275E0,-5.1177806E-1,1.664554E0,2.8340404E0,1.566355E0,1.8267624E0,4.2363925E0,-7.582552E-2,1.0781358E0,6.950005E-2,2.7176714E0,-4.1737852E-1,4.824972E-1,1.2799298E0,-3.4273607E-1,8.3628666E-1,3.0130467E-1,6.3972896E-1,1.62021E0,1.414221E0,4.307456E-1,1.4558741E0,2.5826933E0,1.7315205E0,5.159245E-1,2.38431E0,1.1917396E0],"categories":[],"categories_nodes":[],"categories_segments":[],"categories_sizes":[],"default_left":[0,0,0,0,0,0,0,0,0,0,0,0,0,0,0,0,0,0,0,0,0,0,0,0,0,0,0,0,0,0,0,0,0,0,0,0,0,0,0,0,0,0,0,0,0,0,0,0,0,