{"learner":{"attributes":{"scikit_learn":"{\"_estimator_type\": \"regressor\"}"},"feature_names":["pm2_5","pm10","co","no2","o3","so2","temperature","humidity","wind_speed","rainfall","hour","day_of_week","month","is_weekend","pm2_5_lag1","pm2_5_lag24","pm2_5_lag48","pm10_lag1","pm10_lag24","pm10_lag48","no2_lag1","no2_lag24","no2_lag48","co_lag1","co_lag24","co_lag48","o3_lag1","o3_lag24","o3_lag48","so2_lag1","so2_lag24","so2_lag48","pm2_5_rolling6","pm2_5_rolling24","pm2_5_change_1h","pm2_5_change_24h","pm2_5_rolling6_std","pm2_5_rolling24_max","pm2_5_rolling24_min","humidity_pm25","wind_pm25_ratio","temp_wind_interaction","is_pollution_spike","is_diwali","is_diwali_window","is_stubble_burning","city_encoded","hour_bucket_daytime","hour_bucket_evening_rush","hour_bucket_morning_rush","hour_bucket_night"],"feature_types":["float","float","float","float","float","float","float","int","float","float","int","int","int","int","float","float","float","float","float","float","float","float","float","float","float","float","float","float","float","float","float","float","float","float","float","float","float","float","float","float","float","float","int","int","int","int","int","int","int","int","int"],"gradient_booster":{"model":{"cats":{"enc":[],"feature_segments":[],"sorted_idx":[]},"gbtree_model_param":{"num_parallel_tree":"1","num_trees":"500"},"iteration_indptr":[0,1,2,3,4,5,6,7,8,9,10,11,12,13,14,15,16,17,18,19,20,21,22,23,24,25,26,27,28,29,30,31,32,33,34,35,36,37,38,39,40,41,42,43,44,45,46,47,48,49,50,51,52,53,54,55,56,57,58,59,60,61,62,63,64,65,66,67,68,69,70,71,72,73,74,75,76,77,78,79,80,81,82,83,84,85,86,87,88,89,90,91,92,93,94,95,96,97,98,99,100,101,102,103,104,105,106,107,108,109,110,111,112,113,114,115,116,117,118,119,120,121,122,123,124,125,126,127,128,129,130,131,132,133,134,135,136,137,138,139,140,141,142,143,144,145,146,147,148,149,150,151,152,153,154,155,156,157,158,159,160,161,162,163,164,165,166,167,168,169,170,171,172,173,174,175,176,177,178,179,180,181,182,183,184,185,186,187,188,189,190,191,192,193,194,195,196,197,198,199,200,201,202,203,204,205,206,207,208,209,210,211,212,213,214,215,216,217,218,219,220,221,222,223,224,225,226,227,228,229,230,231,232,233,234,235,236,237,238,239,240,241,242,243,244,245,246,247,248,249,250,251,252,253,254,255,256,257,258,259,260,261,262,263,264,265,266,267,268,269,270,271,272,273,274,275,276,277,278,279,280,281,282,283,284,285,286,287,288,289,290,291,292,293,294,295,296,297,298,299,300,301,302,303,304,305,306,307,308,309,310,311,312,313,314,315,316,317,318,319,320,321,322,323,324,325,326,327,328,329,330,331,332,333,334,335,336,337,338,339,340,341,342,343,344,345,346,347,348,349,350,351,352,353,354,355,356,357,358,359,360,361,362,363,364,365,366,367,368,369,370,371,372,373,374,375,376,377,378,379,380,381,382,383,384,385,386,387,388,389,390,391,392,393,394,395,396,397,398,399,400,401,402,403,404,405,406,407,408,409,410,411,412,413,414,415,416,417,418,419,420,421,422,423,424,425,426,427,428,429,430,431,432,433,434,435,436,437,438,439,440,441,442,443,444,445,446,447,448,449,450,451,452,453,454,455,456,457,458,459,460,461,462,463,464,465,466,467,468,469,470,471,472,473,474,475,476,477,478,479,480,481,482,483,484,485,486,487,488,489,490,491,492,493,494,495,496,497,498,499,500],"tree_info":[0,0,0,0,0,0,0,0,0,0,0,0,0,0,0,0,0,0,0,0,0,0,0,0,0,0,0,0,0,0,0,0,0,0,0,0,0,0,0,0,0,0,0,0,0,0,0,0,0,0,0,0,0,0,0,0,0,0,0,0,0,0,0,0,0,0,0,0,0,0,0,0,0,0,0,0,0,0,0,0,0,0,0,0,0,0,0,0,0,0,0,0,0,0,0,0,0,0,0,0,0,0,0,0,0,0,0,0,0,0,0,0,0,0,0,0,0,0,0,0,0,0,0,0,0,0,0,0,0,0,0,0,0,0,0,0,0,0,0,0,0,0,0,0,0,0,0,0,0,0,0,0,0,0,0,0,0,0,0,0,0,0,0,0,0,0,0,0,0,0,0,0,0,0,0,0,0,0,0,0,0,0,0,0,0,0,0,0,0,0,0,0,0,0,0,0,0,0,0,0,0,0,0,0,0,0,0,0,0,0,0,0,0,0,0,0,0,0,0,0,0,0,0,0,0,0,0,0,0,0,0,0,0,0,0,0,0,0,0,0,0,0,0,0,0,0,0,0,0,0,0,0,0,0,0,0,0,0,0,0,0,0,0,0,0,0,0,0,0,0,0,0,0,0,0,0,0,0,0,0,0,0,0,0,0,0,0,0,0,0,0,0,0,0,0,0,0,0,0,0,0,0,0,0,0,0,0,0,0,0,0,0,0,0,0,0,0,0,0,0,0,0,0,0,0,0,0,0,0,0,0,0,0,0,0,0,0,0,0,0,0,0,0,0,0,0,0,0,0,0,0,0,0,0,0,0,0,0,0,0,0,0,0,0,0,0,0,0,0,0,0,0,0,0,0,0,0,0,0,0,0,0,0,0,0,0,0,0,0,0,0,0,0,0,0,0,0,0,0,0,0,0,0,0,0,0,0,0,0,0,0,0,0,0,0,0,0,0,0,0,0,0,0,0,0,0,0,0,0,0,0,0,0,0,0,0,0,0,0,0,0,0,0,0,0,0,0,0,0,0,0,0,0,0,0,0,0,0,0,0,0,0,0,0,0,0,0,0,0,0,0,0,0,0,0,0,0,0,0,0,0,0,0,0,0,0,0,0,0,0,0,0,0,0,0,0,0,0,0,0],"trees":[{"base_weights":[8.507376E-2,-1.5862182E1,5.929404E1,-2.6317211E1,1.6943723E0,4.6108746E1,1.1194506E2,-3.3190823E1,-2.0007412E1,-5.0551596E0,1.1744828E1,3.6178246E1,6.425857E1,9.480611E1,1.323987E2,-3.7679947E1,-2.9599512E1,-2.3479235E1,-1.588338E1,-8.334843E0,-6.956884E-1,2.2162966E-1,1.466379E1,7.690478E1,3.348766E1,7.713955E1,5.2836224E1,1.0221586E2,6.980814E1,1.1828607E2,1.428633E2,-1.7536287E0,-1.5227529E0,-1.3480837E0,-1.2127969E0,-4.877307E-1,-1.0189638E0,-7.1680987E-1,-3.7975842E-1,-3.9005673E-1,1.397723E-2,-2.2167411E-1,1.4614928E-1,-6.9927685E-2,6.978287E-1,5.091727E-1,9.243139E-1,2.853021E0,5.901571E0,1.0686734E0,1.6390369E0,4.4886885E0,3.1015434E0,2.055818E0,2.5311463E0,4.4520144E0,2.6977077E0,2.2668345E0,3.618873E0,5.2126937E0,3.1970236E0,5.0693583E0,6.48737E0],"categories":[],"categories_nodes":[],"categories_segments":[],"categories_sizes":[],"default_left":[0,0,0,0,0,0,0,0,0,0,0,0,0,0,0,0,0,0,0,0,0,0,0,0,0,0,0,0,0,0,0,0,0,0,0,0,0,0,0,0,0,0,0,0,0,0,0,0,0,0,0,0,0,0,0,0,0,0,0,0,0,0,0],"id":0,"left_children":[1,3,5,7,9,11,13,15,17,19,21,23,25,27,29,31,33,35,37,39,41,43,45,47,49,51,53,55,57,59,61,-1,-1,-1,-1,-1,-1,-1,-1,-1,-1,-1,-1,-1,-1,-1,-1,-1,-1,-1,-1,-1,-1,-1,-1,-1,-1,-1,-1,-1,-1,-1,-1],"loss_changes":[3.250668E7,4.97836E6,5.071264E6,7.37264E5,6.8670275E5,1.052941E6,5.12852E5,1.31164E5,1.26898E5,8.658639E4,1.3679612E5,4.13762E5,3.03967E5,1.47435E5,9.8493E4,2.469E4,1.064E4,2.26485E4,2.5707625E4,2.4022516E4,4.816531E4,2.4651273E4,6.20505E4,1.4455712E5,1.46941E5,1.219575E5,3.306925E4,4.97025E4,4.5498625E4,4.711725E4,8.40835E4,0E0,0E0,0E0,0E0,0E0,0E0,0E0,0E0,0E0,0E0,0E0,0E0,0E0,0E0,0E0,0E0,0E0,0E0,0E0,0E0,0E0,0E0,0E0,0E0,0E0,0E0,0E0,0E0,0E0,0E0,0E0,0E0],"parents":[2147483647,0,0,1,1,2,2,3,3,4,4,5,5,6,6,7,7,8,8,9,9,10,10,11,11,12,12,13,13,14,14,15,15,16,16,17,17,18,18,19,19,20,20,21,21,22,22,23,23,24,24,25,25,26,26,27,27,28,28,29,29,30,30],"right_children":[2,4,6,8,10,12,14,16,18,20,22,24,26,28,30,32,34,36,38,40,42,44,46,48,50,52,54,56,58,60,62,-1,-1,-1,-1,-1,-1,-1,-1,-1,-1,-1,-1,-1,-1,-1,-1,-1,-1,-1,-1,-1,-1,-1,-1,-1,-1,-1,-1,-1,-1,-1,-1],"split_conditions":[6.94E1,3.38E1,1.388E2,1.81E1,5.04E1,1.008E2,1.774E2,1.09E1,2.54E1,4.21E1,1.28E1,1.42E1,2.08E1,2.26E1,3.64E1,4.0571427E-1,1.39E1,-2.61E1,7.03E1,9.38E1,1.63E1,9.29E1,1.059E2,4.37E1,7.85E1,1.14E1,1.166E2,2.719E2,1.7E1,2.15E1,1.38E1,-1.7536287E0,-1.5227529E0,-1.3480837E0,-1.2127969E0,-4.877307E-1,-1.0189638E0,-7.1680987E-1,-3.7975842E-1,-3.9005673E-1,1.397723E-2,-2.2167411E-1,1.4614928E-1,-6.9927685E-2,6.978287E-1,5.091727E-1,9.243139E-1,2.853021E0,5.901571E0,1.0686734E0,1.6390369E0,4.4886885E0,3.1015434E0,2.055818E0,2.5311463E0,4.4520144E0,2.6977077E0,2.2668345E0,3.618873E0,5.2126937E0,3.1970236E0,5.0693583E0,6.48737E0],"split_indices":[0,0,0,0,0,0,0,0,0,0,31,6,6,6,31,40,0,35,37,37,31,37,19,20,0,6,0,37,10,6,6,0,0,0,0,0,0,0,0,0,0,0,0,0,0,0,0,0,0,0,0,0,0,0,0,0,0,0,0,0,0,0,0],"split_type":[0,0,0,0,0,0,0,0,0,0,0,0,0,0,0,0,0,0,0,0,0,0,0,0,0,0,0,0,0,0,0,0,0,0,0,0,0,0,0,0,0,0,0,0,0,0,0,0,0,0,0,0,0,0,0,0,0,0,0,0,0,0,0],"sum_hessian":[3.4427E4,2.7122E4,7.305E3,1.6999E4,1.0123E4,5.842E3,1.463E3,8.136E3,8.863E3,6.056E3,4.067E3,3.776E3,2.066E3,7.96E2,6.67E2,3.616E3,4.52E3,4.812E3,4.051E3,3.456E3,2.6E3,8.22E2,3.245E3,2.34E2,3.542E3,9.71E2,1.095E3,6.14E2,1.82E2,2.84E2,3.83E2,1.343E3,2.273E3,1.696E3,2.824E3,1.51E2,4.661E3,3.585E3,4.66E2,3.163E3,2.93E2,1.243E3,1.357E3,7.37E2,8.5E1,2.332E3,9.13E2,2.01E2,3.3E1,1.301E3,2.241E3,1.34E2,8.37E2,6.35E2,4.6E2,5.83E2,3.1E1,8.6E1,9.6E1,2.61E2,2.3E1,1.05E2,2.78E2],"tree_param":{"num_deleted":"0","num_feature":"51","num_nodes":"63","size_leaf_vector":"1"}},{"base_weights":[-1.4930955E-1,-1.617516E1,5.1484528E1,-2.6456795E1,-2.019014E0,3.6699787E1,9.2787155E1,-3.2134327E1,-2.1043007E1,-7.3691435E0,7.770429E0,5.8636578E1,3.1213303E1,7.645934E1,1.1882122E2,-3.668532E1,-2.9154896E1,-2.325527E1,-1.7125248E1,-1.1052174E1,-3.1704774E0,-7.8855366E-1,1.1132575E1,8.648661E1,5.231214E1,2.123958E1,3.8815784E1,8.4315544E1,5.618176E1,1.234318E2,5.3769375E1,-1.6812115E0,-1.4735541E0,-1.3522382E0,-1.192611E0,-1.0071499E0,-5.2067715E-1,-7.969665E-1,-4.8767942E-1,-5.250556E-1,-1.0743627E-1,-2.3419788E-1,1.6004263E-1,-1.0882402E-1,6.07142E-1,3.7900355E-1,8.7117183E-1,6.0607715E0,3.3928888E0,1.1219414E0,2.47409E0,4.842989E-1,1.0622728E0,1.1382271E0,1.8417456E0,3.7917428E0,2.9039257E0,2.0334642E0,3.113414E0,4.9476433E0,6.061332E0,1.7206628E0,3.579795E0],"categories":[],"categories_nodes":[],"categories_segments":[],"categories_sizes":[],"default_left":[0,0,0,0,0,0,0,0,0,0,0,0,0,0,0,0,0,0,0,0,0,0,0,0,0,0,0,0,0,0,0,0,0,0,0,0,0,0,0,0,0,0,0,0,0,0,0,0,0,0,0,0,0,0,0,0,0,0,0,0,0,0,0],"id":1,"left_children":[1,3,5,7,9,11,13,15,17,19,21,23,25,27,29,31,33,35,37,39,41,43,45,47,49,51,53,55,57,59,61,-1,-1,-1,-1,-1,-1,-1,-1,-1,-1,-1,-1,-1,-1,-1,-1,-1,-1,-1,-1,-1,-1,-1,-1,-1,-1,-1,-1,-1,-1,-1,-1],"loss_changes":[2.8573578E7,3.835488E6,4.994492E6,4.69197E5,5.8067925E5,7.249005E5,9.16462E5,1.010275E5,6.772325E4,1.108595E5,1.1274694E5,2.12238E5,3.653225E5,2.11073E5,2.49231E5,1.722875E4,1.382275E4,1.864875E4,2.4823312E4,4.066425E4,5.3679727E4,2.9204871E4,5.8813312E4,8.6691375E4,1.4428225E5,7.515344E4,1.4379225E5,7.01215E4,5.2969E4,1.0844E5,2.227314E4,0E0,0E0,0E0,0E0,0E0,0E0,0E0,0E0,0E0,0E0,0E0,0E0,0E0,0E0,0E0,0E0,0E0,0E0,0E0,0E0,0E0,0E0,0E0,0E0,0E0,0E0,0E0,0E0,0E0,0E0,0E0,0E0],"parents":[2147483647,0,0,1,1,2,2,3,3,4,4,5,5,6,6,7,7,8,8,9,9,10,10,11,11,12,12,13,13,14,14,15,15,16,16,17,17,18,18,19,19,20,20,21,21,22,22,23,23,24,24,25,25,26,26,27,27,28,28,29,29,30,30],"right_children":[2,4,6,8,10,12,14,16,18,20,22,24,26,28,30,32,34,36,38,40,42,44,46,48,50,52,54,56,58,60,62,-1,-1,-1,-1,-1,-1,-1,-1,-1,-1,-1,-1,-1,-1,-1,-1,-1,-1,-1,-1,-1,-1,-1,-1,-1,-1,-1,-1,-1,-1,-1,-1],"split_conditions":[6.4E1,2.96E1,1.22E2,1.7E1,4.81E1,1.92E1,1E0,9.6E0,2.43E1,3.83E1,1.43E1,1.21E1,9.52E1,2.26E1,1.1868E2,4.0571427E-1,1.23E1,4.63E1,1.6E0,3.3E0,2.1E0,6.94E1,4.2E0,2.6E1,9E0,4.92E1,7.85E1,7.9E1,1.8E1,2.226E2,8.11E2,-1.6812115E0,-1.4735541E0,-1.3522382E0,-1.192611E0,-1.0071499E0,-5.2067715E-1,-7.969665E-1,-4.8767942E-1,-5.250556E-1,-1.0743627E-1,-2.3419788E-1,1.6004263E-1,-1.0882402E-1,6.07142E-1,3.7900355E-1,8.7117183E-1,6.0607715E0,3.3928888E0,1.1219414E0,2.47409E0,4.842989E-1,1.0622728E0,1.1382271E0,1.8417456E0,3.7917428E0,2.9039257E0,2.0334642E0,3.113414E0,4.9476433E0,6.061332E0,1.7206628E0,3.579795E0],"split_indices":[14,14,14,14,14,6,42,14,14,14,31,6,1,6,41,40,14,15,34,34,34,18,34,4,40,16,14,27,10,1,2,0,0,0,0,0,0,0,0,0,0,0,0,0,0,0,0,0,0,0,0,0,0,0,0,0,0,0,0,0,0,0,0],"split_type":[0,0,0,0,0,0,0,0,0,0,0,0,0,0,0,0,0,0,0,0,0,0,0,0,0,0,0,0,0,0,0,0,0,0,0,0,0,0,0,0,0,0,0,0,0,0,0,0,0,0,0,0,0,0,0,0,0,0,0,0,0,0,0],"sum_hessian":[3.4531E4,2.6352E4,8.179E3,1.5265E4,1.1087E4,6.023E3,2.156E3,7.451E3,7.814E3,7.169E3,3.918E3,1.205E3,4.818E3,1.325E3,8.31E2,2.948E3,4.503E3,4.994E3,2.82E3,3.819E3,3.35E3,1.105E3,2.813E3,2.23E2,9.82E2,2.084E3,2.734E3,9.55E2,3.7E2,7.76E2,5.5E1,1.313E3,1.635E3,1.466E3,3.037E3,4.846E3,1.48E2,2.219E3,6.01E2,3.332E3,4.87E2,2.51E3,8.4E2,9.89E2,1.16E2,2.263E3,5.5E2,2.5E1,1.98E2,1.75E2,8.07E2,5.61E2,1.523E3,7.18E2,2.016E3,7.48E2,2.07E2,2.45E2,1.25E2,5.52E2,2.24E2,3.8E1,1.7E1],"tree_param":{"num_deleted":"0","num_feature":"51","num_nodes":"63","size_leaf_vector":"1"}},{"base_weights":[-2.1053458E-2,-1.5855062E1,4.946494E1,-2.5328688E1,-2.1793778E0,3.5726017E1,9.277862E1,-3.1128054E1,-2.0257223E1,-8.002333E0,5.9597235E0,2.5671192E1,4.921508E1,7.944118E1,1.19021935E2,-3.551606E1,-2.8351917E1,-2.2855013E1,-1.7001284E1,-9.425212E0,-1.5855409E0,-9.529669E-1,9.564313E0,6.3272427E1,2.4247215E1,6.312951E1,4.108546E1,8.761722E1,5.9566994E1,1.236635E2,8.8199425E1,-1.6142073E0,-1.42644E0,-1.3046327E0,-1.158406E0,-9.8950875E-1,-6.1293423E-1,-7.571579E-1,-3.943418E-1,-5.221722E-1,-3.0039138E-1,-1.8726404E-1,1.8836349E-1,-7.9960436E-2,1.0999358E0,3.1224695E-1,6.6761523E-1,3.817805E0,1.6651113E0,7.272635E-1,1.2343193E0,3.5811758E0,2.5034525E0,1.5241538E0,2.0391545E0,3.3675613E0,4.1949797E0,1.9856306E0,2.8278985E0,4.7661486E0,5.872358E0,4.4894767E0,1.9106399E0],"categories":[],"categories_nodes":[],"categories_segments":[],"categories_sizes":[],"default_left":[0,0,0,0,0,0,0,0,0,0,0,0,0,0,0,0,0,0,0,0,0,0,0,0,0,0,0,0,0,0,0,0,0,0,0,0,0,0,0,0,0,0,0,0,0,0,0,0,0,0,0,0,0,0,0,0,0,0,0,0,0,0,0],"id":2,"left_children":[1,3,5,7,9,11,13,15,17,19,21,23,25,27,29,31,33,35,37,39,41,43,45,47,49,51,53,55,57,59,61,-1,-1,-1,-1,-1,-1,-1,-1,-1,-1,-1,-1,-1,-1,-1,-1,-1,-1,-1,-1,-1,-1,-1,-1,-1,-1,-1,-1,-1,-1,-1,-1],"loss_changes":[2.7087722E7,3.39313E6,4.986794E6,4.5505E5,5.079649E5,8.62876E5,7.0633E5,8.7925E4,6.98125E4,5.704578E4,1.1138119E5,1.9516175E5,3.073405E5,2.17408E5,9.7275E4,1.34985E4,1.1874E4,1.266525E4,2.0915625E4,3.428378E4,1.9053246E4,3.7664523E4,4.0153156E4,8.442925E4,1.18193375E5,9.329275E4,6.167225E4,8.8156E4,3.3989375E4,9.8679E4,6.56005E4,0E0,0E0,0E0,0E0,0E0,0E0,0E0,0E0,0E0,0E0,0E0,0E0,0E0,0E0,0E0,0E0,0E0,0E0,0E0,0E0,0E0,0E0,0E0,0E0,0E0,0E0,0E0,0E0,0E0,0E0,0E0,0E0],"parents":[2147483647,0,0,1,1,2,2,3,3,4,4,5,5,6,6,7,7,8,8,9,9,10,10,11,11,12,12,13,13,14,14,15,15,16,16,17,17,18,18,19,19,20,20,21,21,22,22,23,23,24,24,25,25,26,26,27,27,28,28,29,29,30,30],"right_children":[2,4,6,8,10,12,14,16,18,20,22,24,26,28,30,32,34,36,38,40,42,44,46,48,50,52,54,56,58,60,62,-1,-1,-1,-1,-1,-1,-1,-1,-1,-1,-1,-1,-1,-1,-1,-1,-1,-1,-1,-1,-1,-1,-1,-1,-1,-1,-1,-1,-1,-1,-1,-1],"split_conditions":[6.33E1,3.02E1,1.248E2,1.68E1,4.58E1,8.85E1,1.774E2,9.3E0,2.33E1,5.4E1,1.53E1,1.42E1,2.08E1,2.24E1,5.6E0,4.0571427E-1,1.23E1,4.38E1,7.03E1,3.62E1,8.52E1,7.4E1,1.02E2,2E0,6.29E1,1.21E1,1.024E2,1.49E2,2.95E1,7.87E1,9.78E1,-1.6142073E0,-1.42644E0,-1.3046327E0,-1.158406E0,-9.8950875E-1,-6.1293423E-1,-7.571579E-1,-3.943418E-1,-5.221722E-1,-3.0039138E-1,-1.8726404E-1,1.8836349E-1,-7.9960436E-2,1.0999358E0,3.1224695E-1,6.6761523E-1,3.817805E0,1.6651113E0,7.272635E-1,1.2343193E0,3.5811758E0,2.5034525E0,1.5241538E0,2.0391545E0,3.3675613E0,4.1949797E0,1.9856306E0,2.8278985E0,4.7661486E0,5.872358E0,4.4894767E0,1.9106399E0],"split_indices":[0,0,0,0,0,0,0,0,0,16,31,6,6,6,8,40,0,15,37,0,19,15,19,12,16,6,0,0,21,38,38,0,0,0,0,0,0,0,0,0,0,0,0,0,0,0,0,0,0,0,0,0,0,0,0,0,0,0,0,0,0,0,0],"split_type":[0,0,0,0,0,0,0,0,0,0,0,0,0,0,0,0,0,0,0,0,0,0,0,0,0,0,0,0,0,0,0,0,0,0,0,0,0,0,0,0,0,0,0,0,0,0,0,0,0,0,0,0,0,0,0,0,0,0,0,0,0,0,0],"sum_hessian":[3.457E4,2.619E4,8.38E3,1.5472E4,1.0718E4,6.362E3,2.018E3,7.218E3,8.254E3,6.248E3,4.47E3,3.645E3,2.717E3,1.338E3,6.8E2,2.797E3,4.421E3,4.591E3,3.663E3,5.114E3,1.134E3,1.532E3,2.938E3,1.33E2,3.512E3,1.002E3,1.715E3,9.48E2,3.9E2,5.91E2,8.9E1,1.336E3,1.461E3,1.569E3,2.852E3,4.422E3,1.69E2,3.346E3,3.17E2,2.351E3,2.763E3,7.73E2,3.61E2,1.481E3,5.1E1,2.144E3,7.94E2,6.4E1,6.9E1,1.38E3,2.132E3,1.78E2,8.24E2,9.5E2,7.65E2,5.21E2,4.27E2,1.32E2,2.58E2,3.17E2,2.74E2,6.4E1,2.5E1],"tree_param":{"num_deleted":"0","num_feature":"51","num_nodes":"63","size_leaf_vector":"1"}},{"base_weights":[8.067657E-2,-1.3828038E1,5.1487804E1,-2.2789951E1,2.225609E0,3.915261E1,9.4721504E1,-2.909741E1,-1.7260643E1,-2.672688E0,1.3287829E1,3.1955147E1,5.5107773E1,8.080058E1,1.15128975E2,-3.265634E1,-2.5737463E1,-2.050067E1,-1.3416868E1,-6.9895167E0,4.8314393E-1,1.5130543E1,-2.2871877E-1,2.8457067E1,4.7042625E1,5.2374844E1,7.640279E1,8.512762E1,5.5806366E1,1.058787E2,1.2948639E2,-1.5282478E0,-1.3145387E0,-1.1085277E0,-8.513187E-1,-9.029811E-1,-6.4808697E-1,-6.0479766E-1,-2.9201797E-1,-3.219687E-1,2.8302088E-1,-1.6368684E-1,1.8061575E-1,4.0144017E-1,7.309841E-1,1.1118042E-1,-3.5946894E-1,9.3523735E-1,1.370854E0,1.7743305E0,3.1072633E0,1.9640373E0,2.4994078E0,2.57671E0,4.0483103E0,3.1696286E0,3.9686847E0,1.1792581E0,2.5666137E0,3.731912E0,5.0039277E0,4.1420536E0,5.9185414E0],"categories":[],"categories_nodes":[],"categories_segments":[],"categories_sizes":[],"default_left":[0,0,0,0,0,0,0,0,0,0,0,0,0,0,0,0,0,0,0,0,0,0,0,0,0,0,0,0,0,0,0,0,0,0,0,0,0,0,0,0,0,0,0,0,0,0,0,0,0,0,0,0,0,0,0,0,0,0,0,0,0,0,0],"id":3,"left_children":[1,3,5,7,9,11,13,15,17,19,21,23,25,27,29,31,33,35,37,39,41,43,45,47,49,51,53,55,57,59,61,-1,-1,-1,-1,-1,-1,-1,-1,-1,-1,-1,-1,-1,-1,-1,-1,-1,-1,-1,-1,-1,-1,-1,-1,-1,-1,-1,-1,-1,-1,-1,-1],"loss_changes":[2.4655592E7,3.90467E6,3.915988E6,6.07432E5,5.2685125E5,6.56059E5,4.63061E5,9.7286E4,1.155835E5,9.180692E4,7.43235E4,2.0778075E5,1.03354E5,1.04792E5,8.7778E4,2.3132E4,5.58425E3,1.7466E4,2.0958875E4,2.1425469E4,6.29956E4,2.9971625E4,8.309214E3,7.651325E4,1.045065E5,6.1873E4,5.9719E4,7.04415E4,1.7397125E4,8.41355E4,7.69785E4,0E0,0E0,0E0,0E0,0E0,0E0,0E0,0E0,0E0,0E0,0E0,0E0,0E0,0E0,0E0,0E0,0E0,0E0,0E0,0E0,0E0,0E0,0E0,0E0,0E0,0E0,0E0,0E0,0E0,0E0,0E0,0E0],"parents":[2147483647,0,0,1,1,2,2,3,3,4,4,5,5,6,6,7,7,8,8,9,9,10,10,11,11,12,12,13,13,14,14,15,15,16,16,17,17,18,18,19,19,20,20,21,21,22,22,23,23,24,24,25,25,26,26,27,27,28,28,29,29,30,30],"right_children":[2,4,6,8,10,12,14,16,18,20,22,24,26,28,30,32,34,36,38,40,42,44,46,48,50,52,54,56,58,60,62,-1,-1,-1,-1,-1,-1,-1,-1,-1,-1,-1,-1,-1,-1,-1,-1,-1,-1,-1,-1,-1,-1,-1,-1,-1,-1,-1,-1,-1,-1,-1,-1],"split_conditions":[6.94E1,3.47E1,1.346E2,1.81E1,5.47E1,1.024E2,1.774E2,1.16E1,2.57E1,4.18E1,1E0,1.087E2,1.2E1,1.21E2,2.128E2,6.5E0,1.1E1,4.13E1,5.4E1,7.89E1,1.7E1,5.81E1,1.13E1,6.1E1,4.45E1,9.99E1,9.82E2,1.49E2,1.37E1,1.56E2,2E0,-1.5282478E0,-1.3145387E0,-1.1085277E0,-8.513187E-1,-9.029811E-1,-6.4808697E-1,-6.0479766E-1,-2.9201797E-1,-3.219687E-1,2.8302088E-1,-1.6368684E-1,1.8061575E-1,4.0144017E-1,7.309841E-1,1.1118042E-1,-3.5946894E-1,9.3523735E-1,1.370854E0,1.7743305E0,3.1072633E0,1.9640373E0,2.4994078E0,2.57671E0,4.0483103E0,3.1696286E0,3.9686847E0,1.1792581E0,2.5666137E0,3.731912E0,5.0039277E0,4.1420536E0,5.9185414E0],"split_indices":[0,0,0,0,0,0,0,0,0,0,42,16,12,41,0,0,12,16,16,16,30,0,8,16,3,16,2,0,21,15,11,0,0,0,0,0,0,0,0,0,0,0,0,0,0,0,0,0,0,0,0,0,0,0,0,0,0,0,0,0,0,0,0],"split_type":[0,0,0,0,0,0,0,0,0,0,0,0,0,0,0,0,0,0,0,0,0,0,0,0,0,0,0,0,0,0,0,0,0,0,0,0,0,0,0,0,0,0,0,0,0,0,0,0,0,0,0,0,0,0,0,0,0,0,0,0,0,0,0],"sum_hessian":[3.4483E4,2.714E4,7.343E3,1.7417E4,9.723E3,5.713E3,1.63E3,8.136E3,9.281E3,6.739E3,2.984E3,3.937E3,1.776E3,9.69E2,6.61E2,3.951E3,4.185E3,5.036E3,4.245E3,2.846E3,3.893E3,2.626E3,3.58E2,3.196E3,7.41E2,1.574E3,2.02E2,8.26E2,1.43E2,4.02E2,2.59E2,1.47E3,2.481E3,4.025E3,1.6E2,4.486E3,5.5E2,3.81E3,4.35E2,2.735E3,1.11E2,1.809E3,2.084E3,6.78E2,1.948E3,2.66E2,9.2E1,1.145E3,2.051E3,6.11E2,1.3E2,7.75E2,7.99E2,1.08E2,9.4E1,3.46E2,4.8E2,1.9E1,1.24E2,1.53E2,2.49E2,5.7E1,2.02E2],"tree_param":{"num_deleted":"0","num_feature":"51","num_nodes":"63","size_leaf_vector":"1"}},{"base_weights":[-9.7987E-2,-1.32098255E1,4.872112E1,-2.1932768E1,1.4972365E0,3.8283627E1,9.46122E1,-2.761059E1,-1.6686094E1,-3.3808048E0,1.1399032E1,3.0327288E1,5.356866E1,7.880349E1,1.0667939E2,-3.1440487E1,-2.4586716E1,-1.945034E1,-1.2825531E1,-5.7377195E0,3.9172232E0,-2.5617628E0,1.3913662E1,6.693948E1,2.8056368E1,6.0759113E1,4.155001E1,8.367622E1,5.2244E1,6.948876E1,1.1011313E2,-1.4835756E0,-1.2710822E0,-1.131307E0,-9.976516E-1,-8.821864E-1,-7.0846975E-1,-5.947652E-1,-2.7311957E-1,-3.3105925E-1,-3.532199E-2,-8.1823446E-2,3.9144766E-1,-3.0797094E-1,7.2139576E-2,5.218714E-1,1.0995439E0,2.5491729E0,5.4915137E0,7.852058E-1,1.3821764E0,2.2181575E0,2.929713E0,1.7175086E0,2.9442363E0,3.6514769E0,1.7745799E0,1.7106541E0,2.810159E0,2.0353956E0,3.5481904E0,4.87206E0,3.6011963E0],"categories":[],"categories_nodes":[],"categories_segments":[],"categories_sizes":[],"default_left":[0,0,0,0,0,0,0,0,0,0,0,0,0,0,0,0,0,0,0,0,0,0,0,0,0,0,0,0,0,0,0,0,0,0,0,0,0,0,0,0,0,0,0,0,0,0,0,0,0,0,0,0,0,0,0,0,0,0,0,0,0,0,0],"id":4,"left_children":[1,3,5,7,9,11,13,15,17,19,21,23,25,27,29,31,33,35,37,39,41,43,45,47,49,51,53,55,57,59,61,-1,-1,-1,-1,-1,-1,-1,-1,-1,-1,-1,-1,-1,-1,-1,-1,-1,-1,-1,-1,-1,-1,-1,-1,-1,-1,-1,-1,-1,-1,-1,-1],"loss_changes":[2.212534E7,3.4954875E6,3.505228E6,5.094905E5,4.899694E5,7.25053E5,2.58672E5,9.51255E4,9.4858E4,1.1689691E5,1.1753616E5,3.26001E5,1.763785E5,7.5962E4,9.8196E4,1.99845E4,1.068675E4,1.7965875E4,2.6393188E4,5.0889516E4,5.083827E4,1.0108496E4,5.673525E4,1.0206319E5,1.54174E5,8.84215E4,2.7575375E4,3.887E4,1.5042359E4,1.9315E4,7.2826E4,0E0,0E0,0E0,0E0,0E0,0E0,0E0,0E0,0E0,0E0,0E0,0E0,0E0,0E0,0E0,0E0,0E0,0E0,0E0,0E0,0E0,0E0,0E0,0E0,0E0,0E0,0E0,0E0,0E0,0E0,0E0,0E0],"parents":[2147483647,0,0,1,1,2,2,3,3,4,4,5,5,6,6,7,7,8,8,9,9,10,10,11,11,12,12,13,13,14,14,15,15,16,16,17,17,18,18,19,19,20,20,21,21,22,22,23,23,24,24,25,25,26,26,27,27,28,28,29,29,30,30],"right_children":[2,4,6,8,10,12,14,16,18,20,22,24,26,28,30,32,34,36,38,40,42,44,46,48,50,52,54,56,58,60,62,-1,-1,-1,-1,-1,-1,-1,-1,-1,-1,-1,-1,-1,-1,-1,-1,-1,-1,-1,-1,-1,-1,-1,-1,-1,-1,-1,-1,-1,-1,-1,-1],"split_conditions":[6.94E1,3.38E1,1.07522E4,1.81E1,5.32E1,1.027E2,1E0,1.09E1,2.6E1,5.4E1,2E0,1.42E1,2.38E1,2.12E1,2.32E1,3.7628865E-1,1.1275167E0,8E-1,6.43E1,1.4E0,5.11E1,5.4177217E0,7E0,4.75E1,8.61E1,3E0,1.59E1,2.719E2,1E1,1.260375E2,5.4E0,-1.4835756E0,-1.2710822E0,-1.131307E0,-9.976516E-1,-8.821864E-1,-7.0846975E-1,-5.947652E-1,-2.7311957E-1,-3.3105925E-1,-3.532199E-2,-8.1823446E-2,3.9144766E-1,-3.0797094E-1,7.2139576E-2,5.218714E-1,1.0995439E0,2.5491729E0,5.4915137E0,7.852058E-1,1.3821764E0,2.2181575E0,2.929713E0,1.7175086E0,2.9442363E0,3.6514769E0,1.7745799E0,1.7106541E0,2.810159E0,2.0353956E0,3.5481904E0,4.87206E0,3.6011963E0],"split_indices":[14,14,39,14,14,14,42,14,14,16,46,6,6,6,31,40,40,34,37,34,1,40,34,20,1,46,34,37,10,33,8,0,0,0,0,0,0,0,0,0,0,0,0,0,0,0,0,0,0,0,0,0,0,0,0,0,0,0,0,0,0,0,0],"split_type":[0,0,0,0,0,0,0,0,0,0,0,0,0,0,0,0,0,0,0,0,0,0,0,0,0,0,0,0,0,0,0,0,0,0,0,0,0,0,0,0,0,0,0,0,0,0,0,0,0,0,0,0,0,0,0,0,0,0,0,0,0,0,0],"sum_hessian":[3.4565E4,2.7247E4,7.318E3,1.7103E4,1.0144E4,5.962E3,1.356E3,8.214E3,8.889E3,6.796E3,3.348E3,3.921E3,2.041E3,5.87E2,7.69E2,3.624E3,4.59E3,5.18E3,3.709E3,5.137E3,1.659E3,5.11E2,2.837E3,2.29E2,3.692E3,1.277E3,7.64E2,4.96E2,9.1E1,6.5E1,7.04E2,1.212E3,2.412E3,1.783E3,2.807E3,3.633E3,1.547E3,3.164E3,5.45E2,3.641E3,1.496E3,7.86E2,8.73E2,2.44E2,2.67E2,2.483E3,3.54E2,2.05E2,2.4E1,1.141E3,2.551E3,6.03E2,6.74E2,7.29E2,3.5E1,4.75E2,2.1E1,4.8E1,4.3E1,2.5E1,4E1,6.09E2,9.5E1],"tree_param":{"num_deleted":"0","num_feature":"51","num_nodes":"63","size_leaf_vector":"1"}},{"base_weights":[1.2040383E-1,-1.2561893E1,4.6579884E1,-2.0966164E1,1.655256E0,3.43227E1,8.163145E1,-2.6443998E1,-1.5911834E1,-2.9335303E0,1.09765E1,4.9956944E1,2.8498014E1,6.672392E1,1.0038433E2,-3.0130733E1,-2.3553019E1,-1.9078983E1,-1.2750389E1,-5.1523085E0,4.488564E0,-2.259954E0,1.3455393E1,7.865614E1,4.6156563E1,2.3326345E1,3.9719685E1,7.353607E1,4.7552437E1,1.03330826E2,3.918674E1,-1.4017612E0,-1.2090589E0,-1.02008E0,-7.641081E-1,-8.381309E-1,-5.6942207E-1,-5.888385E-1,-1.857654E-1,-2.640086E-1,1.6226944E-1,9.697252E-2,6.237488E-1,-2.5872156E-1,5.0427157E-2,4.8193312E-1,9.63675E-1,2.9457297E0,6.9281583E0,1.1238497E0,2.1268322E0,9.0291727E-1,1.6816003E0,1.5933862E0,2.4404662E0,3.2231386E0,1.683904E0,1.7134756E0,2.7438166E0,3.1531224E0,4.543181E0,2.5744486E0,8.999201E-1],"categories":[],"categories_nodes":[],"categories_segments":[],"categories_sizes":[],"default_left":[0,0,0,0,0,0,0,0,0,0,0,0,0,0,0,0,0,0,0,0,0,0,0,0,0,0,0,0,0,0,0,0,0,0,0,0,0,0,0,0,0,0,0,0,0,0,0,0,0,0,0,0,0,0,0,0,0,0,0,0,0,0,0],"id":5,"left_children":[1,3,5,7,9,11,13,15,17,19,21,23,25,27,29,31,33,35,37,39,41,43,45,47,49,51,53,55,57,59,61,-1,-1,-1,-1,-1,-1,-1,-1,-1,-1,-1,-1,-1,-1,-1,-1,-1,-1,-1,-1,-1,-1,-1,-1,-1,-1,-1,-1,-1,-1,-1,-1],"loss_changes":[2.0330204E7,3.238635E6,3.178854E6,4.716425E5,4.307264E5,4.992125E5,5.35908E5,8.71295E4,8.871175E4,1.1112596E5,1.0900109E5,1.6228775E5,2.3178825E5,1.39475E5,1.53085E5,1.757675E4,8.87975E3,1.4089625E4,3.8857125E4,4.801264E4,3.4851984E4,6.853698E3,5.526178E4,1.404435E5,9.55075E4,9.553575E4,5.26275E4,5.2849E4,3.470825E4,7.3876E4,1.4910617E4,0E0,0E0,0E0,0E0,0E0,0E0,0E0,0E0,0E0,0E0,0E0,0E0,0E0,0E0,0E0,0E0,0E0,0E0,0E0,0E0,0E0,0E0,0E0,0E0,0E0,0E0,0E0,0E0,0E0,0E0,0E0,0E0],"parents":[2147483647,0,0,1,1,2,2,3,3,4,4,5,5,6,6,7,7,8,8,9,9,10,10,11,11,12,12,13,13,14,14,15,15,16,16,17,17,18,18,19,19,20,20,21,21,22,22,23,23,24,24,25,25,26,26,27,27,28,28,29,29,30,30],"right_children":[2,4,6,8,10,12,14,16,18,20,22,24,26,28,30,32,34,36,38,40,42,44,46,48,50,52,54,56,58,60,62,-1,-1,-1,-1,-1,-1,-1,-1,-1,-1,-1,-1,-1,-1,-1,-1,-1,-1,-1,-1,-1,-1,-1,-1,-1,-1,-1,-1,-1,-1,-1,-1],"split_conditions":[6.94E1,3.38E1,1.276E2,1.81E1,5.32E1,2.05E1,1E0,1.09E1,2.47E1,5.51E1,2E0,1.14E1,9.64E1,2.26E1,1.1868E2,4.3195266E-1,3.05E1,4.35E1,7.03E1,8.73E1,4.7E0,5.4177217E0,4.7E0,4.75E1,9.428572E0,1.087E2,1.16E1,2.719E2,1.8E1,2.44E1,7.8E1,-1.4017612E0,-1.2090589E0,-1.02008E0,-7.641081E-1,-8.381309E-1,-5.6942207E-1,-5.888385E-1,-1.857654E-1,-2.640086E-1,1.6226944E-1,9.697252E-2,6.237488E-1,-2.5872156E-1,5.0427157E-2,4.8193312E-1,9.63675E-1,2.9457297E0,6.9281583E0,1.1238497E0,2.1268322E0,9.0291727E-1,1.6816003E0,1.5933862E0,2.4404662E0,3.2231386E0,1.683904E0,1.7134756E0,2.7438166E0,3.1531224E0,4.543181E0,2.5744486E0,8.999201E-1],"split_indices":[14,14,14,14,14,6,42,14,14,16,46,6,14,6,41,40,15,16,37,37,34,40,34,3,40,16,34,37,10,31,27,0,0,0,0,0,0,0,0,0,0,0,0,0,0,0,0,0,0,0,0,0,0,0,0,0,0,0,0,0,0,0,0],"split_type":[0,0,0,0,0,0,0,0,0,0,0,0,0,0,0,0,0,0,0,0,0,0,0,0,0,0,0,0,0,0,0,0,0,0,0,0,0,0,0,0,0,0,0,0,0,0,0,0,0,0,0,0,0,0,0,0,0,0,0,0,0,0,0],"sum_hessian":[3.4504E4,2.7105E4,7.399E3,1.7035E4,1.007E4,5.482E3,1.917E3,8.175E3,8.86E3,6.748E3,3.322E3,1.488E3,3.994E3,1.068E3,8.49E2,3.593E3,4.582E3,4.426E3,4.434E3,5.195E3,1.553E3,5.24E2,2.798E3,1.74E2,1.314E3,2.734E3,1.26E3,7.88E2,2.8E2,8.1E2,3.9E1,1.439E3,2.154E3,4.32E3,2.62E2,4.036E3,3.9E2,3.944E3,4.9E2,4.658E3,5.37E2,1.274E3,2.79E2,2.49E2,2.75E2,2.261E3,5.37E2,1.56E2,1.8E1,2.05E2,1.109E3,2.408E3,3.26E2,1.108E3,1.52E2,7.45E2,4.3E1,1.94E2,8.6E1,7.7E1,7.33E2,1.8E1,2.1E1],"tree_param":{"num_deleted":"0","num_feature":"51","num_nodes":"63","size_leaf_vector":"1"}},{"base_weights":[2.216405E-1,-1.2977035E1,4.107859E1,-2.1285458E1,-1.5880932E0,3.237406E1,8.660893E1,-2.7350128E1,-1.796863E1,-6.242343E0,5.9526067E0,2.3777948E1,4.7173473E1,7.968533E1,1.1402215E2,-3.103534E1,-2.5562252E1,-2.0272396E1,-1.4578207E1,-7.2457194E0,3.731285E0,-3.380904E0,9.04295E0,5.10567E1,2.198681E1,5.557641E1,3.7593956E1,8.587736E1,6.1086E1,1.3871233E2,1.00909615E2,-1.4024836E0,-1.262212E0,-1.1074103E0,-7.82767E-1,-9.1744345E-1,-8.002967E-1,-6.5476984E-1,-2.2793685E-1,-4.288097E-1,-2.094153E-1,1.7125391E0,1.1534447E-1,-5.210721E-1,-8.558838E-2,1.310397E0,3.2438424E-1,2.7568147E0,1.074089E0,4.4660982E-1,1.0599977E0,3.4065845E0,2.2392867E0,1.7756853E0,1.3378445E0,3.1716318E0,4.059907E0,2.9691195E0,1.8294747E0,4.076562E0,6.664852E0,4.5506883E0,2.400009E0],"categories":[],"categories_nodes":[],"categories_segments":[],"categories_sizes":[],"default_left":[0,0,0,0,0,0,0,0,0,0,0,0,0,0,0,0,0,0,0,0,0,0,0,0,0,0,0,0,0,0,0,0,0,0,0,0,0,0,0,0,0,0,0,0,0,0,0,0,0,0,0,0,0,0,0,0,0,0,0,0,0,0,0],"id":6,"left_children":[1,3,5,7,9,11,13,15,17,19,21,23,25,27,29,31,33,35,37,39,41,43,45,47,49,51,53,55,57,59,61,-1,-1,-1,-1,-1,-1,-1,-1,-1,-1,-1,-1,-1,-1,-1,-1,-1,-1,-1,-1,-1,-1,-1,-1,-1,-1,-1,-1,-1,-1,-1,-1],"loss_changes":[1.849438E7,2.452846E6,3.318779E6,3.014885E5,3.8374294E5,8.943355E5,2.5508E5,3.49115E4,7.567675E4,6.765953E4,1.203652E5,2.172775E5,2.07918E5,1.23569E5,8.772675E4,4.616625E3,9.77875E3,1.072475E4,2.7526688E4,4.0240188E4,2.314314E4,1.2604302E4,9.802966E4,9.594775E4,1.3678225E5,1.03993E5,3.02105E4,8.60175E4,4.136175E4,7.07365E4,4.501975E4,0E0,0E0,0E0,0E0,0E0,0E0,0E0,0E0,0E0,0E0,0E0,0E0,0E0,0E0,0E0,0E0,0E0,0E0,0E0,0E0,0E0,0E0,0E0,0E0,0E0,0E0,0E0,0E0,0E0,0E0,0E0,0E0],"parents":[2147483647,0,0,1,1,2,2,3,3,4,4,5,5,6,6,7,7,8,8,9,9,10,10,11,11,12,12,13,13,14,14,15,15,16,16,17,17,18,18,19,19,20,20,21,21,22,22,23,23,24,24,25,25,26,26,27,27,28,28,29,29,30,30],"right_children":[2,4,6,8,10,12,14,16,18,20,22,24,26,28,30,32,34,36,38,40,42,44,46,48,50,52,54,56,58,60,62,-1,-1,-1,-1,-1,-1,-1,-1,-1,-1,-1,-1,-1,-1,-1,-1,-1,-1,-1,-1,-1,-1,-1,-1,-1,-1,-1,-1,-1,-1,-1,-1],"split_conditions":[6.33E1,2.96E1,1.439E2,1.39E1,4.67E1,9.64E1,2.133E2,7.35E0,2.23E1,9.29E1,2E0,1.5E1,2.23E1,9.216E1,3.4E1,2.8804347E-1,3.78E1,2.75E1,7.03E1,3.63E1,2.42E1,3.33E2,1.88E1,6.7E1,4.88E1,1.14E1,1.23E2,3E0,7.9E1,1.32E1,2.303E3,-1.4024836E0,-1.262212E0,-1.1074103E0,-7.82767E-1,-9.1744345E-1,-8.002967E-1,-6.5476984E-1,-2.2793685E-1,-4.288097E-1,-2.094153E-1,1.7125391E0,1.1534447E-1,-5.210721E-1,-8.558838E-2,1.310397E0,3.2438424E-1,2.7568147E0,1.074089E0,4.4660982E-1,1.0599977E0,3.4065845E0,2.2392867E0,1.7756853E0,1.3378445E0,3.1716318E0,4.059907E0,2.9691195E0,1.8294747E0,4.076562E0,6.664852E0,4.5506883E0,2.400009E0],"split_indices":[14,14,14,14,14,14,14,32,14,37,46,6,6,41,27,40,16,37,37,14,19,2,6,4,16,6,27,46,4,6,24,0,0,0,0,0,0,0,0,0,0,0,0,0,0,0,0,0,0,0,0,0,0,0,0,0,0,0,0,0,0,0,0],"split_type":[0,0,0,0,0,0,0,0,0,0,0,0,0,0,0,0,0,0,0,0,0,0,0,0,0,0,0,0,0,0,0,0,0,0,0,0,0,0,0,0,0,0,0,0,0,0,0,0,0,0,0,0,0,0,0,0,0,0,0,0,0,0,0],"sum_hessian":[3.4296E4,2.5922E4,8.374E3,1.4988E4,1.0934E4,7.03E3,1.344E3,5.299E3,9.689E3,6.761E3,4.173E3,4.447E3,2.583E3,1.073E3,2.71E2,1.731E3,3.568E3,5.769E3,3.92E3,6.143E3,6.18E2,1.038E3,3.135E3,2.74E2,4.173E3,1.376E3,1.207E3,8.05E2,2.68E2,9.4E1,1.77E2,7.73E2,9.58E2,3.39E3,1.78E2,3.206E3,2.563E3,3.622E3,2.98E2,2.797E3,3.346E3,1.7E1,6.01E2,1.4E2,8.98E2,1.96E2,2.939E3,1.8E2,9.4E1,8.26E2,3.347E3,1.57E2,1.219E3,7.36E2,4.71E2,3.57E2,4.48E2,1.83E2,8.5E1,2.7E1,6.7E1,1.57E2,2E1],"tree_param":{"num_deleted":"0","num_feature":"51","num_nodes":"63","size_leaf_vector":"1"}},{"base_weights":[-5.0010376E-2,-1.1744647E1,4.3794025E1,-1.9262123E1,1.5911287E0,3.1444422E1,7.5411156E1,-2.382465E1,-1.3767485E1,-2.8403127E0,9.978295E0,4.931181E1,2.6911217E1,6.44702E1,9.740581E1,-2.786384E1,-2.1320402E1,-1.6320637E1,-1.1354247E1,-7.0289073E0,-1.4419553E-1,-1.1304297E0,1.2029747E1,7.977166E1,4.599467E1,2.245765E1,3.698042E1,6.897994E1,3.9666424E1,1.0145987E2,6.829421E1,-1.2044758E0,-7.1991426E-1,-9.850953E-1,-8.6738557E-1,-4.6721423E-1,-7.187435E-1,-5.72255E-1,-3.995557E-1,-2.3140983E-1,-4.6113214E-1,-1.7063726E-1,1.261113E-1,-2.2608434E-1,1.1051229E-1,1.0609717E0,4.5922795E-1,4.302551E0,1.9697464E0,6.2484443E-1,2.0976117E0,8.75786E-1,1.5612297E0,1.4714497E0,2.038399E0,2.668893E0,3.298341E0,1.0721151E0,1.853237E0,4.0222063E0,5.1950884E0,3.5532532E0,7.666609E-1],"categories":[],"categories_nodes":[],"categories_segments":[],"categories_sizes":[],"default_left":[0,0,0,0,0,0,0,0,0,0,0,0,0,0,0,0,0,0,0,0,0,0,0,0,0,0,0,0,0,0,0,0,0,0,0,0,0,0,0,0,0,0,0,0,0,0,0,0,0,0,0,0,0,0,0,0,0,0,0,0,0,0,0],"id":7,"left_children":[1,3,5,7,9,11,13,15,17,19,21,23,25,27,29,31,33,35,37,39,41,43,45,47,49,51,53,55,57,59,61,-1,-1,-1,-1,-1,-1,-1,-1,-1,-1,-1,-1,-1,-1,-1,-1,-1,-1,-1,-1,-1,-1,-1,-1,-1,-1,-1,-1,-1,-1,-1,-1],"loss_changes":[1.7719784E7,2.7350582E6,2.841365E6,4.37385E5,3.655401E5,4.238525E5,4.91867E5,9.64155E4,4.8766E4,7.266978E4,7.748306E4,1.069955E5,1.871755E5,1.52683E5,8.0128E4,1.410625E4,1.034525E4,1.0673375E4,1.664475E4,1.5289672E4,4.673888E4,8.211531E3,4.6818375E4,7.350244E4,9.4116125E4,7.932275E4,3.4612375E4,6.18115E4,1.14460625E4,8.729E4,6.2422438E4,0E0,0E0,0E0,0E0,0E0,0E0,0E0,0E0,0E0,0E0,0E0,0E0,0E0,0E0,0E0,0E0,0E0,0E0,0E0,0E0,0E0,0E0,0E0,0E0,0E0,0E0,0E0,0E0,0E0,0E0,0E0,0E0],"parents":[2147483647,0,0,1,1,2,2,3,3,4,4,5,5,6,6,7,7,8,8,9,9,10,10,11,11,12,12,13,13,14,14,15,15,16,16,17,17,18,18,19,19,20,20,21,21,22,22,23,23,24,24,25,25,26,26,27,27,28,28,29,29,30,30],"right_children":[2,4,6,8,10,12,14,16,18,20,22,24,26,28,30,32,34,36,38,40,42,44,46,48,50,52,54,56,58,60,62,-1,-1,-1,-1,-1,-1,-1,-1,-1,-1,-1,-1,-1,-1,-1,-1,-1,-1,-1,-1,-1,-1,-1,-1,-1,-1,-1,-1,-1,-1,-1,-1],"split_conditions":[6.94E1,3.43E1,1.248E2,2E1,5.32E1,1.84E1,1.774E2,1.09E1,2.6E1,2E0,2E0,1.05E1,9.64E1,2.51E1,5.6E0,1.2E1,1.46E1,2.21E1,2E0,1.12E2,4.21E1,5.5E0,1.9E1,6.01E1,8.175E0,1.106E2,1.166E2,1.49E2,4.86E2,2.338E2,1.085E2,-1.2044758E0,-7.1991426E-1,-9.850953E-1,-8.6738557E-1,-4.6721423E-1,-7.187435E-1,-5.72255E-1,-3.995557E-1,-2.3140983E-1,-4.6113214E-1,-1.7063726E-1,1.261113E-1,-2.2608434E-1,1.1051229E-1,1.0609717E0,4.5922795E-1,4.302551E0,1.9697464E0,6.2484443E-1,2.0976117E0,8.75786E-1,1.5612297E0,1.4714497E0,2.038399E0,2.668893E0,3.298341E0,1.0721151E0,1.853237E0,4.0222063E0,5.1950884E0,3.5532532E0,7.666609E-1],"split_indices":[0,0,0,0,0,6,0,0,0,46,46,6,0,6,8,12,0,6,46,28,0,40,6,38,40,16,0,0,24,1,38,0,0,0,0,0,0,0,0,0,0,0,0,0,0,0,0,0,0,0,0,0,0,0,0,0,0,0,0,0,0,0,0],"split_type":[0,0,0,0,0,0,0,0,0,0,0,0,0,0,0,0,0,0,0,0,0,0,0,0,0,0,0,0,0,0,0,0,0,0,0,0,0,0,0,0,0,0,0,0,0,0,0,0,0,0,0,0,0,0,0,0,0,0,0,0,0,0,0],"sum_hessian":[3.4559E4,2.7282E4,7.277E3,1.7447E4,9.835E3,5.233E3,2.044E3,9.532E3,7.915E3,6.435E3,3.4E3,1.059E3,4.174E3,1.365E3,6.79E2,3.648E3,5.884E3,3.846E3,4.069E3,2.52E3,3.915E3,5.3E2,2.87E3,1.04E2,9.55E2,2.894E3,1.28E3,1.155E3,2.1E2,5.96E2,8.3E1,3.535E3,1.13E2,2.137E3,3.747E3,3.37E2,3.509E3,2.006E3,2.063E3,1.767E3,7.53E2,1.745E3,2.17E3,2.5E2,2.8E2,2.59E2,2.611E3,6.4E1,4E1,8.7E1,8.68E2,2.544E3,3.5E2,1.038E3,2.42E2,6.49E2,5.06E2,4.3E1,1.67E2,4.39E2,1.57E2,6.4E1,1.9E1],"tree_param":{"num_deleted":"0","num_feature":"51","num_nodes":"63","size_leaf_vector":"1"}},{"base_weights":[-3.1673502E-2,-1.1072608E1,4.0842594E1,-1.844725E1,1.3907984E0,3.28971E1,8.176721E1,-2.2528421E1,-1.31262865E1,-3.02517E0,8.9282675E0,2.6317081E1,4.7441467E1,6.782767E1,9.108629E1,-2.627967E1,-1.9927637E1,-1.5620405E1,-1.0719192E1,-7.25253E0,-1.4602669E-1,4.4471545E0,1.5194278E1,5.9273262E1,2.4536102E1,5.3716022E1,3.4078342E1,6.3906013E1,5.298544E0,7.125067E1,9.740422E1,-1.2780771E0,-1.0742131E0,-8.711965E-1,-6.258779E-1,-6.7553055E-1,1.7811024E-1,-4.970258E-1,-1.6801108E-1,-4.2033395E-1,-1.8867464E-1,-7.98955E-2,3.569766E-1,-3.941517E-2,3.3033454E-1,4.8654154E-1,9.2165416E-1,4.29951E0,2.164574E0,7.462142E-1,1.249508E0,2.0001538E0,2.7155879E0,8.6191976E-1,1.5754268E0,3.0576818E0,1.8145788E0,3.690407E0,1.9189967E0,5.256651E0,3.9556646E0],"categories":[],"categories_nodes":[],"categories_segments":[],"categories_sizes":[],"default_left":[0,0,0,0,0,0,0,0,0,0,0,0,0,0,0,0,0,0,0,0,0,0,0,0,0,0,0,0,0,0,0,0,0,0,0,0,0,0,0,0,0,0,0,0,0,0,0,0,0,0,0,0,0,0,0,0,0,0,0,0,0],"id":8,"left_children":[1,3,5,7,9,11,13,15,17,19,21,23,25,27,29,31,33,35,37,39,41,43,45,47,49,51,53,55,-1,57,59,-1,-1,-1,-1,-1,-1,-1,-1,-1,-1,-1,-1,-1,-1,-1,-1,-1,-1,-1,-1,-1,-1,-1,-1,-1,-1,-1,-1,-1,-1],"loss_changes":[1.5505425E7,2.4863438E6,2.375985E6,3.69058E5,3.3471647E5,5.855985E5,1.543195E5,9.3833E4,4.4287375E4,7.7177125E4,1.0431156E5,2.472755E5,1.5981E5,1.050755E5,8.9221E4,1.6078E4,1.4373E4,1.46456875E4,2.3526094E4,1.8876719E4,5.5379332E4,3.828378E4,3.7614688E4,7.668675E4,1.3351075E5,8.808E4,2.3905312E4,7.3524125E4,0E0,6.874131E4,6.5875E4,0E0,0E0,0E0,0E0,0E0,0E0,0E0,0E0,0E0,0E0,0E0,0E0,0E0,0E0,0E0,0E0,0E0,0E0,0E0,0E0,0E0,0E0,0E0,0E0,0E0,0E0,0E0,0E0,0E0,0E0],"parents":[2147483647,0,0,1,1,2,2,3,3,4,4,5,5,6,6,7,7,8,8,9,9,10,10,11,11,12,12,13,13,14,14,15,15,16,16,17,17,18,18,19,19,20,20,21,21,22,22,23,23,24,24,25,25,26,26,27,27,29,29,30,30],"right_children":[2,4,6,8,10,12,14,16,18,20,22,24,26,28,30,32,34,36,38,40,42,44,46,48,50,52,54,56,-1,58,60,-1,-1,-1,-1,-1,-1,-1,-1,-1,-1,-1,-1,-1,-1,-1,-1,-1,-1,-1,-1,-1,-1,-1,-1,-1,-1,-1,-1,-1,-1],"split_conditions":[6.94E1,3.38E1,1.49E2,2.02E1,5.18E1,1.062E2,1.444E2,1.16E1,2.6E1,2E0,7.61E1,1.32E1,2.39E1,2.403E2,-2.97E1,5.35E0,2.92E1,5.7675E1,3.2E0,1E-1,4E0,1.73E1,2.1E0,3.3E1,9.01E1,8E-1,4.8E2,2.12E1,5.298544E0,2.719E2,2.3E1,-1.2780771E0,-1.0742131E0,-8.711965E-1,-6.258779E-1,-6.7553055E-1,1.7811024E-1,-4.970258E-1,-1.6801108E-1,-4.2033395E-1,-1.8867464E-1,-7.98955E-2,3.569766E-1,-3.941517E-2,3.3033454E-1,4.8654154E-1,9.2165416E-1,4.29951E0,2.164574E0,7.462142E-1,1.249508E0,2.0001538E0,2.7155879E0,8.6191976E-1,1.5754268E0,3.0576818E0,1.8145788E0,3.690407E0,1.9189967E0,5.256651E0,3.9556646E0],"split_indices":[14,14,14,14,14,14,15,14,14,46,19,6,6,14,35,32,15,33,34,34,34,30,34,4,19,34,24,6,0,37,27,0,0,0,0,0,0,0,0,0,0,0,0,0,0,0,0,0,0,0,0,0,0,0,0,0,0,0,0,0,0],"split_type":[0,0,0,0,0,0,0,0,0,0,0,0,0,0,0,0,0,0,0,0,0,0,0,0,0,0,0,0,0,0,0,0,0,0,0,0,0,0,0,0,0,0,0,0,0,0,0,0,0,0,0,0,0,0,0,0,0,0,0,0,0],"sum_hessian":[3.4358E4,2.7051E4,7.307E3,1.6995E4,1.0056E4,6.119E3,1.188E3,9.618E3,7.377E3,6.341E3,3.715E3,4.213E3,1.906E3,4.76E2,7.12E2,3.938E3,5.68E3,3.623E3,3.754E3,2.569E3,3.772E3,2.166E3,1.549E3,2.16E2,3.997E3,1.297E3,6.09E2,4.45E2,3.1E1,1.72E2,5.4E2,9.2E2,3.018E3,5.205E3,4.75E2,3.586E3,3.7E1,3.304E3,4.5E2,1.341E3,1.228E3,3.136E3,6.36E2,8.23E2,1.343E3,9.72E2,5.77E2,3.7E1,1.79E2,1.605E3,2.392E3,7.66E2,5.31E2,1.03E2,5.06E2,3.27E2,1.18E2,1.09E2,6.3E1,8.4E1,4.56E2],"tree_param":{"num_deleted":"0","num_feature":"51","num_nodes":"61","size_leaf_vector":"1"}},{"base_weights":[-7.190339E-2,-1.0040418E1,4.310288E1,-1.778841E1,2.079835E0,3.471047E1,7.920605E1,-2.248735E1,-1.3427946E1,-2.558392E0,1.0972054E1,2.659419E1,4.609108E1,7.2518456E1,1.0194854E2,-2.6743923E1,-2.0696417E1,-1.560063E1,-1.0515139E1,-4.076954E0,3.0949497E0,6.950283E0,1.5433611E1,5.199306E1,2.4617716E1,5.4250576E1,3.8289803E1,7.536716E1,4.6512142E1,6.2916027E1,1.0796588E2,-1.2130747E0,-1.0716362E0,-9.461885E-1,-8.1995934E-1,-1.0881868E-1,-6.766003E-1,-4.6633622E-1,-7.5055268E-3,-2.1272856E-1,1.3073555E-1,2.9036814E-2,3.5321876E-1,7.391563E-2,4.0232965E-1,5.884432E-1,1.1946518E0,2.771504E0,1.5266778E0,9.183644E-1,1.3333399E0,2.4100013E0,1.2421902E0,1.4553702E0,1.9857328E0,3.3126767E0,1.963255E0,2.3243244E0,5.7381546E-1,3.6676085E0,1.7555594E0,2.3084323E0,4.7842693E0],"categories":[],"categories_nodes":[],"categories_segments":[],"categories_sizes":[],"default_left":[0,0,0,0,0,0,0,0,0,0,0,0,0,0,0,0,0,0,0,0,0,0,0,0,0,0,0,0,0,0,0,0,0,0,0,0,0,0,0,0,0,0,0,0,0,0,0,0,0,0,0,0,0,0,0,0,0,0,0,0,0,0,0],"id":9,"left_children":[1,3,5,7,9,11,13,15,17,19,21,23,25,27,29,31,33,35,37,39,41,43,45,47,49,51,53,55,57,59,61,-1,-1,-1,-1,-1,-1,-1,-1,-1,-1,-1,-1,-1,-1,-1,-1,-1,-1,-1,-1,-1,-1,-1,-1,-1,-1,-1,-1,-1,-1,-1,-1],"loss_changes":[1.4829031E7,2.628663E6,1.958238E6,3.498785E5,4.5022125E5,4.84376E5,1.85393E5,6.265325E4,5.6051375E4,6.1588477E4,6.714309E4,1.536595E5,1.38954E5,6.97825E4,6.50525E4,6.677125E3,1.264325E4,1.649E4,1.6001906E4,3.6591625E4,1.899759E4,2.541389E4,3.6716938E4,4.6376062E4,5.8335E4,5.9169E4,3.8531E4,5.57115E4,2.4405562E4,1.8538672E4,5.3124E4,0E0,0E0,0E0,0E0,0E0,0E0,0E0,0E0,0E0,0E0,0E0,0E0,0E0,0E0,0E0,0E0,0E0,0E0,0E0,0E0,0E0,0E0,0E0,0E0,0E0,0E0,0E0,0E0,0E0,0E0,0E0,0E0],"parents":[2147483647,0,0,1,1,2,2,3,3,4,4,5,5,6,6,7,7,8,8,9,9,10,10,11,11,12,12,13,13,14,14,15,15,16,16,17,17,18,18,19,19,20,20,21,21,22,22,23,23,24,24,25,25,26,26,27,27,28,28,29,29,30,30],"right_children":[2,4,6,8,10,12,14,16,18,20,22,24,26,28,30,32,34,36,38,40,42,44,46,48,50,52,54,56,58,60,62,-1,-1,-1,-1,-1,-1,-1,-1,-1,-1,-1,-1,-1,-1,-1,-1,-1,-1,-1,-1,-1,-1,-1,-1,-1,-1,-1,-1,-1,-1,-1,-1],"split_conditions":[7.47E1,3.38E1,1.49E2,1.81E1,5.47E1,1.024E2,2.128E2,8.6E0,2.6E1,5.67E1,7.61E1,1.42E1,2.08E1,2.37E1,1E0,6.9791665E0,1.39E1,-3.09E1,1.038E2,8.73E1,8.75E1,1.8E1,1.093E3,1.211E2,8.53E2,7.03E1,1.0734583E2,2.719E2,7.37E1,7.25E1,-5.5E1,-1.2130747E0,-1.0716362E0,-9.461885E-1,-8.1995934E-1,-1.0881868E-1,-6.766003E-1,-4.6633622E-1,-7.5055268E-3,-2.1272856E-1,1.3073555E-1,2.9036814E-2,3.5321876E-1,7.391563E-2,4.0232965E-1,5.884432E-1,1.1946518E0,2.771504E0,1.5266778E0,9.183644E-1,1.3333399E0,2.4100013E0,1.2421902E0,1.4553702E0,1.9857328E0,3.3126767E0,1.963255E0,2.3243244E0,5.7381546E-1,3.6676085E0,1.7555594E0,2.3084323E0,4.7842693E0],"split_indices":[0,0,0,0,0,0,0,0,0,16,19,6,6,6,11,33,0,35,19,37,18,30,2,37,25,20,33,37,3,5,35,0,0,0,0,0,0,0,0,0,0,0,0,0,0,0,0,0,0,0,0,0,0,0,0,0,0,0,0,0,0,0,0],"split_type":[0,0,0,0,0,0,0,0,0,0,0,0,0,0,0,0,0,0,0,0,0,0,0,0,0,0,0,0,0,0,0,0,0,0,0,0,0,0,0,0,0,0,0,0,0,0,0,0,0,0,0,0,0,0,0,0,0,0,0,0,0,0,0],"sum_hessian":[3.4455E4,2.7992E4,6.463E3,1.7076E4,1.0916E4,5.244E3,1.219E3,8.219E3,8.857E3,7.174E3,3.742E3,3.061E3,2.183E3,9.42E2,2.77E2,2.434E3,5.785E3,5.073E3,3.784E3,5.655E3,1.519E3,1.968E3,1.774E3,2.21E2,2.84E3,1.067E3,1.116E3,8.49E2,9.3E1,3.7E1,2.4E2,1.205E3,1.229E3,2.912E3,2.873E3,9.5E1,4.978E3,3.64E3,1.44E2,5.018E3,6.37E2,1.036E3,4.83E2,6.33E2,1.335E3,1.568E3,2.06E2,1.23E2,9.8E1,1.933E3,9.07E2,9.81E2,8.6E1,7.39E2,3.77E2,7.89E2,6E1,7.5E1,1.8E1,1.8E1,1.9E1,1.7E1,2.23E2],"tree_param":{"num_deleted":"0","num_feature":"51","num_nodes":"63","size_leaf_vector":"1"}},{"base_weights":[-1.6119903E-1,-9.641036E0,4.0635246E1,-1.7095173E1,2.1741052E0,3.2355366E1,7.6121376E1,-2.1664993E1,-1.3124685E1,-2.5614688E0,9.826005E0,2.515129E1,4.259952E1,6.513345E1,8.5272446E1,-2.4825275E1,-1.9553936E1,-1.5353447E1,-1.0390705E1,-3.674672E0,6.602769E0,6.8315754E0,1.661019E1,4.1975315E1,2.2827515E1,4.9465294E1,3.6273994E1,3.8661552E1,6.905513E1,7.126573E1,9.057532E1,-1.0758568E0,-5.9140646E-1,-8.780792E-1,-7.587961E-1,-6.652008E-1,-1.9015561E-1,-4.6066374E-1,-3.4090947E-2,-2.7543986E-1,-5.4547448E-2,5.005499E-1,9.409045E-2,-6.212282E-2,3.7469628E-1,6.198291E-1,1.1106166E0,2.2642183E0,1.2577732E0,7.322667E-1,1.0896518E0,1.9567388E0,2.8196507E0,1.219317E0,1.6738783E0,8.7422E-1,1.8902847E0,2.3615634E0,3.2224078E0,4.7315226E0,2.8245797E0,4.0031705E0,2.1584349E0],"categories":[],"categories_nodes":[],"categories_segments":[],"categories_sizes":[],"default_left":[0,0,0,0,0,0,0,0,0,0,0,0,0,0,0,0,0,0,0,0,0,0,0,0,0,0,0,0,0,0,0,0,0,0,0,0,0,0,0,0,0,0,0,0,0,0,0,0,0,0,0,0,0,0,0,0,0,0,0,0,0,0,0],"id":10,"left_children":[1,3,5,7,9,11,13,15,17,19,21,23,25,27,29,31,33,35,37,39,41,43,45,47,49,51,53,55,57,59,61,-1,-1,-1,-1,-1,-1,-1,-1,-1,-1,-1,-1,-1,-1,-1,-1,-1,-1,-1,-1,-1,-1,-1,-1,-1,-1,-1,-1,-1,-1,-1,-1],"loss_changes":[1.3313647E7,2.4601945E6,1.907187E6,3.107765E5,3.91568E5,3.884045E5,1.23471E5,5.31235E4,5.5844875E4,6.809595E4,8.391928E4,1.2080175E5,9.43695E4,5.792375E4,4.9758E4,1.319575E4,8.621875E3,1.2612375E4,1.5814531E4,3.9626023E4,1.6291281E4,4.6214844E4,2.4872438E4,5.19115E4,4.1561125E4,6.26935E4,2.56145E4,7.353797E3,4.292325E4,3.7117125E4,6.224025E4,0E0,0E0,0E0,0E0,0E0,0E0,0E0,0E0,0E0,0E0,0E0,0E0,0E0,0E0,0E0,0E0,0E0,0E0,0E0,0E0,0E0,0E0,0E0,0E0,0E0,0E0,0E0,0E0,0E0,0E0,0E0,0E0],"parents":[2147483647,0,0,1,1,2,2,3,3,4,4,5,5,6,6,7,7,8,8,9,9,10,10,11,11,12,12,13,13,14,14,15,15,16,16,17,17,18,18,19,19,20,20,21,21,22,22,23,23,24,24,25,25,26,26,27,27,28,28,29,29,30,30],"right_children":[2,4,6,8,10,12,14,16,18,20,22,24,26,28,30,32,34,36,38,40,42,44,46,48,50,52,54,56,58,60,62,-1,-1,-1,-1,-1,-1,-1,-1,-1,-1,-1,-1,-1,-1,-1,-1,-1,-1,-1,-1,-1,-1,-1,-1,-1,-1,-1,-1,-1,-1,-1,-1],"split_conditions":[7.47E1,3.38E1,1.49E2,1.78E1,5.32E1,1.024E2,1.774E2,1E1,2.54E1,1.001E2,1.02E2,1.68E1,2.06E1,2.8E1,3.17E1,1.2E1,2E0,5.19E1,9.71E1,4.11E1,1.12E2,2E0,5.08E1,1.211E2,5.59E2,1.2E1,4.78E1,3.55E1,1.087E2,3.17E1,8.41E1,-1.0758568E0,-5.9140646E-1,-8.780792E-1,-7.587961E-1,-6.652008E-1,-1.9015561E-1,-4.6066374E-1,-3.4090947E-2,-2.7543986E-1,-5.4547448E-2,5.005499E-1,9.409045E-2,-6.212282E-2,3.7469628E-1,6.198291E-1,1.1106166E0,2.2642183E0,1.2577732E0,7.322667E-1,1.0896518E0,1.9567388E0,2.8196507E0,1.219317E0,1.6738783E0,8.7422E-1,1.8902847E0,2.3615634E0,3.2224078E0,4.7315226E0,2.8245797E0,4.0031705E0,2.1584349E0],"split_indices":[0,0,0,0,0,0,0,0,0,19,19,6,6,28,31,12,46,15,19,0,27,46,22,37,24,12,38,31,16,5,31,0,0,0,0,0,0,0,0,0,0,0,0,0,0,0,0,0,0,0,0,0,0,0,0,0,0,0,0,0,0,0,0],"split_type":[0,0,0,0,0,0,0,0,0,0,0,0,0,0,0,0,0,0,0,0,0,0,0,0,0,0,0,0,0,0,0,0,0,0,0,0,0,0,0,0,0,0,0,0,0,0,0,0,0,0,0,0,0,0,0,0,0,0,0,0,0,0,0],"sum_hessian":[3.4425E4,2.7934E4,6.491E3,1.7128E4,1.0806E4,5.263E3,1.228E3,7.963E3,9.165E3,6.675E3,4.131E3,3.09E3,2.173E3,5.58E2,6.7E2,3.189E3,4.774E3,5.049E3,4.116E3,5.952E3,7.23E2,2.866E3,1.265E3,3.75E2,2.715E3,1.042E3,1.131E3,7.2E1,4.86E2,1.84E2,4.86E2,3.083E3,1.06E2,3.039E3,1.735E3,4.945E3,1.04E2,3.951E3,1.65E2,2.757E3,3.195E3,3.34E2,3.89E2,5.45E2,2.321E3,1.035E3,2.3E2,1.99E2,1.76E2,8.75E2,1.84E3,8.55E2,1.87E2,3.12E2,8.19E2,1.7E1,5.5E1,1.55E2,3.31E2,2.1E1,1.63E2,4.5E2,3.6E1],"tree_param":{"num_deleted":"0","num_feature":"51","num_nodes":"63","size_leaf_vector":"1"}},{"base_weights":[-1.1767753E-2,-1.1085134E1,3.170059E1,-1.7300417E1,-2.1611233E0,2.1173964E1,5.8877712E1,-2.2095024E1,-1.4603229E1,-6.131341E0,2.5854132E0,1.3236519E1,2.7309134E1,4.3183628E1,7.135334E1,-2.4825619E1,-2.0404175E1,-1.6329031E1,-1.185584E1,-8.024999E0,-2.411211E0,-4.0980415E0,5.5212054E0,3.0734904E0,1.2790536E1,2.1136868E1,3.3177605E1,7.958414E1,3.973244E1,6.0729427E1,7.945352E1,-1.1327008E0,-9.9961543E-1,-5.6562483E-1,-8.854294E-1,-7.2078615E-1,-5.430976E-1,-5.324625E-1,-1.8929741E-1,-5.1542795E-1,-2.891258E-1,-1.2273334E-1,1.0269456E0,-2.2028048E-1,1.5755181E-1,1.1648952E0,1.8711357E-1,4.4905567E-1,9.341711E-1,5.657792E-1,1.0170417E0,1.3197503E0,2.0730193E0,2.3916464E0,5.121309E0,1.4894491E0,2.4481623E0,2.837348E0,1.0968041E0,2.4345102E0,3.5911775E0],"categories":[],"categories_nodes":[],"categories_segments":[],"categories_sizes":[],"default_left":[0,0,0,0,0,0,0,0,0,0,0,0,0,0,0,0,0,0,0,0,0,0,0,0,0,0,0,0,0,0,0,0,0,0,0,0,0,0,0,0,0,0,0,0,0,0,0,0,0,0,0,0,0,0,0,0,0,0,0,0,0],"id":11,"left_children":[1,3,5,7,9,11,13,15,17,19,21,23,25,27,29,31,33,35,37,39,41,43,45,-1,47,49,51,53,55,57,59,-1,-1,-1,-1,-1,-1,-1,-1,-1,-1,-1,-1,-1,-1,-1,-1,-1,-1,-1,-1,-1,-1,-1,-1,-1,-1,-1,-1,-1,-1],"loss_changes":[1.2037851E7,1.4092605E6,2.53813E6,1.936805E5,1.9657006E5,3.114195E5,4.84975E5,2.4893E4,4.5445625E4,4.0013203E4,9.3220555E4,7.30605E4,1.306495E5,1.3780575E5,1.18751E5,4.962125E3,8.0375E3,1.17985E4,1.6942312E4,1.908225E4,2.3523566E4,1.1995539E4,8.176577E4,0E0,5.714172E4,3.7248375E4,6.4333125E4,9.037731E4,8.5456875E4,1.199915E5,8.20175E4,0E0,0E0,0E0,0E0,0E0,0E0,0E0,0E0,0E0,0E0,0E0,0E0,0E0,0E0,0E0,0E0,0E0,0E0,0E0,0E0,0E0,0E0,0E0,0E0,0E0,0E0,0E0,0E0,0E0,0E0],"parents":[2147483647,0,0,1,1,2,2,3,3,4,4,5,5,6,6,7,7,8,8,9,9,10,10,11,11,12,12,13,13,14,14,15,15,16,16,17,17,18,18,19,19,20,20,21,21,22,22,24,24,25,25,26,26,27,27,28,28,29,29,30,30],"right_children":[2,4,6,8,10,12,14,16,18,20,22,24,26,28,30,32,34,36,38,40,42,44,46,-1,48,50,52,54,56,58,60,-1,-1,-1,-1,-1,-1,-1,-1,-1,-1,-1,-1,-1,-1,-1,-1,-1,-1,-1,-1,-1,-1,-1,-1,-1,-1,-1,-1,-1,-1],"split_conditions":[6.05E1,2.93E1,8.2125E3,1.1275167E0,4.3E1,7.75E1,1.732E2,8E0,2.25E1,1E0,2E0,1.05E1,7.2E2,1.05E1,3.3164383E1,3.203125E-1,2E0,2.83E1,7.03E1,3.15E2,8.08E1,2.1E1,1.82E1,3.0734904E0,4.9E0,5.61E1,1.499E2,3.3E1,1.1E1,2.719E2,1.069E2,-1.1327008E0,-9.9961543E-1,-5.6562483E-1,-8.854294E-1,-7.2078615E-1,-5.430976E-1,-5.324625E-1,-1.8929741E-1,-5.1542795E-1,-2.891258E-1,-1.2273334E-1,1.0269456E0,-2.2028048E-1,1.5755181E-1,1.1648952E0,1.8711357E-1,4.4905567E-1,9.341711E-1,5.657792E-1,1.0170417E0,1.3197503E0,2.0730193E0,2.3916464E0,5.121309E0,1.4894491E0,2.4481623E0,2.837348E0,1.0968041E0,2.4345102E0,3.5911775E0],"split_indices":[14,14,39,40,14,14,37,14,14,34,46,6,25,6,40,40,12,15,37,2,15,35,6,0,34,16,16,29,12,37,16,0,0,0,0,0,0,0,0,0,0,0,0,0,0,0,0,0,0,0,0,0,0,0,0,0,0,0,0,0,0],"split_type":[0,0,0,0,0,0,0,0,0,0,0,0,0,0,0,0,0,0,0,0,0,0,0,0,0,0,0,0,0,0,0,0,0,0,0,0,0,0,0,0,0,0,0,0,0,0,0,0,0,0,0,0,0,0,0,0,0,0,0,0,0],"sum_hessian":[3.428E4,2.5408E4,8.872E3,1.4977E4,1.0431E4,6.395E3,2.477E3,5.392E3,9.585E3,5.68E3,4.751E3,2.788E3,3.607E3,1.097E3,1.38E3,2.062E3,3.33E3,5.887E3,3.698E3,3.764E3,1.916E3,1.45E3,3.301E3,2.1E1,2.767E3,1.758E3,1.849E3,9.5E1,1.002E3,5.97E2,7.83E2,9.32E2,1.13E3,1.5E2,3.18E3,5.101E3,7.86E2,3.414E3,2.84E2,8.89E2,2.875E3,1.883E3,3.3E1,1.276E3,1.74E2,1.64E2,3.137E3,2.214E3,5.53E2,4.47E2,1.311E3,1.612E3,2.37E2,6E1,3.5E1,7.86E2,2.16E2,5.13E2,8.4E1,1.35E2,6.48E2],"tree_param":{"num_deleted":"0","num_feature":"51","num_nodes":"61","size_leaf_vector":"1"}},{"base_weights":[2.3673698E-1,-8.626992E0,3.9036255E1,-1.5149387E1,3.0858192E0,3.0776897E1,6.892074E1,-1.9168013E1,-1.074559E1,-9.1481876E-1,1.0601626E1,4.110063E1,2.3475328E1,5.8550404E1,7.8982544E1,-2.2655607E1,-1.7145924E1,-1.2460489E1,-7.658982E0,-5.3471236E0,1.6650741E0,7.930995E0,1.5456111E1,5.806478E1,3.769019E1,1.675863E1,2.857294E1,5.499564E1,8.146274E1,8.1546135E1,4.9225807E1,-1.0816383E0,-9.2508155E-1,-7.7130306E-1,-6.5928584E-1,-5.5772674E-1,-3.099434E-1,-3.5336587E-1,-2.9430924E-2,-1.606511E-1,-3.6197767E-1,8.546496E-1,4.1687906E-2,4.0375605E-1,-2.8433314E-2,5.550952E-1,1.0682598E0,2.3273287E0,5.262159E0,1.2904432E0,2.036606E0,2.0411868E-1,7.8478813E-1,1.0940379E0,1.4777718E0,2.8962095E0,2.0830147E0,2.9167461E0,5.3734074E0,2.8284898E0,3.7881846E0,1.3519357E0,2.8507564E0],"categories":[],"categories_nodes":[],"categories_segments":[],"categories_sizes":[],"default_left":[0,0,0,0,0,0,0,0,0,0,0,0,0,0,0,0,0,0,0,0,0,0,0,0,0,0,0,0,0,0,0,0,0,0,0,0,0,0,0,0,0,0,0,0,0,0,0,0,0,0,0,0,0,0,0,0,0,0,0,0,0,0,0],"id":12,"left_children":[1,3,5,7,9,11,13,15,17,19,21,23,25,27,29,31,33,35,37,39,41,43,45,47,49,51,53,55,57,59,61,-1,-1,-1,-1,-1,-1,-1,-1,-1,-1,-1,-1,-1,-1,-1,-1,-1,-1,-1,-1,-1,-1,-1,-1,-1,-1,-1,-1,-1,-1,-1,-1],"loss_changes":[1.1879975E7,2.1482445E6,1.585609E6,3.1964575E5,3.024246E5,3.793825E5,1.451375E5,6.659975E4,4.5616188E4,7.505865E4,4.5297125E4,1.206245E5,1.00935E5,5.578625E4,5.3851E4,9.156625E3,9.380875E3,1.741425E4,1.3274047E4,1.1980414E4,5.243434E4,2.9593906E4,2.9099656E4,8.0684875E4,1.297555E5,2.4762031E4,2.9828125E4,4.72375E4,5.3666562E4,7.14785E4,1.7254516E4,0E0,0E0,0E0,0E0,0E0,0E0,0E0,0E0,0E0,0E0,0E0,0E0,0E0,0E0,0E0,0E0,0E0,0E0,0E0,0E0,0E0,0E0,0E0,0E0,0E0,0E0,0E0,0E0,0E0,0E0,0E0,0E0],"parents":[2147483647,0,0,1,1,2,2,3,3,4,4,5,5,6,6,7,7,8,8,9,9,10,10,11,11,12,12,13,13,14,14,15,15,16,16,17,17,18,18,19,19,20,20,21,21,22,22,23,23,24,24,25,25,26,26,27,27,28,28,29,29,30,30],"right_children":[2,4,6,8,10,12,14,16,18,20,22,24,26,28,30,32,34,36,38,40,42,44,46,48,50,52,54,56,58,60,62,-1,-1,-1,-1,-1,-1,-1,-1,-1,-1,-1,-1,-1,-1,-1,-1,-1,-1,-1,-1,-1,-1,-1,-1,-1,-1,-1,-1,-1,-1,-1,-1],"split_conditions":[7.57E1,3.62E1,1.439E2,2E1,5.63E1,2.21E1,1.774E2,1.06E1,2.93E1,2E0,9.71E1,1.28E1,1.099E2,1.768E3,8.6E1,3.203125E-1,2.7E1,4.69E1,8.27E1,1.12E2,1.88E1,1E0,5.08E1,5.81E1,3E0,3E0,1.12E2,2E0,1.2E1,1.38E1,5.22E1,-1.0816383E0,-9.2508155E-1,-7.7130306E-1,-6.5928584E-1,-5.5772674E-1,-3.099434E-1,-3.5336587E-1,-2.9430924E-2,-1.606511E-1,-3.6197767E-1,8.546496E-1,4.1687906E-2,4.0375605E-1,-2.8433314E-2,5.550952E-1,1.0682598E0,2.3273287E0,5.262159E0,1.2904432E0,2.036606E0,2.0411868E-1,7.8478813E-1,1.0940379E0,1.4777718E0,2.8962095E0,2.0830147E0,2.9167461E0,5.3734074E0,2.8284898E0,3.7881846E0,1.3519357E0,2.8507564E0],"split_indices":[0,0,0,0,0,6,0,0,0,46,19,6,1,24,28,40,37,16,37,27,6,42,22,3,46,46,0,12,12,6,29,0,0,0,0,0,0,0,0,0,0,0,0,0,0,0,0,0,0,0,0,0,0,0,0,0,0,0,0,0,0,0,0],"split_type":[0,0,0,0,0,0,0,0,0,0,0,0,0,0,0,0,0,0,0,0,0,0,0,0,0,0,0,0,0,0,0,0,0,0,0,0,0,0,0,0,0,0,0,0,0,0,0,0,0,0,0,0,0,0,0,0,0,0,0,0,0,0,0],"sum_hessian":[3.4544E4,2.812E4,6.424E3,1.8062E4,1.0058E4,5.033E3,1.391E3,9.444E3,8.618E3,6.564E3,3.494E3,2.085E3,2.948E3,6.85E2,7.06E2,3.466E3,5.978E3,5.54E3,3.078E3,2.415E3,4.149E3,2.254E3,1.24E3,3.49E2,1.736E3,1.272E3,1.676E3,5.93E2,9.2E1,6.5E2,5.6E1,9.31E2,2.535E3,3.877E3,2.101E3,4.963E3,5.77E2,2.827E3,2.51E2,1.604E3,8.11E2,1.5E2,3.999E3,1.914E3,3.4E2,9.87E2,2.53E2,3.31E2,1.8E1,9.95E2,7.41E2,1.52E2,1.12E3,1.127E3,5.49E2,1.93E2,4E2,7.1E1,2.1E1,2.08E2,4.42E2,2.8E1,2.8E1],"tree_param":{"num_deleted":"0","num_feature":"51","num_nodes":"63","size_leaf_vector":"1"}},{"base_weights":[1.9667637E-1,-9.901194E0,2.884648E1,-1.6065975E1,-2.172203E0,1.928259E1,5.41732E1,-2.018838E1,-1.3596359E1,-6.8102565E0,2.5523798E0,1.1380436E1,2.548086E1,4.0490112E1,6.550766E1,-2.2853683E1,-1.8608303E1,-1.5636421E1,-1.2013014E1,-7.5302525E0,6.8437375E-2,-6.1794025E-1,1.0256771E1,-6.0227423E0,1.2827963E1,2.1742794E1,3.6420517E1,3.775859E1,6.838434E1,4.7566322E1,6.9582214E1,-1.0101092E0,-8.575237E-1,-8.0358255E-1,-3.7261987E-1,-6.799372E-1,-3.643909E-1,-5.65524E-1,-3.572562E-1,-3.460381E-1,8.52016E-2,2.1802576E-1,-1.6015837E-1,9.489784E-2,-1.7028701E-1,1.2865877E0,3.8100255E-1,-3.882955E-1,7.166895E-1,4.1369498E-1,8.5888237E-1,6.208776E-1,1.0983748E0,1.0056616E0,1.7248178E0,2.750263E0,1.5180056E0,4.2924232E0,2.0266204E0,3.6171107E0,1.8286009E0,2.5424473E0,3.3753917E0],"categories":[],"categories_nodes":[],"categories_segments":[],"categories_sizes":[],"default_left":[0,0,0,0,0,0,0,0,0,0,0,0,0,0,0,0,0,0,0,0,0,0,0,0,0,0,0,0,0,0,0,0,0,0,0,0,0,0,0,0,0,0,0,0,0,0,0,0,0,0,0,0,0,0,0,0,0,0,0,0,0,0,0],"id":13,"left_children":[1,3,5,7,9,11,13,15,17,19,21,23,25,27,29,31,33,35,37,39,41,43,45,47,49,51,53,55,57,59,61,-1,-1,-1,-1,-1,-1,-1,-1,-1,-1,-1,-1,-1,-1,-1,-1,-1,-1,-1,-1,-1,-1,-1,-1,-1,-1,-1,-1,-1,-1,-1,-1],"loss_changes":[9.922191E6,1.208293E6,2.1649765E6,1.436185E5,2.4656375E5,3.177785E5,3.79967E5,2.22555E4,2.8495E4,2.8121375E4,1.361475E5,7.184666E4,1.4868525E5,8.457075E4,9.7953E4,4.397375E3,7.079875E3,7.9763125E3,2.2346938E4,2.8196938E4,1.0356465E4,3.782059E4,4.302039E4,1.5352918E4,6.0225938E4,7.7779125E4,4.7451375E4,5.927125E4,6.658328E4,4.3596312E4,1.038535E5,0E0,0E0,0E0,0E0,0E0,0E0,0E0,0E0,0E0,0E0,0E0,0E0,0E0,0E0,0E0,0E0,0E0,0E0,0E0,0E0,0E0,0E0,0E0,0E0,0E0,0E0,0E0,0E0,0E0,0E0,0E0,0E0],"parents":[2147483647,0,0,1,1,2,2,3,3,4,4,5,5,6,6,7,7,8,8,9,9,10,10,11,11,12,12,13,13,14,14,15,15,16,16,17,17,18,18,19,19,20,20,21,21,22,22,23,23,24,24,25,25,26,26,27,27,28,28,29,29,30,30],"right_children":[2,4,6,8,10,12,14,16,18,20,22,24,26,28,30,32,34,36,38,40,42,44,46,48,50,52,54,56,58,60,62,-1,-1,-1,-1,-1,-1,-1,-1,-1,-1,-1,-1,-1,-1,-1,-1,-1,-1,-1,-1,-1,-1,-1,-1,-1,-1,-1,-1,-1,-1,-1,-1],"split_conditions":[6.1133335E1,2.8166666E1,8.2125E3,1.1275167E0,4.5E0,7.31E1,1.732E2,5.4901963E-1,2.78E1,8.43E1,5.79E1,1.08E1,6.438E3,1.2E1,-4.42E1,5.4E0,1.2E1,1.1E1,1.6E0,1.91E1,2.76E1,7.5E1,1.57E1,1.159E2,2.33E1,9.428572E0,7.46E2,1.05E1,5.5E1,1.02E2,1.56E2,-1.0101092E0,-8.575237E-1,-8.0358255E-1,-3.7261987E-1,-6.799372E-1,-3.643909E-1,-5.65524E-1,-3.572562E-1,-3.460381E-1,8.52016E-2,2.1802576E-1,-1.6015837E-1,9.489784E-2,-1.7028701E-1,1.2865877E0,3.8100255E-1,-3.882955E-1,7.166895E-1,4.1369498E-1,8.5888237E-1,6.208776E-1,1.0983748E0,1.0056616E0,1.7248178E0,2.750263E0,1.5180056E0,4.2924232E0,2.0266204E0,3.6171107E0,1.8286009E0,2.5424473E0,3.3753917E0],"split_indices":[32,32,39,40,40,15,37,40,37,37,16,31,39,12,35,38,12,12,34,35,6,7,6,37,35,40,2,6,27,19,15,0,0,0,0,0,0,0,0,0,0,0,0,0,0,0,0,0,0,0,0,0,0,0,0,0,0,0,0,0,0,0,0],"split_type":[0,0,0,0,0,0,0,0,0,0,0,0,0,0,0,0,0,0,0,0,0,0,0,0,0,0,0,0,0,0,0,0,0,0,0,0,0,0,0,0,0,0,0,0,0,0,0,0,0,0,0,0,0,0,0,0,0,0,0,0,0,0,0],"sum_hessian":[3.4297E4,2.5359E4,8.938E3,1.4107E4,1.1252E4,6.488E3,2.45E3,5.285E3,8.822E3,5.678E3,5.574E3,2.852E3,3.636E3,1.11E3,1.34E3,1.967E3,3.318E3,3.855E3,4.967E3,5.14E3,5.38E2,3.949E3,1.625E3,2.19E2,2.633E3,2.71E3,9.26E2,1.011E3,9.9E1,2.48E2,1.092E3,1.522E3,4.45E2,3.247E3,7.1E1,3.703E3,1.52E2,3.71E3,1.257E3,4.847E3,2.93E2,2.32E2,3.06E2,2.143E3,1.806E3,1.02E2,1.523E3,1.93E2,2.6E1,1.841E3,7.92E2,9.66E2,1.744E3,2.19E2,7.07E2,7.7E1,9.34E2,3.9E1,6E1,2.8E1,2.2E2,5.31E2,5.61E2],"tree_param":{"num_deleted":"0","num_feature":"51","num_nodes":"63","size_leaf_vector":"1"}},{"base_weights":[7.5365254E-3,-9.467077E0,2.9411358E1,-1.5191857E1,-1.5433569E0,2.0018438E1,5.4439987E1,-1.8790878E1,-1.2354014E1,-5.0373554E0,3.53596E0,1.3415004E1,2.6142141E1,4.4667526E1,7.253663E1,-2.1635912E1,-1.734712E1,-1.3982756E1,-1.0569414E1,-6.8514366E0,-2.6761966E0,-2.5926716E0,5.6729174E0,5.8496944E1,1.2808087E1,3.7383526E1,2.299199E1,5.0791565E1,3.4234318E1,6.558744E1,8.50305E1,-9.3592757E-1,-4.5915562E-1,-4.6795067E-1,-7.5155383E-1,-6.157389E-1,-4.239067E-1,-4.7335818E-1,-1.4218444E-1,-3.630142E-1,-2.2841303E-1,-1.2684551E-1,7.168861E-1,-3.4436536E-1,-5.2316863E-2,8.101607E-1,1.976341E-1,1.2522483E0,3.5641227E0,4.865152E-2,6.121088E-1,1.3872021E0,2.738509E0,8.94631E-1,1.3125516E0,3.835226E0,2.1016092E0,1.0765471E0,1.8298367E0,1.6576132E0,3.0094087E0,1.8363574E0,3.9035227E0],"categories":[],"categories_nodes":[],"categories_segments":[],"categories_sizes":[],"default_left":[0,0,0,0,0,0,0,0,0,0,0,0,0,0,0,0,0,0,0,0,0,0,0,0,0,0,0,0,0,0,0,0,0,0,0,0,0,0,0,0,0,0,0,0,0,0,0,0,0,0,0,0,0,0,0,0,0,0,0,0,0,0,0],"id":14,"left_children":[1,3,5,7,9,11,13,15,17,19,21,23,25,27,29,31,33,35,37,39,41,43,45,47,49,51,53,55,57,59,61,-1,-1,-1,-1,-1,-1,-1,-1,-1,-1,-1,-1,-1,-1,-1,-1,-1,-1,-1,-1,-1,-1,-1,-1,-1,-1,-1,-1,-1,-1,-1,-1],"loss_changes":[9.59352E6,1.1813958E6,1.972888E6,1.544265E5,1.9386967E5,2.467475E5,4.04979E5,2.7379E4,2.457175E4,2.7721344E4,5.83063E4,8.0328875E4,1.1211225E5,9.500625E4,6.9712E4,7.045875E3,7.294875E3,7.9024375E3,1.5161469E4,9.075344E3,1.6162398E4,8.613684E3,4.5819688E4,2.8422312E4,5.1747656E4,9.0660625E4,3.9022625E4,5.708725E4,4.2792625E4,6.77785E4,7.730175E4,0E0,0E0,0E0,0E0,0E0,0E0,0E0,0E0,0E0,0E0,0E0,0E0,0E0,0E0,0E0,0E0,0E0,0E0,0E0,0E0,0E0,0E0,0E0,0E0,0E0,0E0,0E0,0E0,0E0,0E0,0E0,0E0],"parents":[2147483647,0,0,1,1,2,2,3,3,4,4,5,5,6,6,7,7,8,8,9,9,10,10,11,11,12,12,13,13,14,14,15,15,16,16,17,17,18,18,19,19,20,20,21,21,22,22,23,23,24,24,25,25,26,26,27,27,28,28,29,29,30,30],"right_children":[2,4,6,8,10,12,14,16,18,20,22,24,26,28,30,32,34,36,38,40,42,44,46,48,50,52,54,56,58,60,62,-1,-1,-1,-1,-1,-1,-1,-1,-1,-1,-1,-1,-1,-1,-1,-1,-1,-1,-1,-1,-1,-1,-1,-1,-1,-1,-1,-1,-1,-1,-1,-1],"split_conditions":[6.33E1,2.96E1,1.19E2,1.59E1,4.58E1,8.27E1,1.695E2,8.3E0,2.23E1,3.8E1,2E0,1.14E1,1.84E1,2.13E1,2.128E2,1.2E1,2E0,3.21E1,5.36E1,2E0,8.99E1,3.5E2,1.95E1,4.6E1,4.7E1,2E1,1.106E2,9.2E0,1.6E1,1.7E1,1E0,-9.3592757E-1,-4.5915562E-1,-4.6795067E-1,-7.5155383E-1,-6.157389E-1,-4.239067E-1,-4.7335818E-1,-1.4218444E-1,-3.630142E-1,-2.2841303E-1,-1.2684551E-1,7.168861E-1,-3.4436536E-1,-5.2316863E-2,8.101607E-1,1.976341E-1,1.2522483E0,3.5641227E0,4.865152E-2,6.121088E-1,1.3872021E0,2.738509E0,8.94631E-1,1.3125516E0,3.835226E0,2.1016092E0,1.0765471E0,1.8298367E0,1.6576132E0,3.0094087E0,1.8363574E0,3.9035227E0],"split_indices":[0,0,0,0,0,0,0,0,0,0,46,6,6,6,0,12,12,15,16,46,15,23,6,28,19,10,16,6,10,4,11,0,0,0,0,0,0,0,0,0,0,0,0,0,0,0,0,0,0,0,0,0,0,0,0,0,0,0,0,0,0,0,0],"split_type":[0,0,0,0,0,0,0,0,0,0,0,0,0,0,0,0,0,0,0,0,0,0,0,0,0,0,0,0,0,0,0,0,0,0,0,0,0,0,0,0,0,0,0,0,0,0,0,0,0,0,0,0,0,0,0,0,0,0,0,0,0,0,0],"sum_hessian":[3.4436E4,2.6044E4,8.392E3,1.512E4,1.0924E4,6.102E3,2.29E3,6.666E3,8.454E3,6.472E3,4.452E3,2.936E3,3.166E3,1.487E3,8.03E2,2.244E3,4.422E3,4.42E3,4.034E3,3.66E3,2.812E3,1.151E3,3.301E3,3.9E1,2.897E3,6.93E2,2.473E3,9.37E2,5.5E2,5.16E2,2.87E2,2.186E3,5.8E1,1.72E2,4.25E3,3.986E3,4.34E2,3.764E3,2.7E2,1.742E3,1.918E3,2.77E3,4.2E1,2.3E2,9.21E2,2.4E2,3.061E3,1.8E1,2.1E1,3.36E2,2.561E3,5.86E2,1.07E2,1.959E3,5.14E2,3.6E1,9.01E2,2.69E2,2.81E2,8E1,4.36E2,3.8E1,2.49E2],"tree_param":{"num_deleted":"0","num_feature":"51","num_nodes":"63","size_leaf_vector":"1"}},{"base_weights":[-7.413596E-2,-8.979109E0,2.8563566E1,-1.4416847E1,-8.0985963E-1,1.9653708E1,5.006512E1,-1.8606962E1,-1.1942167E1,-5.2777042E0,2.8703074E0,3.6544373E1,1.7133154E1,4.3195286E1,6.7615654E1,-2.0928532E1,-1.7249052E1,-1.36188965E1,-9.971625E0,-5.7662873E0,3.0114584E0,-2.621419E0,5.1149254E0,3.0231655E1,5.5249733E1,1.188483E1,2.2066685E1,4.8538883E1,3.257274E1,6.98746E1,3.3515274E1,-9.111388E-1,-6.807393E-1,-7.495264E-1,-4.682883E-1,-5.997856E-1,-3.8584286E-1,-4.4865015E-1,-1.3379005E-1,-4.182969E-1,-2.1856666E-1,-1.764446E-1,2.6045588E-1,-1.4455213E-1,2.2043628E-1,4.5124304E-1,1.2332012E-1,3.9710453E-1,1.4385232E0,3.4391034E0,1.6381325E0,4.0711948E-1,8.310851E-1,7.758464E-1,1.1283334E0,3.1127162E0,1.9941727E0,1.1022598E0,1.7555575E0,2.5840867E0,3.3841205E0,2.1626713E0,9.329194E-1],"categories":[],"categories_nodes":[],"categories_segments":[],"categories_sizes":[],"default_left":[0,0,0,0,0,0,0,0,0,0,0,0,0,0,0,0,0,0,0,0,0,0,0,0,0,0,0,0,0,0,0,0,0,0,0,0,0,0,0,0,0,0,0,0,0,0,0,0,0,0,0,0,0,0,0,0,0,0,0,0,0,0,0],"id":15,"left_children":[1,3,5,7,9,11,13,15,17,19,21,23,25,27,29,31,33,35,37,39,41,43,45,47,49,51,53,55,57,59,61,-1,-1,-1,-1,-1,-1,-1,-1,-1,-1,-1,-1,-1,-1,-1,-1,-1,-1,-1,-1,-1,-1,-1,-1,-1,-1,-1,-1,-1,-1,-1,-1],"loss_changes":[8.818266E6,1.1717248E6,1.571302E6,1.642055E5,1.733196E5,2.4688325E5,2.897235E5,1.8535125E4,3.289425E4,1.928189E4,7.124916E4,8.8912E4,1.306535E5,9.80255E4,5.2069E4,4.4885625E3,7.1965E3,1.062725E4,1.6843438E4,1.1716141E4,5.8502812E3,9.984867E3,4.9829586E4,4.084425E4,8.115806E4,4.3533375E4,4.41875E4,5.109725E4,3.3371812E4,5.5664E4,8.394781E3,0E0,0E0,0E0,0E0,0E0,0E0,0E0,0E0,0E0,0E0,0E0,0E0,0E0,0E0,0E0,0E0,0E0,0E0,0E0,0E0,0E0,0E0,0E0,0E0,0E0,0E0,0E0,0E0,0E0,0E0,0E0,0E0],"parents":[2147483647,0,0,1,1,2,2,3,3,4,4,5,5,6,6,7,7,8,8,9,9,10,10,11,11,12,12,13,13,14,14,15,15,16,16,17,17,18,18,19,19,20,20,21,21,22,22,23,23,24,24,25,25,26,26,27,27,28,28,29,29,30,30],"right_children":[2,4,6,8,10,12,14,16,18,20,22,24,26,28,30,32,34,36,38,40,42,44,46,48,50,52,54,56,58,60,62,-1,-1,-1,-1,-1,-1,-1,-1,-1,-1,-1,-1,-1,-1,-1,-1,-1,-1,-1,-1,-1,-1,-1,-1,-1,-1,-1,-1,-1,-1,-1,-1],"split_conditions":[6.4E1,3.07E1,1.166E2,1.46E1,4.21E1,1.68E1,1.774E2,8E0,2.23E1,7.17E1,2E0,3.93E1,8.15E1,2.22E1,9.4E1,1.1E1,3.82E1,3.21E1,5.36E1,3.02E2,4.0629166E1,2.58E1,2.49E1,8.046512E0,1.122E2,1.634E2,5E0,1.05E1,1.0734583E2,7.87E1,9.2E1,-9.111388E-1,-6.807393E-1,-7.495264E-1,-4.682883E-1,-5.997856E-1,-3.8584286E-1,-4.4865015E-1,-1.3379005E-1,-4.182969E-1,-2.1856666E-1,-1.764446E-1,2.6045588E-1,-1.4455213E-1,2.2043628E-1,4.5124304E-1,1.2332012E-1,3.9710453E-1,1.4385232E0,3.4391034E0,1.6381325E0,4.0711948E-1,8.310851E-1,7.758464E-1,1.1283334E0,3.1127162E0,1.9941727E0,1.1022598E0,1.7555575E0,2.5840867E0,3.3841205E0,2.1626713E0,9.329194E-1],"split_indices":[0,0,0,0,0,6,0,0,0,16,46,20,0,6,28,12,16,15,16,23,33,35,6,40,37,18,12,6,33,38,26,0,0,0,0,0,0,0,0,0,0,0,0,0,0,0,0,0,0,0,0,0,0,0,0,0,0,0,0,0,0,0,0],"split_type":[0,0,0,0,0,0,0,0,0,0,0,0,0,0,0,0,0,0,0,0,0,0,0,0,0,0,0,0,0,0,0,0,0,0,0,0,0,0,0,0,0,0,0,0,0,0,0,0,0,0,0,0,0,0,0,0,0,0,0,0,0,0,0],"sum_hessian":[3.4579E4,2.6377E4,8.202E3,1.5836E4,1.0541E4,5.799E3,2.403E3,5.88E3,9.956E3,4.761E3,5.78E3,7.53E2,5.046E3,1.727E3,6.76E2,2.17E3,3.71E3,5.379E3,4.577E3,4.496E3,2.65E2,1.677E3,4.103E3,5.63E2,1.9E2,2.445E3,2.601E3,1.149E3,5.78E2,6.34E2,4.2E1,2.003E3,1.67E2,3.536E3,1.74E2,4.916E3,4.63E2,4.243E3,3.34E2,6.21E2,3.875E3,8E1,1.85E2,1.527E3,1.5E2,1.189E3,2.914E3,8E1,4.83E2,7.6E1,1.14E2,1.867E3,5.78E2,1.375E3,1.226E3,8E1,1.069E3,3.23E2,2.55E2,3.18E2,3.16E2,1.7E1,2.5E1],"tree_param":{"num_deleted":"0","num_feature":"51","num_nodes":"63","size_leaf_vector":"1"}},{"base_weights":[-1.3623235E-1,-7.2218027E0,3.161036E1,-1.2867623E1,2.2049975E0,2.4047682E1,5.7287518E1,-1.6024473E1,-9.148173E0,-1.094666E0,9.114587E0,2.0546612E1,3.683576E1,4.7862316E1,6.562133E1,-1.8640427E1,-1.4258294E1,-1.0161233E1,-5.468565E0,-2.6955872E0,5.7633514E0,6.2954946E0,1.4342601E1,1.4602499E1,2.4315102E1,2.667075E1,4.619721E1,4.223323E1,7.1556526E1,6.942187E1,4.2172344E1,-8.118598E-1,-3.5589364E-1,-6.2406754E-1,-3.9973202E-1,-5.104119E-1,-3.670796E-1,-2.5711092E-1,3.0954993E-1,-1.8685399E-1,2.8606597E-2,1.8261086E0,2.2232059E-1,2.0312405E0,2.5351617E-1,5.432744E-1,1.145541E0,3.7294397E-1,8.447802E-1,9.6672565E-1,1.640568E0,7.8737426E-1,1.4341753E0,3.8709347E0,1.8534099E0,1.4060384E0,2.149074E0,2.4547043E0,6.754169E0,2.6453698E0,3.6268175E0,2.3510182E0,-3.024793E-1],"categories":[],"categories_nodes":[],"categories_segments":[],"categories_sizes":[],"default_left":[0,0,0,0,0,0,0,0,0,0,0,0,0,0,0,0,0,0,0,0,0,0,0,0,0,0,0,0,0,0,0,0,0,0,0,0,0,0,0,0,0,0,0,0,0,0,0,0,0,0,0,0,0,0,0,0,0,0,0,0,0,0,0],"id":16,"left_children":[1,3,5,7,9,11,13,15,17,19,21,23,25,27,29,31,33,35,37,39,41,43,45,47,49,51,53,55,57,59,61,-1,-1,-1,-1,-1,-1,-1,-1,-1,-1,-1,-1,-1,-1,-1,-1,-1,-1,-1,-1,-1,-1,-1,-1,-1,-1,-1,-1,-1,-1,-1,-1],"loss_changes":[7.759173E6,1.5008614E6,1.222216E6,2.0708825E5,2.4082955E5,2.17679E5,1.124755E5,4.40755E4,3.018225E4,7.848979E4,5.0315562E4,8.5500375E4,9.9438375E4,8.96245E4,6.77255E4,1.4965875E4,1.0055625E4,1.7806938E4,1.2326398E4,3.2803457E4,2.7811629E4,3.2667555E4,2.4144531E4,4.506103E4,5.503525E4,2.8539875E4,6.72685E4,4.09335E4,1.5710712E5,7.572875E4,6.736484E4,0E0,0E0,0E0,0E0,0E0,0E0,0E0,0E0,0E0,0E0,0E0,0E0,0E0,0E0,0E0,0E0,0E0,0E0,0E0,0E0,0E0,0E0,0E0,0E0,0E0,0E0,0E0,0E0,0E0,0E0,0E0,0E0],"parents":[2147483647,0,0,1,1,2,2,3,3,4,4,5,5,6,6,7,7,8,8,9,9,10,10,11,11,12,12,13,13,14,14,15,15,16,16,17,17,18,18,19,19,20,20,21,21,22,22,23,23,24,24,25,25,26,26,27,27,28,28,29,29,30,30],"right_children":[2,4,6,8,10,12,14,16,18,20,22,24,26,28,30,32,34,36,38,40,42,44,46,48,50,52,54,56,58,60,62,-1,-1,-1,-1,-1,-1,-1,-1,-1,-1,-1,-1,-1,-1,-1,-1,-1,-1,-1,-1,-1,-1,-1,-1,-1,-1,-1,-1,-1,-1,-1,-1],"split_conditions":[7.57E1,3.47E1,1.03286E4,1.98E1,5.65E1,1.197E2,1E0,1.145E1,1.5E0,5.82E1,9.71E1,6.06E2,3.19E1,1.2E1,5.4E0,1.2E1,3.12E1,2.5783333E1,1.02E2,1.1E0,2.63E1,1.21E1,4.96E1,1.122E2,1.2E1,7.77E2,3.2E1,4.5E1,1.893E3,2.226E2,2.0444583E2,-8.118598E-1,-3.5589364E-1,-6.2406754E-1,-3.9973202E-1,-5.104119E-1,-3.670796E-1,-2.5711092E-1,3.0954993E-1,-1.8685399E-1,2.8606597E-2,1.8261086E0,2.2232059E-1,2.0312405E0,2.5351617E-1,5.432744E-1,1.145541E0,3.7294397E-1,8.447802E-1,9.6672565E-1,1.640568E0,7.8737426E-1,1.4341753E0,3.8709347E0,1.8534099E0,1.4060384E0,2.149074E0,2.4547043E0,6.754169E0,2.6453698E0,3.6268175E0,2.3510182E0,-3.024793E-1],"split_indices":[14,14,39,14,14,16,42,32,34,15,19,25,3,12,8,12,15,32,19,34,19,6,3,17,12,2,38,28,24,1,33,0,0,0,0,0,0,0,0,0,0,0,0,0,0,0,0,0,0,0,0,0,0,0,0,0,0,0,0,0,0,0,0],"split_type":[0,0,0,0,0,0,0,0,0,0,0,0,0,0,0,0,0,0,0,0,0,0,0,0,0,0,0,0,0,0,0,0,0,0,0,0,0,0,0,0,0,0,0,0,0,0,0,0,0,0,0,0,0,0,0,0,0,0,0,0,0,0,0],"sum_hessian":[3.4494E4,2.82E4,6.294E3,1.7637E4,1.0563E4,4.862E3,1.432E3,9.54E3,8.097E3,7.149E3,3.414E3,3.817E3,1.045E3,6.72E2,7.6E2,3.845E3,5.695E3,6.349E3,1.748E3,5.796E3,1.353E3,2.218E3,1.196E3,1.481E3,2.336E3,5.01E2,5.44E2,5.43E2,1.29E2,6.54E2,1.06E2,3.709E3,1.36E2,5.304E3,3.91E2,2.954E3,3.395E3,1.675E3,7.3E1,3.865E3,1.931E3,2E1,1.333E3,1.9E1,2.199E3,1.059E3,1.37E2,6.95E2,7.86E2,2.089E3,2.47E2,2.29E2,2.72E2,3.2E1,5.12E2,2.53E2,2.9E2,1.11E2,1.8E1,4.42E2,2.12E2,8.4E1,2.2E1],"tree_param":{"num_deleted":"0","num_feature":"51","num_nodes":"63","size_leaf_vector":"1"}},{"base_weights":[-4.2847503E-2,-7.5955076E0,2.8797474E1,-1.2250407E1,1.5904074E0,2.1727442E1,5.291099E1,-1.5179415E1,-8.396504E0,-1.6929002E0,6.184116E0,1.7261942E1,3.1428865E1,4.8745586E1,7.197948E1,-1.7742313E1,-1.3243171E1,-9.959451E0,-6.4956717E0,-4.7427244E0,2.3437428E-1,-1.1259753E0,7.6535287E0,1.2619398E1,2.2400673E1,3.544096E1,2.4351645E1,5.1712845E1,2.862035E1,3.8659447E1,8.089386E1,-7.7567744E-1,-5.3519523E-1,-5.775527E-1,-2.6356408E-1,-4.4038555E-1,-1.770695E-1,-2.961642E-1,-5.4314908E-2,-1.2266571E-1,-3.0189663E-1,3.4194234E-1,-2.0908402E-2,6.8574296E-3,-4.7243208E-1,2.8947246E-1,6.4713633E-1,4.026637E-1,8.1348073E-1,1.2135886E0,7.325608E-1,1.0607055E0,1.7060608E0,6.587917E-1,1.1582161E0,1.8029613E0,2.449957E0,7.380568E-1,1.5065421E0,2.6005962E0,6.016685E-1,2.6379764E0,3.9111164E0],"categories":[],"categories_nodes":[],"categories_segments":[],"categories_sizes":[],"default_left":[0,0,0,0,0,0,0,0,0,0,0,0,0,0,0,0,0,0,0,0,0,0,0,0,0,0,0,0,0,0,0,0,0,0,0,0,0,0,0,0,0,0,0,0,0,0,0,0,0,0,0,0,0,0,0,0,0,0,0,0,0,0,0],"id":17,"left_children":[1,3,5,7,9,11,13,15,17,19,21,23,25,27,29,31,33,35,37,39,41,43,45,47,49,51,53,55,57,59,61,-1,-1,-1,-1,-1,-1,-1,-1,-1,-1,-1,-1,-1,-1,-1,-1,-1,-1,-1,-1,-1,-1,-1,-1,-1,-1,-1,-1,-1,-1,-1,-1],"loss_changes":[7.462551E6,1.1609211E6,1.2121335E6,2.0339975E5,1.3771903E5,2.3818075E5,1.28033E5,5.080375E4,2.3115938E4,3.129973E4,4.088258E4,8.9819375E4,4.9205125E4,7.900225E4,8.5836125E4,9.8215E3,1.18018125E4,8.8534375E3,8.1077656E3,8.977695E3,1.83741E4,8.1478086E3,2.0752547E4,4.0573094E4,5.6446688E4,5.3006125E4,1.5545594E4,6.20495E4,1.284825E4,3.335404E4,4.6698125E4,0E0,0E0,0E0,0E0,0E0,0E0,0E0,0E0,0E0,0E0,0E0,0E0,0E0,0E0,0E0,0E0,0E0,0E0,0E0,0E0,0E0,0E0,0E0,0E0,0E0,0E0,0E0,0E0,0E0,0E0,0E0,0E0],"parents":[2147483647,0,0,1,1,2,2,3,3,4,4,5,5,6,6,7,7,8,8,9,9,10,10,11,11,12,12,13,13,14,14,15,15,16,16,17,17,18,18,19,19,20,20,21,21,22,22,23,23,24,24,25,25,26,26,27,27,28,28,29,29,30,30],"right_children":[2,4,6,8,10,12,14,16,18,20,22,24,26,28,30,32,34,36,38,40,42,44,46,48,50,52,54,56,58,60,62,-1,-1,-1,-1,-1,-1,-1,-1,-1,-1,-1,-1,-1,-1,-1,-1,-1,-1,-1,-1,-1,-1,-1,-1,-1,-1,-1,-1,-1,-1,-1,-1],"split_conditions":[7.03E1,3.62E1,1.346E2,2.11E1,5.18E1,1.024E2,2.128E2,1.23E1,2.85E1,2E0,2E0,7.46E2,8.7E1,1.173E2,2E0,1.1E1,3.81E1,5.4E1,8.27E1,1.04E2,2E0,1.27E2,1.023E3,1.681E2,6.8E1,4.58E1,5.47E2,1.225E2,6.4E0,8.28E1,4.85E1,-7.7567744E-1,-5.3519523E-1,-5.775527E-1,-2.6356408E-1,-4.4038555E-1,-1.770695E-1,-2.961642E-1,-5.4314908E-2,-1.2266571E-1,-3.0189663E-1,3.4194234E-1,-2.0908402E-2,6.8574296E-3,-4.7243208E-1,2.8947246E-1,6.4713633E-1,4.026637E-1,8.1348073E-1,1.2135886E0,7.325608E-1,1.0607055E0,1.7060608E0,6.587917E-1,1.1582161E0,1.8029613E0,2.449957E0,7.380568E-1,1.5065421E0,2.6005962E0,6.016685E-1,2.6379764E0,3.9111164E0],"split_indices":[0,0,0,0,0,0,0,0,0,46,46,2,27,41,11,12,15,16,37,27,12,4,2,18,4,38,23,16,8,3,21,0,0,0,0,0,0,0,0,0,0,0,0,0,0,0,0,0,0,0,0,0,0,0,0,0,0,0,0,0,0,0,0],"split_type":[0,0,0,0,0,0,0,0,0,0,0,0,0,0,0,0,0,0,0,0,0,0,0,0,0,0,0,0,0,0,0,0,0,0,0,0,0,0,0,0,0,0,0,0,0,0,0,0,0,0,0,0,0,0,0,0,0,0,0,0,0,0,0],"sum_hessian":[3.426E4,2.715E4,7.11E3,1.8019E4,9.131E3,5.498E3,1.612E3,1.0238E4,7.781E3,5.325E3,3.806E3,3.765E3,1.733E3,1.323E3,2.89E2,4.406E3,5.832E3,4.27E3,3.511E3,2.062E3,3.263E3,6.37E2,3.169E3,1.978E3,1.787E3,1.106E3,6.27E2,1.153E3,1.7E2,6.1E1,2.28E2,4.071E3,3.35E2,5.605E3,2.27E2,4.023E3,2.47E2,3.237E3,2.74E2,1.144E3,9.18E2,2.78E2,2.985E3,5.64E2,7.3E1,2.839E3,3.3E2,1.323E3,6.55E2,8.31E2,9.56E2,3.31E2,7.75E2,1.49E2,4.78E2,4.32E2,7.21E2,6.3E1,1.07E2,3.2E1,2.9E1,8.2E1,1.46E2],"tree_param":{"num_deleted":"0","num_feature":"51","num_nodes":"63","size_leaf_vector":"1"}},{"base_weights":[9.2501886E-2,-6.5508094E0,3.0340435E1,-1.1395878E1,3.3839562E0,2.3734968E1,5.4052708E1,-1.4537541E1,-7.644953E0,-3.3534876E-1,8.240342E0,3.1223505E1,1.8284386E1,8.808523E0,5.5861053E1,-1.7175678E1,-1.2846583E1,-9.354193E0,-5.6514707E0,-3.6996558E0,1.6646233E0,2.1867354E0,7.927988E0,2.779792E1,4.0587532E1,1.2228037E1,2.2527103E1,1.1227845E0,-3.1535783E-1,5.192257E1,7.162998E1,-8.2488894E-1,-6.9255346E-1,-5.52379E-1,2.5622103E-1,-4.16779E-1,-1.4886567E-1,-3.1208795E-1,-1.7557195E-1,2.0037128E-1,-1.849051E-1,3.3342966E-1,-7.6912357E-3,2.5575578E-1,5.573716E-1,1.0421116E0,1.7338699E0,3.128643E0,1.6602724E0,1.5225369E-1,6.3496053E-1,6.3090926E-1,1.0590307E0,2.3162365E0,8.1146353E-1,2.246543E0,3.4728193E0],"categories":[],"categories_nodes":[],"categories_segments":[],"categories_sizes":[],"default_left":[0,0,0,0,0,0,0,0,0,0,0,0,0,0,0,0,0,0,0,0,0,0,0,0,0,0,0,0,0,0,0,0,0,0,0,0,0,0,0,0,0,0,0,0,0,0,0,0,0,0,0,0,0,0,0,0,0],"id":18,"left_children":[1,3,5,7,9,11,13,15,17,19,21,23,25,27,29,31,33,35,37,39,41,-1,43,45,47,49,51,-1,-1,53,55,-1,-1,-1,-1,-1,-1,-1,-1,-1,-1,-1,-1,-1,-1,-1,-1,-1,-1,-1,-1,-1,-1,-1,-1,-1,-1],"loss_changes":[6.9296385E6,1.3610069E6,9.72673E5,2.239685E5,1.6742055E5,1.9824525E5,1.1069625E5,4.613875E4,2.9517125E4,3.5318082E4,5.3972344E4,6.562725E4,7.222831E4,1.4733402E4,8.079425E4,8.26125E3,1.10689375E4,1.1192781E4,1.02093125E4,1.0378537E4,3.7326156E4,0E0,3.9642625E4,6.501625E4,3.0368438E4,2.6540703E4,2.9213938E4,0E0,0E0,8.004975E4,4.8033E4,0E0,0E0,0E0,0E0,0E0,0E0,0E0,0E0,0E0,0E0,0E0,0E0,0E0,0E0,0E0,0E0,0E0,0E0,0E0,0E0,0E0,0E0,0E0,0E0,0E0,0E0],"parents":[2147483647,0,0,1,1,2,2,3,3,4,4,5,5,6,6,7,7,8,8,9,9,10,10,11,11,12,12,13,13,14,14,15,15,16,16,17,17,18,18,19,19,20,20,22,22,23,23,24,24,25,25,26,26,29,29,30,30],"right_children":[2,4,6,8,10,12,14,16,18,20,22,24,26,28,30,32,34,36,38,40,42,-1,44,46,48,50,52,-1,-1,54,56,-1,-1,-1,-1,-1,-1,-1,-1,-1,-1,-1,-1,-1,-1,-1,-1,-1,-1,-1,-1,-1,-1,-1,-1,-1,-1],"split_conditions":[7.66E1,3.83E1,1.439E2,2.11E1,5.47E1,2.21E1,1.77E1,1.16E1,2.93E1,2E0,1.05E1,1.22E2,1.078E2,1.346E2,2.128E2,3.7628865E-1,8.43E1,5.36E1,2E0,2.08E1,2.44E1,2.1867354E0,1.143E2,1.8E1,9.2E0,5.36E1,1.61E1,1.1227845E0,-3.1535783E-1,2.719E2,3E0,-8.2488894E-1,-6.9255346E-1,-5.52379E-1,2.5622103E-1,-4.16779E-1,-1.4886567E-1,-3.1208795E-1,-1.7557195E-1,2.0037128E-1,-1.849051E-1,3.3342966E-1,-7.6912357E-3,2.5575578E-1,5.573716E-1,1.0421116E0,1.7338699E0,3.128643E0,1.6602724E0,1.5225369E-1,6.3496053E-1,6.3090926E-1,1.0590307E0,2.3162365E0,8.1146353E-1,2.246543E0,3.4728193E0],"split_indices":[0,0,0,0,0,6,21,0,0,46,6,0,1,18,0,40,37,16,46,15,6,0,19,10,6,16,21,0,0,37,11,0,0,0,0,0,0,0,0,0,0,0,0,0,0,0,0,0,0,0,0,0,0,0,0,0,0],"split_type":[0,0,0,0,0,0,0,0,0,0,0,0,0,0,0,0,0,0,0,0,0,0,0,0,0,0,0,0,0,0,0,0,0,0,0,0,0,0,0,0,0,0,0,0,0,0,0,0,0,0,0,0,0,0,0,0,0],"sum_hessian":[3.4485E4,2.8275E4,6.21E3,1.9006E4,9.269E3,4.857E3,1.353E3,1.0343E4,8.663E3,5.249E3,4.02E3,2.046E3,2.811E3,5.2E1,1.301E3,4.04E3,6.303E3,4.664E3,3.999E3,1.957E3,3.292E3,2.9E1,3.991E3,1.498E3,5.48E2,1.158E3,1.653E3,2.5E1,2.7E1,1.041E3,2.6E2,1.241E3,2.799E3,6.272E3,3.1E1,4.36E3,3.04E2,1.924E3,2.075E3,1.37E2,1.82E3,7.6E2,2.532E3,2.897E3,1.094E3,1.185E3,3.13E2,2.7E1,5.21E2,2.71E2,8.87E2,3.76E2,1.277E3,9.72E2,6.9E1,8.8E1,1.72E2],"tree_param":{"num_deleted":"0","num_feature":"51","num_nodes":"57","size_leaf_vector":"1"}},{"base_weights":[-1.2753643E-1,-6.7111645E0,2.7104023E1,-1.1313946E1,1.664584E0,2.1061026E1,5.1379936E1,-1.4743385E1,-8.636216E0,-1.7608036E0,6.2434363E0,1.5953551E1,2.8796343E1,4.496771E1,5.954782E1,-1.7644169E1,-1.3638171E1,-9.906421E0,-6.037306E0,-4.39629E0,-4.706868E-2,-1.7883861E0,7.7015257E0,3.3360214E1,1.445135E1,3.4129494E1,2.3249214E1,4.716107E1,8.954807E0,6.5047005E1,3.238476E1,-8.0996317E-1,-6.952778E-1,-6.3931704E-1,-5.441665E-1,-4.2978036E-1,1.5922984E-1,-2.7265888E-1,7.2090834E-2,-1.08101025E-1,-2.789479E-1,2.161414E-1,-6.307577E-2,1.0255036E-1,-1.750183E-1,7.259814E-1,2.9119194E-1,1.103656E0,3.1122413E0,3.3203486E-1,6.913519E-1,1.5408492E0,4.5298114E-1,6.212063E-1,1.1107736E0,1.6191896E0,2.5818045E0,1.7140522E0,-8.889013E-1,1.7305082E0,2.9343104E0,5.011615E-2,1.6785123E0],"categories":[],"categories_nodes":[],"categories_segments":[],"categories_sizes":[],"default_left":[0,0,0,0,0,0,0,0,0,0,0,0,0,0,0,0,0,0,0,0,0,0,0,0,0,0,0,0,0,0,0,0,0,0,0,0,0,0,0,0,0,0,0,0,0,0,0,0,0,0,0,0,0,0,0,0,0,0,0,0,0,0,0],"id":19,"left_children":[1,3,5,7,9,11,13,15,17,19,21,23,25,27,29,31,33,35,37,39,41,43,45,47,49,51,53,55,57,59,61,-1,-1,-1,-1,-1,-1,-1,-1,-1,-1,-1,-1,-1,-1,-1,-1,-1,-1,-1,-1,-1,-1,-1,-1,-1,-1,-1,-1,-1,-1,-1,-1],"loss_changes":[6.1769965E6,1.0696568E6,9.84056E5,1.64432E5,1.5433414E5,2.1219525E5,7.002E4,2.5168875E4,3.3192375E4,2.5423338E4,4.9315734E4,8.458775E4,6.3188375E4,5.916075E4,8.7828375E4,3.9065E3,6.7755E3,1.48649375E4,8.923031E3,8.8395625E3,2.493539E4,6.267411E3,2.9189297E4,7.6286375E4,3.4655688E4,5.0341125E4,2.5232688E4,8.67945E4,3.9947707E4,4.4227875E4,2.1427234E4,0E0,0E0,0E0,0E0,0E0,0E0,0E0,0E0,0E0,0E0,0E0,0E0,0E0,0E0,0E0,0E0,0E0,0E0,0E0,0E0,0E0,0E0,0E0,0E0,0E0,0E0,0E0,0E0,0E0,0E0,0E0,0E0],"parents":[2147483647,0,0,1,1,2,2,3,3,4,4,5,5,6,6,7,7,8,8,9,9,10,10,11,11,12,12,13,13,14,14,15,15,16,16,17,17,18,18,19,19,20,20,21,21,22,22,23,23,24,24,25,25,26,26,27,27,28,28,29,29,30,30],"right_children":[2,4,6,8,10,12,14,16,18,20,22,24,26,28,30,32,34,36,38,40,42,44,46,48,50,52,54,56,58,60,62,-1,-1,-1,-1,-1,-1,-1,-1,-1,-1,-1,-1,-1,-1,-1,-1,-1,-1,-1,-1,-1,-1,-1,-1,-1,-1,-1,-1,-1,-1,-1,-1],"split_conditions":[7.29E1,3.56E1,1.439E2,1.76E1,5.23E1,1.008E2,4E0,8E0,2.85E1,2E0,2E0,1.5E1,2.11E1,2.0444583E2,2.21E1,6.6875E0,1.23E1,5.6458332E1,1.08E2,1.02E2,2.47E1,4.51E1,1.9E1,4.37E1,5.45E1,7.03E1,4.78E1,1.625E2,1.872E2,-1.34E1,2.8E1,-8.0996317E-1,-6.952778E-1,-6.3931704E-1,-5.441665E-1,-4.2978036E-1,1.5922984E-1,-2.7265888E-1,7.2090834E-2,-1.08101025E-1,-2.789479E-1,2.161414E-1,-6.307577E-2,1.0255036E-1,-1.750183E-1,7.259814E-1,2.9119194E-1,1.103656E0,3.1122413E0,3.3203486E-1,6.913519E-1,1.5408492E0,4.5298114E-1,6.212063E-1,1.1107736E0,1.6191896E0,2.5818045E0,1.7140522E0,-8.889013E-1,1.7305082E0,2.9343104E0,5.011615E-2,1.6785123E0],"split_indices":[0,0,0,0,0,0,11,0,0,46,46,6,6,33,6,33,0,33,19,27,6,18,6,20,16,20,38,15,16,34,4,0,0,0,0,0,0,0,0,0,0,0,0,0,0,0,0,0,0,0,0,0,0,0,0,0,0,0,0,0,0,0,0],"split_type":[0,0,0,0,0,0,0,0,0,0,0,0,0,0,0,0,0,0,0,0,0,0,0,0,0,0,0,0,0,0,0,0,0,0,0,0,0,0,0,0,0,0,0,0,0,0,0,0,0,0,0,0,0,0,0,0,0,0,0,0,0,0,0],"sum_hessian":[3.4454E4,2.7746E4,6.708E3,1.7906E4,9.84E3,5.371E3,1.337E3,7.851E3,1.0055E4,5.629E3,4.211E3,3.235E3,2.136E3,7.49E2,5.88E2,2.166E3,5.685E3,6.754E3,3.301E3,2.218E3,3.411E3,6.47E2,3.564E3,2.57E2,2.978E3,1.089E3,1.047E3,7.06E2,4.3E1,4.89E2,9.9E1,1.094E3,1.072E3,2.272E3,3.413E3,6.675E3,7.9E1,3.158E3,1.43E2,1.185E3,1.033E3,7.46E2,2.665E3,2.3E2,4.17E2,3.08E2,3.256E3,2.16E2,4.1E1,6.17E2,2.361E3,1.005E3,8.4E1,2.53E2,7.94E2,4.17E2,2.89E2,2.1E1,2.2E1,6.4E1,4.25E2,1.8E1,8.1E1],"tree_param":{"num_deleted":"0","num_feature":"51","num_nodes":"63","size_leaf_vector":"1"}},{"base_weights":[5.9527557E-2,-7.1851535E0,2.2933868E1,-1.1761389E1,-9.187284E-1,1.5291414E1,4.10882E1,-1.4975725E1,-9.790085E0,-3.6205316E0,3.479681E0,2.9725334E1,1.3393316E1,3.429544E1,5.1814693E1,-1.7669264E1,-1.4151803E1,-1.1047935E1,-8.1429205E0,-4.5500135E0,2.9136214E-1,-1.5746926E0,5.146818E0,1.3012552E0,3.3119186E1,9.269576E0,1.733324E1,6.2681423E1,3.2713963E1,4.2996964E1,5.954977E1,-7.603824E-1,-2.7850527E-1,-6.1514264E-1,-4.0773347E-1,-3.772187E-1,-4.9920723E-1,-3.6556026E-1,-8.9669034E-2,-1.9813992E-1,9.965064E-1,-4.517696E-2,2.7014476E-1,-2.8292114E-1,-2.4378216E-2,6.9937843E-1,1.8046543E-1,2.163563E-1,-4.6460795E-1,1.711106E0,9.4824827E-1,-7.722652E-1,4.1271457E-1,5.7666117E-1,9.135955E-1,3.57133E0,1.3603811E0,1.2778276E0,2.0569546E0,1.3110229E0,2.4121203E0,2.9475832E0,1.9133679E0],"categories":[],"categories_nodes":[],"categories_segments":[],"categories_sizes":[],"default_left":[0,0,0,0,0,0,0,0,0,0,0,0,0,0,0,0,0,0,0,0,0,0,0,0,0,0,0,0,0,0,0,0,0,0,0,0,0,0,0,0,0,0,0,0,0,0,0,0,0,0,0,0,0,0,0,0,0,0,0,0,0,0,0],"id":20,"left_children":[1,3,5,7,9,11,13,15,17,19,21,23,25,27,29,31,33,35,37,39,41,43,45,47,49,51,53,55,57,59,61,-1,-1,-1,-1,-1,-1,-1,-1,-1,-1,-1,-1,-1,-1,-1,-1,-1,-1,-1,-1,-1,-1,-1,-1,-1,-1,-1,-1,-1,-1,-1,-1],"loss_changes":[5.6859275E6,7.4725525E5,1.1450485E6,9.542575E4,1.3069623E5,1.5912E5,1.78145E5,1.2704E4,1.9340312E4,2.4772477E4,3.5264355E4,6.5113875E4,8.339594E4,6.7199E4,6.4655E4,2.1372812E3,5.2068125E3,7.5633125E3,1.0269781E4,1.4051352E4,1.0657471E4,5.263578E3,3.2507594E4,3.3046035E3,4.5797E4,2.7342297E4,4.0842188E4,5.1063656E4,6.0989875E4,7.351481E4,7.0645E4,0E0,0E0,0E0,0E0,0E0,0E0,0E0,0E0,0E0,0E0,0E0,0E0,0E0,0E0,0E0,0E0,0E0,0E0,0E0,0E0,0E0,0E0,0E0,0E0,0E0,0E0,0E0,0E0,0E0,0E0,0E0,0E0],"parents":[2147483647,0,0,1,1,2,2,3,3,4,4,5,5,6,6,7,7,8,8,9,9,10,10,11,11,12,12,13,13,14,14,15,15,16,16,17,17,18,18,19,19,20,20,21,21,22,22,23,23,24,24,25,25,26,26,27,27,28,28,29,29,30,30],"right_children":[2,4,6,8,10,12,14,16,18,20,22,24,26,28,30,32,34,36,38,40,42,44,46,48,50,52,54,56,58,60,62,-1,-1,-1,-1,-1,-1,-1,-1,-1,-1,-1,-1,-1,-1,-1,-1,-1,-1,-1,-1,-1,-1,-1,-1,-1,-1,-1,-1,-1,-1,-1,-1],"split_conditions":[6.4E1,2.96E1,1.166E2,1.46E1,4.71E1,1.65E1,1.621E2,6.9791665E0,2.23E1,5.4E1,2E0,8.046512E0,8.15E1,1.05E1,3E0,1.01E1,3.69E1,4E0,5.55E1,8.64E1,9.24E1,3.45E2,1.94E1,1.16E1,6.05E1,8.4E0,5E0,1.457E3,1.2E1,1.1E1,2E0,-7.603824E-1,-2.7850527E-1,-6.1514264E-1,-4.0773347E-1,-3.772187E-1,-4.9920723E-1,-3.6556026E-1,-8.9669034E-2,-1.9813992E-1,9.965064E-1,-4.517696E-2,2.7014476E-1,-2.8292114E-1,-2.4378216E-2,6.9937843E-1,1.8046543E-1,2.163563E-1,-4.6460795E-1,1.711106E0,9.4824827E-1,-7.722652E-1,4.1271457E-1,5.7666117E-1,9.135955E-1,3.57133E0,1.3603811E0,1.2778276E0,2.0569546E0,1.3110229E0,2.4121203E0,2.9475832E0,1.9133679E0],"split_indices":[0,0,0,0,0,6,0,33,0,16,46,40,0,6,46,5,16,12,16,15,18,23,6,8,38,5,12,23,12,12,12,0,0,0,0,0,0,0,0,0,0,0,0,0,0,0,0,0,0,0,0,0,0,0,0,0,0,0,0,0,0,0,0],"split_type":[0,0,0,0,0,0,0,0,0,0,0,0,0,0,0,0,0,0,0,0,0,0,0,0,0,0,0,0,0,0,0,0,0,0,0,0,0,0,0,0,0,0,0,0,0,0,0,0,0,0,0,0,0,0,0,0,0,0,0,0,0,0,0],"sum_hessian":[3.4311E4,2.6058E4,8.253E3,1.506E4,1.0998E4,5.808E3,2.445E3,5.725E3,9.335E3,6.813E3,4.185E3,6.75E2,5.133E3,1.497E3,9.48E2,1.341E3,4.384E3,5.293E3,4.042E3,5.505E3,1.308E3,1.038E3,3.147E3,7.2E1,6.03E2,2.508E3,2.625E3,7.9E1,1.418E3,4.43E2,5.05E2,1.324E3,1.7E1,4.151E3,2.33E2,1.197E3,4.096E3,3.779E3,2.63E2,5.487E3,1.8E1,1.069E3,2.39E2,1.72E2,8.66E2,2.38E2,2.909E3,5.5E1,1.7E1,3.68E2,2.35E2,3.6E1,2.472E3,1.353E3,1.272E3,4.7E1,3.2E1,1.202E3,2.16E2,2.32E2,2.11E2,3.07E2,1.98E2],"tree_param":{"num_deleted":"0","num_feature":"51","num_nodes":"63","size_leaf_vector":"1"}},{"base_weights":[-2.622039E-2,-6.4823523E0,2.3579525E1,-1.1019646E1,3.6752693E-2,1.8695591E1,4.8138706E1,-1.3761289E1,-8.757306E0,-3.0341136E0,4.0892506E0,1.3138921E1,2.5896671E1,4.3019753E1,6.615878E1,-1.6411379E1,-1.2853201E1,-9.891781E0,-7.264739E0,-4.9677563E0,-1.606001E0,-2.0964067E0,5.7707195E0,3.5205357E1,1.1488189E1,2.9587841E1,1.9584356E1,2.3423586E1,4.5866203E1,1.2124186E0,7.085869E1,-7.1511674E-1,-5.0313306E-1,-2.6651436E-1,-5.575323E-1,-9.863096E-2,-4.3201935E-1,-3.2193926E-1,-3.4707423E-2,-1.7912781E-1,-3.9065626E-1,5.397388E-1,-7.9140365E-2,-1.4706473E-1,9.683342E-2,5.272822E-1,2.0429252E-1,2.3110993E0,8.065265E-1,3.8046145E-1,6.857787E-1,1.056315E0,1.4932941E0,6.913351E-1,1.0191238E0,6.2992334E-1,2.0289128E0,2.081015E0,1.1491439E0,3.2084687E0,1.3645929E0],"categories":[],"categories_nodes":[],"categories_segments":[],"categories_sizes":[],"default_left":[0,0,0,0,0,0,0,0,0,0,0,0,0,0,0,0,0,0,0,0,0,0,0,0,0,0,0,0,0,0,0,0,0,0,0,0,0,0,0,0,0,0,0,0,0,0,0,0,0,0,0,0,0,0,0,0,0,0,0,0,0],"id":21,"left_children":[1,3,5,7,9,11,13,15,17,19,21,23,25,27,29,31,33,35,37,39,41,43,45,47,49,51,53,55,57,-1,59,-1,-1,-1,-1,-1,-1,-1,-1,-1,-1,-1,-1,-1,-1,-1,-1,-1,-1,-1,-1,-1,-1,-1,-1,-1,-1,-1,-1,-1,-1],"loss_changes":[5.2406405E6,7.986951E5,8.85794E5,9.87495E4,1.3789955E5,2.4648475E5,1.1299425E5,1.732075E4,1.47696875E4,1.7407969E4,4.968568E4,1.266505E5,6.25115E4,5.3211E4,4.80865E4,2.892625E3,7.344E3,8.5844375E3,6.7280312E3,8.644117E3,1.280841E4,6.0102554E3,2.434886E4,7.473659E4,3.8132156E4,4.4219625E4,1.4390875E4,2.5277133E4,4.5492375E4,0E0,4.031175E4,0E0,0E0,0E0,0E0,0E0,0E0,0E0,0E0,0E0,0E0,0E0,0E0,0E0,0E0,0E0,0E0,0E0,0E0,0E0,0E0,0E0,0E0,0E0,0E0,0E0,0E0,0E0,0E0,0E0,0E0],"parents":[2147483647,0,0,1,1,2,2,3,3,4,4,5,5,6,6,7,7,8,8,9,9,10,10,11,11,12,12,13,13,14,14,15,15,16,16,17,17,18,18,19,19,20,20,21,21,22,22,23,23,24,24,25,25,26,26,27,27,28,28,30,30],"right_children":[2,4,6,8,10,12,14,16,18,20,22,24,26,28,30,32,34,36,38,40,42,44,46,48,50,52,54,56,58,-1,60,-1,-1,-1,-1,-1,-1,-1,-1,-1,-1,-1,-1,-1,-1,-1,-1,-1,-1,-1,-1,-1,-1,-1,-1,-1,-1,-1,-1,-1,-1],"split_conditions":[6.87E1,3.13E1,1.49E2,1.68E1,4.81E1,9.64E1,2.128E2,7.4E0,2.4E1,2E0,2E0,1.5E1,2.36E1,1.7E1,1E0,1.1E1,2E0,-2.61E1,8.89E1,1.33E2,1.88E1,1.2E1,2.09E1,3E0,1.29E2,3E0,2.338E2,1E0,1.092E2,1.2124186E0,5.3E0,-7.1511674E-1,-5.0313306E-1,-2.6651436E-1,-5.575323E-1,-9.863096E-2,-4.3201935E-1,-3.2193926E-1,-3.4707423E-2,-1.7912781E-1,-3.9065626E-1,5.397388E-1,-7.9140365E-2,-1.4706473E-1,9.683342E-2,5.272822E-1,2.0429252E-1,2.3110993E0,8.065265E-1,3.8046145E-1,6.857787E-1,1.056315E0,1.4932941E0,6.913351E-1,1.0191238E0,6.2992334E-1,2.0289128E0,2.081015E0,1.1491439E0,3.2084687E0,1.3645929E0],"split_indices":[0,0,0,0,0,0,0,0,0,46,46,6,6,4,11,12,12,35,19,27,6,12,6,11,19,46,1,45,41,0,8,0,0,0,0,0,0,0,0,0,0,0,0,0,0,0,0,0,0,0,0,0,0,0,0,0,0,0,0,0,0],"split_type":[0,0,0,0,0,0,0,0,0,0,0,0,0,0,0,0,0,0,0,0,0,0,0,0,0,0,0,0,0,0,0,0,0,0,0,0,0,0,0,0,0,0,0,0,0,0,0,0,0,0,0,0,0,0,0,0,0,0,0,0,0],"sum_hessian":[3.4387E4,2.7002E4,7.385E3,1.5921E4,1.1081E4,6.16E3,1.225E3,7.198E3,8.723E3,6.304E3,4.777E3,3.477E3,2.683E3,9.54E2,2.71E2,1.837E3,5.361E3,4.956E3,3.767E3,2.678E3,3.626E3,1.021E3,3.756E3,2.42E2,3.235E3,1.693E3,9.9E2,1.21E2,8.33E2,3E1,2.41E2,1.711E3,1.26E2,1.63E2,5.198E3,1.45E2,4.811E3,3.612E3,1.55E2,2.261E3,4.17E2,6.2E1,3.564E3,7.8E2,2.41E2,4.89E2,3.267E3,1.12E2,1.3E2,2.07E3,1.165E3,8.92E2,8.01E2,5.53E2,4.37E2,8.9E1,3.2E1,7.23E2,1.1E2,2.17E2,2.4E1],"tree_param":{"num_deleted":"0","num_feature":"51","num_nodes":"61","size_leaf_vector":"1"}},{"base_weights":[8.795381E-2,-5.660677E0,2.5257421E1,-9.565492E0,2.545784E0,1.7311674E1,3.857675E1,-1.2454088E1,-6.6622458E0,1.4301652E-1,7.7880173E0,1.2201834E1,2.1862307E1,3.354516E1,5.1447678E1,-1.5125085E1,-1.136124E1,-9.2845125E0,-5.6488905E0,-2.0993874E0,2.1274815E0,6.6610155E0,1.5355352E1,1.4521418E1,4.6578712E0,1.8633333E1,2.881991E1,4.2278667E1,2.9534237E1,3.18574E1,5.536566E1,-6.557333E-1,-3.1236294E-1,-4.8913124E-1,8.091799E-2,-4.0198702E-1,2.4561472E-1,-2.9964498E-1,-1.6726834E-1,-1.1202766E-1,2.7583182E-1,1.4384123E0,8.3810546E-2,-4.9770962E-2,3.2313424E-1,8.08064E-1,3.198358E-1,9.192224E-1,5.5539566E-1,5.3671964E-2,1.0014929E0,8.7621325E-1,3.7200484E-1,3.1171482E0,1.0980759E0,2.0740669E0,8.8007116E-1,9.0872264E-1,1.7892193E0,4.890638E-1,1.8071315E0,2.5353458E0,1.403026E0],"categories":[],"categories_nodes":[],"categories_segments":[],"categories_sizes":[],"default_left":[0,0,0,0,0,0,0,0,0,0,0,0,0,0,0,0,0,0,0,0,0,0,0,0,0,0,0,0,0,0,0,0,0,0,0,0,0,0,0,0,0,0,0,0,0,0,0,0,0,0,0,0,0,0,0,0,0,0,0,0,0,0,0],"id":22,"left_children":[1,3,5,7,9,11,13,15,17,19,21,23,25,27,29,31,33,35,37,39,41,43,45,47,49,51,53,55,57,59,61,-1,-1,-1,-1,-1,-1,-1,-1,-1,-1,-1,-1,-1,-1,-1,-1,-1,-1,-1,-1,-1,-1,-1,-1,-1,-1,-1,-1,-1,-1,-1,-1],"loss_changes":[4.9796515E6,8.9779694E5,6.7721675E5,1.5920488E5,1.13778125E5,9.3196625E4,1.5484075E5,2.7776E4,2.5158562E4,2.7563127E4,2.4211219E4,3.303703E4,4.762575E4,6.0212625E4,5.157525E4,5.085875E3,8.67525E3,5.247875E3,1.61953125E4,1.3067651E4,1.7029135E4,1.7572188E4,1.0340477E4,1.52975625E4,2.8388217E4,2.7178469E4,9.198419E4,7.3916125E4,1.2025931E5,2.393332E4,5.0722625E4,0E0,0E0,0E0,0E0,0E0,0E0,0E0,0E0,0E0,0E0,0E0,0E0,0E0,0E0,0E0,0E0,0E0,0E0,0E0,0E0,0E0,0E0,0E0,0E0,0E0,0E0,0E0,0E0,0E0,0E0,0E0,0E0],"parents":[2147483647,0,0,1,1,2,2,3,3,4,4,5,5,6,6,7,7,8,8,9,9,10,10,11,11,12,12,13,13,14,14,15,15,16,16,17,17,18,18,19,19,20,20,21,21,22,22,23,23,24,24,25,25,26,26,27,27,28,28,29,29,30,30],"right_children":[2,4,6,8,10,12,14,16,18,20,22,24,26,28,30,32,34,36,38,40,42,44,46,48,50,52,54,56,58,60,62,-1,-1,-1,-1,-1,-1,-1,-1,-1,-1,-1,-1,-1,-1,-1,-1,-1,-1,-1,-1,-1,-1,-1,-1,-1,-1,-1,-1,-1,-1,-1,-1],"split_conditions":[7.47E1,3.83E1,1.166E2,2E1,5.87E1,7.46E2,1.774E2,9.3E0,3E2,1.7E1,1.023E3,6.8E1,1.106E2,2E0,1.2891667E2,1.2E1,7.71E1,5.7675E1,3.22E1,2.44E1,7.1E0,3.36E1,4.73E1,8E0,1.10816666E2,4E0,3.2E1,8.41E1,1.1E1,3.81E1,2.0444583E2,-6.557333E-1,-3.1236294E-1,-4.8913124E-1,8.091799E-2,-4.0198702E-1,2.4561472E-1,-2.9964498E-1,-1.6726834E-1,-1.1202766E-1,2.7583182E-1,1.4384123E0,8.3810546E-2,-4.9770962E-2,3.2313424E-1,8.08064E-1,3.198358E-1,9.192224E-1,5.5539566E-1,5.3671964E-2,1.0014929E0,8.7621325E-1,3.7200484E-1,3.1171482E0,1.0980759E0,2.0740669E0,8.8007116E-1,9.0872264E-1,1.7892193E0,4.890638E-1,1.8071315E0,2.5353458E0,1.403026E0],"split_indices":[0,0,0,0,0,2,0,0,23,30,2,7,16,12,33,12,18,33,16,31,31,16,38,10,32,46,38,38,12,22,33,0,0,0,0,0,0,0,0,0,0,0,0,0,0,0,0,0,0,0,0,0,0,0,0,0,0,0,0,0,0,0,0],"split_type":[0,0,0,0,0,0,0,0,0,0,0,0,0,0,0,0,0,0,0,0,0,0,0,0,0,0,0,0,0,0,0,0,0,0,0,0,0,0,0,0,0,0,0,0,0,0,0,0,0,0,0,0,0,0,0,0,0,0,0,0,0,0,0],"sum_hessian":[3.4416E4,2.8017E4,6.399E3,1.8984E4,9.033E3,4.008E3,2.391E3,9.516E3,9.468E3,6.194E3,2.839E3,1.888E3,2.12E3,1.719E3,6.72E2,2.763E3,6.753E3,2.639E3,6.829E3,2.908E3,3.286E3,2.471E3,3.68E2,1.444E3,4.44E2,1.448E3,6.72E2,5.41E2,1.178E3,1.12E2,5.6E2,2.682E3,8.1E1,6.704E3,4.9E1,2.616E3,2.3E1,3.811E3,3.018E3,2.74E3,1.68E2,1.7E1,3.269E3,2.57E2,2.214E3,2.53E2,1.15E2,2.56E2,1.188E3,3.76E2,6.8E1,1.216E3,2.32E2,4.4E1,6.28E2,4.19E2,1.22E2,7.07E2,4.71E2,3.8E1,7.4E1,4.75E2,8.5E1],"tree_param":{"num_deleted":"0","num_feature":"51","num_nodes":"63","size_leaf_vector":"1"}},{"base_weights":[1.8432308E-3,-5.37963E0,2.4043303E1,-8.954951E0,2.7672942E0,1.6478254E1,3.8405758E1,-1.1508516E1,-5.769871E0,2.3018967E-1,6.8676996E0,1.1171853E1,1.9807007E1,3.327442E1,4.9806984E1,-1.3822758E1,-1.0079015E1,-9.338611E0,-5.1260533E0,9.007034E-1,-6.9302163E0,5.9706416E0,1.7185411E1,-9.665198E0,1.207191E1,2.0387125E1,-3.3876636E0,3.9367607E1,2.6864866E1,2.7815847E1,5.3358746E1,-6.002953E-1,-2.5784117E-1,-4.443744E-1,-2.6251194E-1,-6.055796E-1,-3.8330984E-1,-2.4064964E-1,-4.5874707E-2,-6.900595E-2,1.076276E-1,-7.7687454E-1,-1.8211335E-1,1.7570725E-1,4.397531E-1,1.2711396E0,5.4986703E-1,-8.015668E-1,5.4951227E-1,3.7995288E-1,6.9384927E-1,1.1604276E0,7.7785486E-1,6.364597E-1,-4.6418464E-1,1.4676838E0,2.2750816E0,1.1999012E0,2.7475938E-1,2.649784E0,8.410446E-1,2.589497E0,1.7297549E0],"categories":[],"categories_nodes":[],"categories_segments":[],"categories_sizes":[],"default_left":[0,0,0,0,0,0,0,0,0,0,0,0,0,0,0,0,0,0,0,0,0,0,0,0,0,0,0,0,0,0,0,0,0,0,0,0,0,0,0,0,0,0,0,0,0,0,0,0,0,0,0,0,0,0,0,0,0,0,0,0,0,0,0],"id":23,"left_children":[1,3,5,7,9,11,13,15,17,19,21,23,25,27,29,31,33,35,37,39,41,43,45,47,49,51,53,55,57,59,61,-1,-1,-1,-1,-1,-1,-1,-1,-1,-1,-1,-1,-1,-1,-1,-1,-1,-1,-1,-1,-1,-1,-1,-1,-1,-1,-1,-1,-1,-1,-1,-1],"loss_changes":[4.465628E6,8.2149375E5,6.85922E5,1.5942025E5,8.948767E4,7.3038125E4,1.274175E5,3.5989E4,2.003925E4,2.5513064E4,3.0431375E4,2.9894828E4,3.4191375E4,5.8657125E4,5.2797125E4,7.7406875E3,8.737875E3,2.3212656E3,1.5305453E4,1.9820834E4,1.3658414E4,2.4296023E4,1.425307E4,1.3554143E4,2.0263297E4,3.6483312E4,8.492182E3,5.347075E4,1.8592188E4,2.6124602E4,5.455225E4,0E0,0E0,0E0,0E0,0E0,0E0,0E0,0E0,0E0,0E0,0E0,0E0,0E0,0E0,0E0,0E0,0E0,0E0,0E0,0E0,0E0,0E0,0E0,0E0,0E0,0E0,0E0,0E0,0E0,0E0,0E0,0E0],"parents":[2147483647,0,0,1,1,2,2,3,3,4,4,5,5,6,6,7,7,8,8,9,9,10,10,11,11,12,12,13,13,14,14,15,15,16,16,17,17,18,18,19,19,20,20,21,21,22,22,23,23,24,24,25,25,26,26,27,27,28,28,29,29,30,30],"right_children":[2,4,6,8,10,12,14,16,18,20,22,24,26,28,30,32,34,36,38,40,42,44,46,48,50,52,54,56,58,60,62,-1,-1,-1,-1,-1,-1,-1,-1,-1,-1,-1,-1,-1,-1,-1,-1,-1,-1,-1,-1,-1,-1,-1,-1,-1,-1,-1,-1,-1,-1,-1,-1],"split_conditions":[7.57E1,4E1,1.22E2,2.19E1,5.79E1,6.85E2,1.774E2,1.18E1,2.7E2,1E-1,1.093E3,1.08E1,1E-1,8.12E1,1.031E2,1.2E1,3.21E1,4.8E1,5.51E1,1.4E1,1.92E1,5E0,5.4E1,6.87E1,1.681E2,2E0,-3.72E1,4.2E0,8.28E1,6.7E1,1.523E3,-6.002953E-1,-2.5784117E-1,-4.443744E-1,-2.6251194E-1,-6.055796E-1,-3.8330984E-1,-2.4064964E-1,-4.5874707E-2,-6.900595E-2,1.076276E-1,-7.7687454E-1,-1.8211335E-1,1.7570725E-1,4.397531E-1,1.2711396E0,5.4986703E-1,-8.015668E-1,5.4951227E-1,3.7995288E-1,6.9384927E-1,1.1604276E0,7.7785486E-1,6.364597E-1,-4.6418464E-1,1.4676838E0,2.2750816E0,1.1999012E0,2.7475938E-1,2.649784E0,8.410446E-1,2.589497E0,1.7297549E0],"split_indices":[0,0,0,0,16,2,0,0,2,9,2,31,9,41,16,12,15,4,16,30,38,11,4,15,18,12,35,8,3,7,25,0,0,0,0,0,0,0,0,0,0,0,0,0,0,0,0,0,0,0,0,0,0,0,0,0,0,0,0,0,0,0,0],"split_type":[0,0,0,0,0,0,0,0,0,0,0,0,0,0,0,0,0,0,0,0,0,0,0,0,0,0,0,0,0,0,0,0,0,0,0,0,0,0,0,0,0,0,0,0,0,0,0,0,0,0,0,0,0,0,0,0,0,0,0,0,0,0,0],"sum_hessian":[3.4516E4,2.8203E4,6.313E3,1.9601E4,8.602E3,4.135E3,2.178E3,1.0879E4,8.722E3,5.314E3,3.288E3,1.594E3,2.541E3,1.502E3,6.76E2,4.154E3,6.725E3,1.333E3,7.389E3,4.859E3,4.55E2,3.025E3,2.63E2,6.6E1,1.528E3,2.479E3,6.2E1,7.7E2,7.32E2,9.4E1,5.82E2,4.03E3,1.24E2,6.203E3,5.22E2,9.2E1,1.241E3,6.561E3,8.28E2,1.903E3,2.956E3,8.7E1,3.68E2,2.118E3,9.07E2,6.7E1,1.96E2,4.7E1,1.9E1,8.69E2,6.59E2,5.99E2,1.88E3,1.8E1,4.4E1,5.67E2,2.03E2,6.9E2,4.2E1,1.8E1,7.6E1,3.71E2,2.11E2],"tree_param":{"num_deleted":"0","num_feature":"51","num_nodes":"63","size_leaf_vector":"1"}},{"base_weights":[2.316435E-2,-6.1165185E0,1.909782E1,-9.879956E0,-8.542801E-1,1.2788274E1,3.453986E1,-1.2793776E1,-8.322581E0,-3.1563952E0,2.538632E0,9.716466E0,1.8160728E1,2.9325377E1,4.7935364E1,-1.5081431E1,-1.2039259E1,-6.3550143E0,-9.094501E0,-3.6776924E0,2.1128402E0,1.1111964E0,8.345465E0,4.701503E0,1.2427791E1,2.306592E1,1.5396662E1,2.4179432E1,3.5002544E1,3.2636864E1,5.401706E1,-6.960955E-1,-6.075017E-1,-5.234734E-1,-2.245681E-1,-3.275146E-1,-7.150305E-2,-4.05155E-1,-1.8219237E-1,-1.8661669E-1,-5.0877508E-2,8.243847E-1,6.139912E-2,-1.620545E-1,8.943373E-2,3.3339182E-1,1.434569E0,3.615913E-1,-5.230293E-2,8.004319E-1,4.09168E-1,7.9968053E-1,1.4653931E0,4.999522E-1,8.2152766E-1,8.6483616E-1,1.5364143E0,1.7320076E0,9.759407E-1,8.2784843E-1,1.7573426E0,2.453832E0,8.496532E-1],"categories":[],"categories_nodes":[],"categories_segments":[],"categories_sizes":[],"default_left":[0,0,0,0,0,0,0,0,0,0,0,0,0,0,0,0,0,0,0,0,0,0,0,0,0,0,0,0,0,0,0,0,0,0,0,0,0,0,0,0,0,0,0,0,0,0,0,0,0,0,0,0,0,0,0,0,0,0,0,0,0,0,0],"id":24,"left_children":[1,3,5,7,9,11,13,15,17,19,21,23,25,27,29,31,33,35,37,39,41,43,45,47,49,51,53,55,57,59,61,-1,-1,-1,-1,-1,-1,-1,-1,-1,-1,-1,-1,-1,-1,-1,-1,-1,-1,-1,-1,-1,-1,-1,-1,-1,-1,-1,-1,-1,-1,-1,-1],"loss_changes":[4.0356915E6,5.162728E5,8.1755225E5,6.8970875E4,8.490423E4,9.830806E4,1.700135E5,9.1366875E3,1.50430625E4,1.7788586E4,3.642094E4,5.1532656E4,2.9379125E4,5.1181125E4,6.345025E4,1.3665E3,6.0269375E3,1.7204484E4,1.361225E4,1.0164766E4,6.7626357E3,1.7028514E4,1.1728098E4,2.9709229E4,4.4215906E4,3.8108062E4,1.9652375E4,4.2551938E4,5.633375E4,2.1913484E4,5.768275E4,0E0,0E0,0E0,0E0,0E0,0E0,0E0,0E0,0E0,0E0,0E0,0E0,0E0,0E0,0E0,0E0,0E0,0E0,0E0,0E0,0E0,0E0,0E0,0E0,0E0,0E0,0E0,0E0,0E0,0E0,0E0,0E0],"parents":[2147483647,0,0,1,1,2,2,3,3,4,4,5,5,6,6,7,7,8,8,9,9,10,10,11,11,12,12,13,13,14,14,15,15,16,16,17,17,18,18,19,19,20,20,21,21,22,22,23,23,24,24,25,25,26,26,27,27,28,28,29,29,30,30],"right_children":[2,4,6,8,10,12,14,16,18,20,22,24,26,28,30,32,34,36,38,40,42,44,46,48,50,52,54,56,58,60,62,-1,-1,-1,-1,-1,-1,-1,-1,-1,-1,-1,-1,-1,-1,-1,-1,-1,-1,-1,-1,-1,-1,-1,-1,-1,-1,-1,-1,-1,-1,-1,-1],"split_conditions":[6.33E1,2.96E1,1.166E2,1.39E1,4.58E1,8.96E1,1.774E2,6.9791665E0,4E0,9.38E1,1.02E2,6.03E1,9.216E1,1.173E2,3.17E1,4.4E0,1.2E1,2E0,1.1E1,4.92E1,2.57E1,3.79E2,2.24E1,4.9784E3,6.8E1,1.173E2,5E0,1.1E1,9.216E1,1.3964583E2,8.41E1,-6.960955E-1,-6.075017E-1,-5.234734E-1,-2.245681E-1,-3.275146E-1,-7.150305E-2,-4.05155E-1,-1.8219237E-1,-1.8661669E-1,-5.0877508E-2,8.243847E-1,6.139912E-2,-1.620545E-1,8.943373E-2,3.3339182E-1,1.434569E0,3.615913E-1,-5.230293E-2,8.004319E-1,4.09168E-1,7.9968053E-1,1.4653931E0,4.999522E-1,8.2152766E-1,8.6483616E-1,1.5364143E0,1.7320076E0,9.759407E-1,8.2784843E-1,1.7573426E0,2.453832E0,8.496532E-1],"split_indices":[0,0,0,0,0,0,0,33,12,37,19,16,41,16,31,0,12,46,12,16,19,2,35,39,26,16,12,12,41,33,31,0,0,0,0,0,0,0,0,0,0,0,0,0,0,0,0,0,0,0,0,0,0,0,0,0,0,0,0,0,0,0,0],"split_type":[0,0,0,0,0,0,0,0,0,0,0,0,0,0,0,0,0,0,0,0,0,0,0,0,0,0,0,0,0,0,0,0,0,0,0,0,0,0,0,0,0,0,0,0,0,0,0,0,0,0,0,0,0,0,0,0,0,0,0,0,0,0,0],"sum_hessian":[3.446E4,2.6069E4,8.391E3,1.5199E4,1.087E4,5.957E3,2.434E3,5.294E3,9.905E3,6.476E3,4.394E3,3.79E3,2.167E3,1.752E3,6.82E2,1.313E3,3.981E3,2.791E3,7.114E3,5.893E3,5.83E2,3.527E3,8.67E2,1.33E3,2.46E3,7.81E2,1.386E3,9.19E2,8.33E2,1.94E2,4.88E2,5.38E2,7.75E2,3.854E3,1.27E2,2.178E3,6.13E2,6.574E3,5.4E2,4.607E3,1.286E3,2.2E1,5.61E2,5.89E2,2.938E3,8.49E2,1.8E1,8.13E2,5.17E2,7.63E2,1.697E3,5.64E2,2.17E2,7.08E2,6.78E2,6.9E2,2.29E2,5.71E2,2.62E2,7.6E1,1.18E2,4.43E2,4.5E1],"tree_param":{"num_deleted":"0","num_feature":"51","num_nodes":"63","size_leaf_vector":"1"}},{"base_weights":[1.776405E-1,-5.0686865E0,2.1459814E1,-8.4538965E0,2.0526977E0,1.7048225E1,4.1896248E1,-1.0957281E1,-5.8315983E0,-1.0998132E-1,6.0366297E0,2.4972195E1,1.2974745E1,3.36959E1,4.8052395E1,-1.2627816E1,-9.584084E0,-6.4158673E0,-2.138218E0,-1.0007969E0,4.9905915E0,4.247162E0,1.00017395E1,5.7451202E1,2.3674435E1,8.605093E0,1.6201609E1,3.761568E1,7.755563E0,3.8042572E1,5.9099693E1,-5.573044E-1,-3.7065008E-1,-4.1319868E-1,1.973322E-1,-2.853707E-1,-1.805315E-2,-3.7019932E-1,-9.477741E-3,1.1937253E0,-5.211687E-2,3.0781972E-1,3.5983976E-3,2.1024975E-1,-1.6794947E-1,1.0000504E0,3.7351206E-1,4.3071136E0,1.5440934E0,1.5257756E-1,1.08515E0,1.414852E-1,4.850786E-1,6.7337555E-1,1.6431788E0,1.2348034E0,2.3402863E0,1.0412875E0,-8.161274E-1,6.084748E-1,1.9956888E0,2.1637857E0,3.6001387E0],"categories":[],"categories_nodes":[],"categories_segments":[],"categories_sizes":[],"default_left":[0,0,0,0,0,0,0,0,0,0,0,0,0,0,0,0,0,0,0,0,0,0,0,0,0,0,0,0,0,0,0,0,0,0,0,0,0,0,0,0,0,0,0,0,0,0,0,0,0,0,0,0,0,0,0,0,0,0,0,0,0,0,0],"id":25,"left_children":[1,3,5,7,9,11,13,15,17,19,21,23,25,27,29,31,33,35,37,39,41,43,45,47,49,51,53,55,57,59,61,-1,-1,-1,-1,-1,-1,-1,-1,-1,-1,-1,-1,-1,-1,-1,-1,-1,-1,-1,-1,-1,-1,-1,-1,-1,-1,-1,-1,-1,-1,-1,-1],"loss_changes":[3.8414308E6,6.653881E5,6.13427E5,1.2281025E5,7.662203E4,1.8062675E5,6.09795E4,2.1954625E4,1.9716625E4,2.6189549E4,2.2201023E4,8.008175E4,5.21135E4,5.2668562E4,7.629725E4,7.2785E3,7.1122188E3,1.2721469E4,1.5624855E4,3.1276586E4,9.335125E3,1.19601875E4,1.6353344E4,6.748383E4,6.4107812E4,2.2909531E4,2.025475E4,6.728175E4,3.0403127E4,7.498169E4,6.962175E4,0E0,0E0,0E0,0E0,0E0,0E0,0E0,0E0,0E0,0E0,0E0,0E0,0E0,0E0,0E0,0E0,0E0,0E0,0E0,0E0,0E0,0E0,0E0,0E0,0E0,0E0,0E0,0E0,0E0,0E0,0E0,0E0],"parents":[2147483647,0,0,1,1,2,2,3,3,4,4,5,5,6,6,7,7,8,8,9,9,10,10,11,11,12,12,13,13,14,14,15,15,16,16,17,17,18,18,19,19,20,20,21,21,22,22,23,23,24,24,25,25,26,26,27,27,28,28,29,29,30,30],"right_children":[2,4,6,8,10,12,14,16,18,20,22,24,26,28,30,32,34,36,38,40,42,44,46,48,50,52,54,56,58,60,62,-1,-1,-1,-1,-1,-1,-1,-1,-1,-1,-1,-1,-1,-1,-1,-1,-1,-1,-1,-1,-1,-1,-1,-1,-1,-1,-1,-1,-1,-1,-1,-1],"split_conditions":[7.29E1,3.8E1,1.49E2,2.02E1,5.63E1,2.08E1,3E0,1.23E1,6.43E1,9.57E1,1.02E2,9.2E0,1.078E2,2.719E2,1.264E3,2.56E1,7.94E1,1.2E1,9.6E0,1.42E1,2.74E1,9.2E1,4.5E1,8.9166664E1,1.49E1,6.1E1,1.63E2,1.471125E2,1.872E2,3E0,2.338E2,-5.573044E-1,-3.7065008E-1,-4.1319868E-1,1.973322E-1,-2.853707E-1,-1.805315E-2,-3.7019932E-1,-9.477741E-3,1.1937253E0,-5.211687E-2,3.0781972E-1,3.5983976E-3,2.1024975E-1,-1.6794947E-1,1.0000504E0,3.7351206E-1,4.3071136E0,1.5440934E0,1.5257756E-1,1.08515E0,1.414852E-1,4.850786E-1,6.7337555E-1,1.6431788E0,1.2348034E0,2.3402863E0,1.0412875E0,-8.161274E-1,6.084748E-1,1.9956888E0,2.1637857E0,3.6001387E0],"split_indices":[0,0,0,0,0,6,11,0,37,19,19,6,1,37,24,16,37,12,5,6,29,7,4,33,3,16,16,33,16,46,1,0,0,0,0,0,0,0,0,0,0,0,0,0,0,0,0,0,0,0,0,0,0,0,0,0,0,0,0,0,0,0,0],"split_type":[0,0,0,0,0,0,0,0,0,0,0,0,0,0,0,0,0,0,0,0,0,0,0,0,0,0,0,0,0,0,0,0,0,0,0,0,0,0,0,0,0,0,0,0,0,0,0,0,0,0,0,0,0,0,0,0,0,0,0,0,0,0,0],"sum_hessian":[3.4405E4,2.7601E4,6.804E3,1.8708E4,8.893E3,5.596E3,1.208E3,9.571E3,9.137E3,5.764E3,3.129E3,1.9E3,3.696E3,5.18E2,6.9E2,4.318E3,5.253E3,7.889E3,1.248E3,4.907E3,8.57E2,2.156E3,9.73E2,7.3E1,1.827E3,1.57E3,2.126E3,4.5E2,6.8E1,3.62E2,3.28E2,3.896E3,4.22E2,5.218E3,3.5E1,7.55E3,3.39E2,2.83E2,9.65E2,3.7E1,4.87E3,5.9E2,2.67E2,1.991E3,1.65E2,8.3E1,8.9E2,2.4E1,4.9E1,1.46E2,1.681E3,5.38E2,1.032E3,2.086E3,4E1,2.99E2,1.51E2,4.2E1,2.6E1,9.7E1,2.65E2,2.46E2,8.2E1],"tree_param":{"num_deleted":"0","num_feature":"51","num_nodes":"63","size_leaf_vector":"1"}},{"base_weights":[1.8659929E-3,-5.8457847E0,1.6748793E1,-9.094009E0,-1.0198277E0,1.1655487E1,3.259986E1,-1.1782841E1,-7.6261764E0,-2.9275756E0,2.1717112E0,7.7854896E0,1.5864713E1,2.870615E1,4.453023E1,-1.3994209E1,-1.1141438E1,-6.031216E0,-8.5749655E0,-4.4794354E0,-1.4802231E0,9.6661305E-1,7.695751E0,-5.628921E-1,9.068176E0,8.5876045E0,1.7710915E1,3.6999138E1,2.4597729E1,4.6272343E1,7.356256E-4,-4.506226E-1,-6.0823834E-1,-4.858131E-1,-2.5014937E-1,-3.0311918E-1,-1.0054191E-1,-3.8538972E-1,-1.4711554E-1,-2.0511387E-1,2.93734E-1,-7.326232E-2,6.5179175E-1,-4.1259464E-2,1.1455726E-1,4.2264596E-1,9.199058E-2,8.128206E-2,-4.195009E-1,6.1545855E-1,3.00501E-1,-5.5172276E-2,4.3954927E-1,6.931064E-1,1.2424911E0,1.808737E0,7.78792E-1,7.1718884E-1,1.4812001E0,3.5587263E0,1.8659786E0],"categories":[],"categories_nodes":[],"categories_segments":[],"categories_sizes":[],"default_left":[0,0,0,0,0,0,0,0,0,0,0,0,0,0,0,0,0,0,0,0,0,0,0,0,0,0,0,0,0,0,0,0,0,0,0,0,0,0,0,0,0,0,0,0,0,0,0,0,0,0,0,0,0,0,0,0,0,0,0,0,0],"id":26,"left_children":[1,3,5,7,9,11,13,15,17,19,21,23,25,27,29,31,33,35,37,39,41,43,45,47,49,51,53,55,57,59,-1,-1,-1,-1,-1,-1,-1,-1,-1,-1,-1,-1,-1,-1,-1,-1,-1,-1,-1,-1,-1,-1,-1,-1,-1,-1,-1,-1,-1,-1,-1],"loss_changes":[3.3578305E6,3.9838425E5,7.1643475E5,5.9950375E4,6.2250402E4,1.0940056E5,1.002435E5,7.6071875E3,1.4868875E4,1.4372469E4,2.5462709E4,3.746889E4,4.3219375E4,5.5431125E4,4.1175375E4,1.0524531E3,5.2473125E3,1.4408391E4,1.4312719E4,1.1417211E4,1.3085919E4,1.0422023E4,8.368277E3,1.0650412E4,3.291478E4,1.0992852E4,4.3113625E4,5.42985E4,8.5681E4,4.853425E4,0E0,0E0,0E0,0E0,0E0,0E0,0E0,0E0,0E0,0E0,0E0,0E0,0E0,0E0,0E0,0E0,0E0,0E0,0E0,0E0,0E0,0E0,0E0,0E0,0E0,0E0,0E0,0E0,0E0,0E0,0E0],"parents":[2147483647,0,0,1,1,2,2,3,3,4,4,5,5,6,6,7,7,8,8,9,9,10,10,11,11,12,12,13,13,14,14,15,15,16,16,17,17,18,18,19,19,20,20,21,21,22,22,23,23,24,24,25,25,26,26,27,27,28,28,29,29],"right_children":[2,4,6,8,10,